0,1,2,3,4,5,6,7,8,9,10,11,12,13,14,15,16,17,18,19,20,21,22,23,24,25,26,27,28,29,30,31,32,33,34,35,36,37,38,39,40,41,42,43,44,45,46,47,48,49,50,51,52,53,54,55,56,57,58,59,60,61,62,63,64,65,66,67,68,69,70,71,72,73,74,75,76,77,78,79,80,81,82,83,84,85,86,87,88,89,90,91,92,93,94,95,96,97,98,99,100,101,102,103,104,105,106,107,108,109,110,111,112,113,114,115,116,117,118,119,120,121,122,123,124,125,126,127,128,129,130,131,132,133,134,135,136,137,138,139,140,141,142,143,144,145,146,147,148,149,150,151,152,153,154,155,156,157,158,159,160,161,162,163,164,165,166,167,168,169,170,171,172,173,174,175,176,177,178,179,180,181,182,183,184,185,186,187,188,189,190,191,192,193,194,195,196,197,198,199,200,201,202,203,204,205,206,207,208,209,210,211,212,213,214,215,216,217,218,219,220,221,222,223,224,225,226,227,228,229,230,231,232,233,234,235,236,237,238,239,240,241,242,243,244,245,246,247,248,249
0.069097094,0.11209221,-0.028351547,-0.07949726,-0.10744078,-0.12351117,-0.07778078,0.062813595,0.10265745,0.04733494,-0.121509895,-0.12520082,0.08766952,0.030723646,-0.065310694,-0.099036,0.07503185,0.029396918,0.12490557,-0.11302175,0.08177185,-0.09181639,0.06392701,0.13203214,-0.09190209,-0.12290441,0.09980897,-0.134513,0.030935176,0.077668816,0.07567323,0.05943629,-0.04280729,0.048397355,-0.094082326,-0.1152026,0.10260506,0.0877832,-0.055255175,0.08346831,-0.04470889,-0.07624299,0.09499658,-0.10632645,0.07314194,0.053030692,0.08135835,-0.0692152,-0.023785323,-0.026272051,-0.09658914,0.05089298,-0.13780949,-0.0704482,-0.08591693,0.09677791,-0.07850382,0.11272044,-0.034436297,-0.10587753,-0.034728516,-0.09270152,-0.111290924,0.058241528,0.05143252,0.027330117,-0.040826194,0.022077184,0.048263147,0.055639517,0.10048418,-0.079289325,-0.17798184,0.050534938,-0.10283921,0.12288311,-0.034001008,-0.11793368,0.06588207,0.06507508,-0.113988206,0.1228877,-0.062423605,-0.024156708,0.009663414,-0.054684766,-0.082995415,-0.08100255,-0.12705563,0.007592474,-0.093959086,0.036080346,-0.058485758,-0.059731163,-0.115070544,-0.11439618,0.06570058,0.07642794,-0.112757646,-0.113789916,-0.09317895,0.10489658,-0.10111042,0.09222445,-0.08907057,0.05045783,-0.097730346,0.101088844,0.105571605,0.06971412,0.011142633,-0.08198666,0.10440062,0.07322984,-0.058560148,-0.074524224,0.10548651,0.08889735,0.06343499,-0.04027513,0.13314918,0.08254254,0.11691218,0.05918206,0.05925833,0.061414722,-0.06759464,0.06273362,-0.05676996,-0.09734521,-0.043745648,0.11112416,-0.10247239,-0.057411116,0.059514143,0.0675093,0.042611603,-0.04036434,-0.116497986,-0.10308456,0.05737771,0.09774733,0.031082915,-0.11812836,0.036627814,0.0532523,-0.057099897,-0.12668711,-0.03542133,0.072616845,0.118451655,-0.11545747,0.057075564,0.060226616,-0.060853228,0.099735186,-0.08084173,0.14697132,-0.11949006,-0.06662693,-0.05530999,-0.096591376,0.049123667,0.06840081,-0.037199855,0.103962064,-0.06970838,-0.06361376,0.10497458,-0.1262364,-0.12487811,0.0035724477,0.10674075,0.07682773,0.109262064,-0.0744128,-0.10824569,0.1033858,-0.17739964,0.027918924,-0.10085131,0.077082105,-0.053448524,-0.028907087,-0.11451784,0.06461016,0.06504288,0.136132,-0.087024234,0.05931645,-0.052489474,-0.054094605,-0.07434784,-0.11072269,0.09866985,0.05693139,0.051687624,0.10793293,-0.09720568,-0.113608606,0.07941291,-0.07912514,-0.09215591,0.089733146,0.03454718,-0.11956039,-0.098526604,0.043113604,-0.061791465,0.11339393,0.10086603,0.07100133,-0.09525048,0.034003623,0.10839701,0.049517144,0.035809685,-0.10613303,0.11745343,-0.060706947,-0.05855298,-0.0786362,-0.13148333,0.11511945,0.053158887,0.10805087,0.12774959,-0.053104468,0.07749033,0.118664466,-0.063203774,-0.021914102,0.04851626,-0.1516849,0.11603869,0.08239228,0.06773816,-0.076125234,-0.109996706,0.10946148,0.17169228,0.115660995,0.021018837,-0.1044061,-0.08699037,0.10288979,0.06553341,-0.05225762,0.11761642,0.12977116
0.0687456,0.11045391,-0.11773334,-0.14224356,-0.037580747,-0.033245765,-0.108481124,0.104715616,0.083977096,0.065822825,-0.117986135,-0.065290965,0.04078856,0.053672068,-0.12636548,-0.10225788,0.11061206,0.028824998,0.03304363,-0.062012855,0.07676019,-0.07635367,0.05879863,0.11865127,-0.105309404,-0.09092234,0.17240383,-0.054668233,0.09052075,0.112624496,0.12055235,0.027006464,-0.040775716,0.027125953,-0.07183662,-0.066056736,0.08392327,0.08589817,-0.061358318,0.050849542,-0.057419483,-0.09563821,0.07913134,-0.13016881,0.14420405,0.08395608,0.11618393,-0.073003635,-0.08345364,-0.022979807,-0.08442804,0.050181724,-0.06574482,-0.030487312,-0.11693601,0.08512703,0.01777336,0.09990359,-0.112586945,-0.09812954,-0.11864877,-0.14717565,-0.08082875,0.1057843,0.102990985,0.077330455,-0.040253405,0.08171524,0.091825254,0.12653984,0.025482014,-0.06319539,-0.06567804,0.050114457,-0.049228057,0.08232577,-0.047295626,-0.115274765,0.05190143,0.10785804,-0.111033194,0.12884535,-0.04306076,-0.047063526,0.0038466866,-0.04604859,-0.0986341,-0.04992007,-0.12050642,0.063757434,-0.03477688,0.11531672,-0.063034095,-0.07092904,-0.09555245,-0.040731825,0.11149771,0.058415372,-0.033174735,-0.09165428,-0.059965428,0.042564522,-0.0607448,0.08968172,-0.0891132,0.115815856,-0.090442024,0.10517858,0.07078511,0.05361706,0.08436745,-0.092794664,0.083539195,0.052368034,-0.05630418,-0.017338455,0.10767563,0.100137584,0.10204648,-0.1187456,0.09278118,0.09218165,0.08718289,0.092271715,0.053440064,0.026963461,-0.13350512,0.028860716,-0.09025316,-0.062252797,-0.121864885,0.03984965,-0.043007135,-0.07638651,0.061790764,0.09696238,0.11446056,-0.041193612,-0.10325011,-0.10435001,0.08891196,0.11589194,0.06550279,-0.09386591,0.07520269,0.09090264,0.026886467,-0.11226167,-0.05698841,0.053863868,0.06458871,-0.118161574,0.11143737,0.0383101,-0.05774547,0.092495315,-0.06728813,0.08792541,-0.030065028,-0.11055657,-0.04413677,-0.041748807,0.03284727,0.11005538,-0.023287173,0.10441803,-0.04595264,-0.1091425,0.1399923,-0.05279427,-0.07407089,0.037014373,0.13407646,0.09932429,0.06741376,-0.10077104,-0.045759957,0.09361124,-0.11155188,0.119128846,-0.099001035,0.0677448,-0.041984323,-0.08191754,-0.0788537,0.12558247,0.08786841,0.04141509,-0.09195247,0.07841277,-0.080481604,-0.056818258,-0.08733017,-0.11853447,0.09763313,0.028377065,0.031150566,0.067045175,-0.04980972,-0.055958856,0.065999456,-0.090819,-0.10492056,0.035273626,0.033472806,-0.11392349,-0.08610434,0.032726377,-0.07108997,0.03662955,0.05405328,0.12835239,-0.15891847,0.08178391,0.11146961,0.10387204,0.10602772,-0.09526629,0.04177694,-0.06423475,-0.13678226,-0.1019958,-0.15333049,0.075108655,0.029093787,0.036765855,0.13920608,-0.03263751,0.039620504,0.03713257,-0.108759604,-0.059247762,0.060159344,-0.13184083,0.13303962,0.05481931,0.08830911,-0.05777071,-0.03507817,0.08195851,0.139646,0.109326,0.0953722,-0.070911124,-0.0858483,0.050711844,0.07579711,-0.11545272,0.05712606,0.08127654
0.03304731,0.11544364,-0.066108435,-0.074062504,-0.1040042,-0.10907602,-0.08669747,0.09515242,0.029265711,0.12581474,-0.102852635,-0.05094164,0.05553399,0.07869587,-0.098109454,-0.030830834,0.10176321,0.06881532,0.03170566,-0.09761355,0.03579214,-0.115253955,0.07753183,0.0823246,-0.0890792,-0.07880701,0.14326565,-0.07522606,0.09562871,0.096281886,0.061253555,0.05591688,-0.10763296,0.09970296,-0.091512926,-0.109734476,0.021830453,0.13596664,-0.05101702,0.05711982,-0.065154135,-0.1091846,0.07853939,-0.109349996,0.12621596,0.037184924,0.097535335,-0.082740486,-0.043106157,-0.08331298,-0.09092823,0.11913044,-0.04750395,-0.022325365,-0.01869419,0.029238662,-0.03553642,0.12718514,-0.09251213,-0.11263763,-0.06877639,-0.0928405,-0.07668208,0.08171307,0.04909267,0.11531185,-0.058309246,0.09047496,0.08995717,0.1036964,0.06301669,-0.09075315,-0.11975315,0.08944068,-0.07796189,0.046176694,-0.068679176,-0.077225745,0.072735384,0.020849746,-0.109353855,0.08105869,-0.1113005,-0.10019707,-0.0051366095,-0.10940599,-0.10203426,-0.11828009,-0.1179198,0.083477154,-0.12459389,0.053345222,-0.09781003,-0.08450286,-0.12618873,-0.1165606,0.108538434,0.026203472,-0.032974396,-0.11267608,-0.041996814,0.088647045,-0.038092382,0.114516586,-0.07772647,0.062162403,-0.10121496,0.13208659,0.0666512,0.05328384,0.07891056,-0.039856527,0.10345941,0.0842484,-0.056127466,-0.04771023,0.10818208,0.05633602,0.090463996,-0.12520052,0.0623139,0.11183361,0.10195532,0.059554957,0.10356803,0.071623094,-0.046234913,0.09394677,-0.09764531,-0.11863144,-0.13427036,0.097030275,-0.104708716,-0.10268654,0.053812847,0.10340846,0.097284704,-0.10400931,-0.07230551,-0.10242582,0.07288579,0.11445195,0.05781848,-0.11392388,0.041244216,0.11643837,0.021493865,-0.11305032,-0.060333513,0.121617466,0.10266233,-0.044800073,0.12319121,0.019250236,-0.07027177,0.06310507,-0.05900729,0.09484023,-0.086278185,-0.041645184,-0.10685899,-0.012930927,0.03936681,0.044886395,-0.03335384,0.04520364,-0.06223269,-0.08405375,0.115731776,-0.09539303,-0.06578275,-0.05290369,0.04603614,0.106981136,0.113673724,-0.029481603,-0.03236231,0.097091846,-0.15552036,0.090692855,-0.04330994,0.095488705,-0.028542867,-0.04908998,-0.07125634,0.1271564,0.085435264,0.054995693,-0.0672239,0.105818935,-0.045868594,-0.021843007,-0.14777711,-0.09963679,0.044658862,0.079004005,0.103747725,0.10069103,-0.0523066,-0.089498915,0.10444122,-0.111674584,-0.07605606,0.11151847,0.060796697,-0.13051425,-0.120404065,0.105338834,-0.08858735,0.11239382,0.10296416,0.10449947,-0.09266813,0.09728969,0.050928988,0.108346336,0.10946933,-0.10462878,0.028081262,-0.103287436,-0.09006876,-0.11094777,-0.10868102,0.12688774,0.09636623,0.045270137,0.13271919,-0.08342259,0.09648705,0.123525605,-0.10916905,-0.10378362,0.04213819,-0.14447355,0.076463,0.13388126,0.036443595,-0.086170636,-0.050447762,0.09367082,0.10017964,0.07968082,0.08876181,-0.054829415,-0.051566232,0.020206245,0.05529327,-0.047576856,0.10024688,0.0560196
0.10474618,0.10204806,-0.08081658,-0.037978597,-0.06389733,-0.067191295,-0.124094374,0.09482097,0.123661034,0.105345584,-0.1336676,-0.048954085,0.10992746,0.04521784,-0.05517303,-0.09508583,0.08873185,0.07840644,0.03888365,-0.09737275,0.08572921,-0.12850368,0.037470937,0.09264873,-0.062306307,-0.11706471,0.055127908,-0.121105656,0.08621001,0.082360454,0.073347695,0.07663913,-0.042106334,0.10242153,-0.03424793,-0.06331987,0.040982403,0.047154304,-0.065001376,0.08944922,-0.022457939,-0.082669765,0.08350474,-0.08287574,0.05994898,0.07437784,0.07254879,-0.07533474,-0.11062507,-0.122359484,-0.110674135,0.07526577,-0.11319387,-0.0800766,-0.036518175,0.04147428,-0.035256874,0.05807013,-0.12223516,-0.06650643,-0.029417362,-0.14198358,-0.027035056,0.026038667,0.039598875,0.10588436,-0.06622685,0.08472938,0.07570992,0.07864262,0.032980476,-0.083499536,-0.12889694,0.11896785,-0.070194975,0.032881953,-0.0419585,-0.08138661,0.09581944,0.034479383,-0.104874425,0.111612305,-0.068542026,-0.05238896,0.03620748,-0.09306432,-0.10717942,-0.04660475,-0.046272468,0.08480573,-0.053006865,0.03222373,-0.06667555,-0.077153616,-0.054710872,-0.111468785,0.10670192,0.046153083,-0.086768255,-0.08122223,-0.03900651,0.12201494,-0.11851955,0.1173761,-0.07761091,0.09139861,-0.069825664,0.078941196,0.05242245,0.040762566,-0.022179218,-0.013576571,0.09185222,0.032128606,-0.112072,-0.054848596,0.081885725,0.07290896,0.10947222,-0.07115633,0.13963406,0.0356145,0.045943875,0.119178824,0.11656021,0.06787751,-0.116638586,0.093707934,-0.07031284,-0.11432818,-0.0895391,0.11977492,-0.065031916,-0.054509703,0.07486238,0.05356232,0.034794647,-0.035731863,-0.12212368,-0.13084641,0.12192054,0.11462995,0.03003166,-0.09846798,0.08581641,0.11655447,-0.029393122,-0.03322245,-0.065690495,0.11497748,0.11297508,-0.113798454,0.08933985,0.048969958,-0.040730722,0.06916843,-0.045334738,0.050863408,-0.11392561,-0.11310188,-0.101568505,0.025844842,0.10782269,0.10273339,-0.02185047,0.11473965,-0.057185218,-0.122583464,0.10781725,-0.12539299,-0.075112164,-0.02725293,0.044095695,0.10207642,0.120876126,-0.048921768,-0.05521199,0.099830545,-0.06299885,0.091077946,-0.13793948,0.09420121,-0.030431671,-0.028817806,-0.074739054,0.11147142,0.06634382,0.08638374,-0.09467218,0.04051203,-0.10204748,-0.06738789,-0.118731126,-0.07589489,0.053371325,0.020092707,0.04943212,0.09567898,-0.08322916,-0.046265017,0.10133222,-0.09150481,-0.12023156,0.11459837,0.098919384,-0.10771786,-0.111128956,0.10578115,-0.08340789,0.061978437,0.02964115,0.05294733,-0.0924895,0.031080078,0.09941342,0.04046732,0.10022914,-0.081080936,0.051588677,-0.053209856,-0.13747069,-0.091195896,-0.11412342,0.11065452,0.039166216,0.039613046,0.06163205,-0.040274393,0.038410697,0.05988011,-0.05117886,-0.042783342,0.051035836,-0.08609303,0.067689925,0.037766073,0.07571349,-0.07968832,-0.110046946,0.11285253,0.12593694,0.10129396,0.11048387,-0.10524115,-0.13027447,0.106544,0.08713716,-0.09663628,0.119477175,0.06716377
0.019078769,0.07318084,-0.04074572,-0.1329151,-0.10121466,-0.041144446,-0.053321667,0.11859392,0.12726715,0.083277024,-0.05294119,-0.13296892,0.080120414,0.022739852,-0.10590296,-0.02840179,0.04842109,0.104606174,0.15952793,-0.10025331,0.05173226,-0.13563834,0.05170848,0.10038809,-0.1177989,-0.091159195,0.15827239,-0.0787413,0.045768768,0.110484086,0.109842084,0.07867604,-0.031599335,0.112154365,-0.06640887,-0.13245462,0.015362206,0.11972954,-0.09474537,0.08364147,-0.034017727,-0.039159972,0.08758593,-0.08022715,0.16490033,0.110040165,0.05675923,-0.12425399,-0.11379045,-0.06142437,-0.062288165,0.06934369,-0.04711862,-0.10661178,-0.048131786,0.036388032,0.007479845,0.043105893,-0.0643504,-0.061133146,-0.027225718,-0.105436236,-0.026810993,0.061305087,0.048573,0.05706056,-0.029490659,0.07663789,0.11411928,0.11200058,0.042648423,-0.033218,-0.13522941,0.054739237,-0.029037269,0.048325926,-0.06927928,-0.093899705,0.10965252,0.12741849,-0.123414226,0.062142786,-0.069320634,-0.05865093,0.06718422,-0.05462975,-0.09814866,-0.13880315,-0.119000554,0.083828166,-0.09896549,0.10060937,-0.11549372,-0.06122583,-0.08603219,-0.062463693,0.12952213,0.105224475,-0.03305621,-0.11307384,-0.047743354,0.05255249,-0.0348549,0.06971959,-0.108850524,0.050946645,-0.05927735,0.08445604,0.05453283,0.0368206,0.036200453,-0.108938396,0.11557713,0.0978186,-0.059239693,-0.07178353,0.12832399,0.11762467,0.03813254,-0.11131243,0.09016391,0.1275453,0.045631804,0.07395273,0.06341526,0.0819415,-0.07735194,0.054467965,-0.106169924,-0.040315658,-0.096845716,0.051402017,-0.056857318,-0.105578266,0.06689892,0.091154054,0.08437042,-0.08194101,-0.16990964,-0.054438744,0.04160601,0.093952574,0.098494306,-0.046980605,0.09301253,0.051938426,-0.043492988,-0.09034107,-0.058988877,0.12270055,0.08042738,-0.12565532,0.14505252,0.11217073,-0.053535055,0.1208563,-0.11595457,0.09378741,-0.06841513,-0.13979942,-0.08214589,-0.1200257,0.054522842,0.07398181,-0.104200825,0.07327082,-0.104992114,-0.05858378,0.07031394,-0.085038215,-0.07884237,-0.029924566,0.0661064,0.038184874,0.043560386,-0.10143636,-0.06531161,0.034182686,-0.12792383,0.066089675,-0.0664028,0.080886014,-0.09060349,-0.08814218,-0.07927311,0.05825655,0.07684513,0.07640917,-0.115029104,0.09664699,-0.052232314,-0.105342604,-0.080549896,-0.041087724,0.067323774,0.023657933,0.15155423,0.09578245,-0.10722589,-0.118168935,0.13512275,-0.063613094,-0.08928323,0.04977476,0.13409945,-0.06958407,-0.04914363,0.048705827,-0.078928635,0.027775312,0.06288351,0.105809666,-0.14811207,0.072529525,0.059734214,0.11792292,0.062446985,-0.116546296,0.052620612,-0.08156641,-0.09281773,-0.13022543,-0.12580505,0.104749404,0.10104403,0.038454898,0.120759316,-0.086379126,0.06873706,0.08383427,-0.04353063,-0.045381363,0.1355456,-0.09285913,0.058505677,0.08694551,0.09963819,-0.11611078,-0.107680365,0.04552628,0.15753856,0.15354802,0.11782543,-0.07197809,-0.10665068,0.083525546,0.0656393,-0.07048424,0.10008792,0.091078594
0.096295886,0.07149677,-0.11153726,-0.12591301,-0.033283982,-0.046626005,-0.0959121,0.122789696,0.11953536,0.07481858,-0.061403364,-0.057427377,0.052270327,0.021969413,-0.09082303,-0.09772205,0.09622482,0.060921755,0.10748467,-0.090624034,0.053648107,-0.13980272,0.06031086,0.07031797,-0.11506272,-0.0804669,0.15492487,-0.0801924,0.10025923,0.14622185,0.11798741,0.07956602,-0.10516501,0.04780276,-0.12340453,-0.07517194,0.05544145,0.10546898,-0.08780705,0.10065587,-0.032292705,-0.10066537,0.08845657,-0.045302603,0.12377901,0.10977308,0.056675177,-0.06565662,-0.05362316,-0.019872617,-0.10943271,0.12266912,-0.11856681,-0.10902399,-0.055204727,0.12401207,-0.061118618,0.07220892,-0.077449,-0.11674874,-0.06767395,-0.11098311,-0.03335004,0.057341978,0.04381684,0.063265905,-0.056240372,0.062017813,0.06435545,0.10926145,0.028075306,-0.10788865,-0.077988416,0.0923868,-0.014963137,0.112663634,-0.051512364,-0.07062908,0.12186216,0.10332625,-0.119425006,0.06700713,-0.08549048,-0.046431113,0.034927648,-0.10906955,-0.08009102,-0.12346472,-0.04931063,0.09279532,-0.089273416,0.14330366,-0.06442861,-0.049281105,-0.10921931,-0.048423283,0.08140912,0.034181252,-0.09838786,-0.041245155,-0.06942823,0.041535314,-0.06970925,0.053277742,-0.052668534,0.050447185,-0.12957758,0.10779985,0.10496457,0.03683906,0.035150368,-0.060707625,0.043197,0.059238337,-0.07899183,-0.048587337,0.12942943,0.08327222,0.06924683,-0.119254015,0.07273639,0.07608185,0.054648485,0.081546746,0.042957325,0.08663662,-0.04435196,0.05231606,-0.08457816,-0.09926291,-0.048530467,0.10328323,-0.093378484,-0.026539879,0.10080557,0.098053545,0.07247644,-0.10447901,-0.16990341,-0.10177489,0.0672691,0.04222567,0.08915536,-0.07707046,0.07302969,0.054202225,0.02579204,-0.040620983,-0.05944738,0.12440522,0.09220441,-0.100888245,0.05544071,0.06488034,-0.10734634,0.07241412,-0.087159716,0.080111004,-0.03222807,-0.13926078,-0.090033725,-0.072921425,0.043075092,0.03802306,-0.078724764,0.07477171,-0.0831056,-0.03501095,0.04181727,-0.11352825,-0.13321356,-0.015246754,0.040640835,0.046139482,0.037753537,-0.03705086,-0.096670754,0.05094631,-0.122433305,0.09348421,-0.057526454,0.07871964,-0.039959215,-0.08895541,-0.061150745,0.078177504,0.074740835,0.111893,-0.11543391,0.07215949,-0.07275722,-0.05967242,-0.15074594,-0.054838233,0.05946152,0.08157308,0.08215618,0.09983179,-0.047214214,-0.11110096,0.12749872,-0.0734172,-0.088191174,0.110199355,0.054898255,-0.075627394,-0.09851457,0.07957279,-0.03916862,0.09369056,0.08445556,0.08606577,-0.055421636,0.07651261,0.056853306,0.042400956,0.09867326,-0.04048756,0.106897146,-0.11063298,-0.12893814,-0.07195018,-0.057413876,0.11321146,0.061960652,0.09932761,0.10439817,-0.11361884,0.05804554,0.11945263,-0.0982285,-0.12650523,0.13448133,-0.14087547,0.081876345,0.08526722,0.065200016,-0.07835952,-0.018202864,0.044563953,0.1324006,0.052526843,0.0865139,-0.07124864,-0.054803383,0.09137304,0.087483846,-0.024958754,0.076104924,0.10511852
0.033583824,0.08688503,-0.12682441,-0.102953814,-0.06653966,-0.09337267,-0.05663027,0.09120209,0.114898,0.10799818,-0.11980247,-0.07300634,0.045884892,0.090065576,-0.09316088,-0.085515745,0.05917151,0.04391231,0.12517364,-0.097195685,0.08678134,-0.14846328,0.07635651,0.124699384,-0.11936186,-0.074006505,0.0763331,-0.12098583,0.038641278,0.093839295,0.074399926,0.10252969,-0.07365643,0.047221463,-0.14596057,-0.13273913,0.058772277,0.08189023,-0.06779,0.036899384,-0.013567035,-0.06637862,0.08718795,-0.12397671,0.082921565,0.053637937,0.07182052,-0.12639149,-0.029292399,-0.09623102,-0.11058384,0.068497665,-0.1304643,-0.07370855,-0.074214,0.11599976,-0.016761253,0.112631224,-0.055913355,-0.08816461,-0.04934793,-0.05559703,-0.06587606,0.11176548,0.07367179,0.10565884,-0.06806599,0.07502598,0.061963197,0.046327136,0.05332295,-0.047963947,-0.13226163,0.057481233,-0.067831926,0.08031093,-0.05006962,-0.0512454,0.06460816,0.12964204,-0.12768659,0.05145744,-0.054591447,-0.061779577,0.0024543707,-0.09424037,-0.060437288,-0.060659625,-0.08841549,0.05390064,-0.053612377,0.14087051,-0.10356868,-0.14273503,-0.11378604,-0.10748883,0.110236265,0.07051504,-0.11292019,-0.07600879,-0.07455705,0.049146336,-0.1268174,0.025806798,-0.102809325,0.079938754,-0.10404346,0.110066265,0.06550478,0.104255185,0.020375632,-0.07110705,0.07409917,0.055940546,-0.115511864,-0.021844542,0.13313806,0.071794726,0.053799793,-0.09048717,0.09454601,0.034679268,0.11422466,0.11424597,0.047497425,0.05929135,-0.034880675,0.08395492,-0.09425851,-0.08214142,-0.05752697,0.08645536,-0.056528278,-0.020136178,0.10627229,0.10822341,0.033778645,-0.04870919,-0.08204684,-0.08866533,0.085271895,0.09333044,0.04633349,-0.12611789,0.081439674,0.079850346,0.03142903,-0.025866004,-0.113822155,0.07351821,0.13404357,-0.06545769,0.08145893,0.07474268,-0.07757558,0.10748552,-0.116034515,0.08622037,-0.039887205,-0.11891465,-0.052838434,-0.057262637,0.044313535,0.026877705,-0.04305996,0.099345095,-0.06278883,-0.06571477,0.09334548,-0.07165303,-0.15579252,-0.049952444,0.09898952,0.030308481,0.11149919,-0.08412358,-0.08462031,0.06090926,-0.097166486,0.121693105,-0.032263316,0.09659717,-0.07610731,-0.030405737,-0.06659398,0.14413287,0.07395732,0.07528582,-0.019428948,0.04788238,-0.055765454,-0.04125999,-0.11106774,-0.054225653,0.10744522,0.05031776,0.103297725,0.11989297,-0.053716157,-0.11543854,0.058833357,-0.049061067,-0.04560102,0.066725634,0.09471299,-0.10772037,-0.1073667,0.03184494,-0.03453559,0.064289525,0.09421686,0.081654795,-0.074136496,0.08654505,0.0305907,0.12105197,0.10841619,-0.05244723,0.05981956,-0.03385013,-0.078133605,-0.049936064,-0.07129088,0.12352081,0.054087933,0.032078065,0.10271712,-0.04374301,0.110760294,0.090254605,-0.07521285,-0.119022235,0.12559853,-0.15984012,0.10407794,0.11570281,0.028654125,-0.058723357,-0.08913016,0.022368237,0.08326025,0.04553421,0.092739016,-0.08475122,-0.13616869,0.036585372,0.025724888,-0.10438278,0.110459276,0.043995425
0.03197286,0.042141702,-0.072051354,-0.1392245,-0.06237326,-0.08574331,-0.10982337,0.08508121,0.0867362,0.0634105,-0.08654855,-0.11363927,0.10056805,0.10760604,-0.10476173,-0.07623422,0.066060014,0.060493194,0.12168891,-0.09232414,0.08384197,-0.15149538,0.04246826,0.13828231,-0.015247113,-0.0772668,0.1673411,-0.060767367,0.06414041,0.08897023,0.09085235,0.023433171,-0.10701164,0.11032654,-0.09006646,-0.14079894,0.029039629,0.12391073,-0.092556804,0.06946295,-0.046488535,-0.051972702,0.06449551,-0.10262818,0.06642973,0.025399482,0.067969054,-0.07419771,-0.031210922,-0.08553301,-0.051357,0.10721512,-0.120149456,-0.023143567,-0.05493548,0.09341674,-0.08289784,0.11256514,-0.053076364,-0.062003482,-0.017435864,-0.12265114,-0.08230457,0.026344132,0.08193345,0.09854643,-0.047079023,0.018954286,0.02198241,0.04957285,0.06373295,-0.062146164,-0.14056922,0.09473216,-0.07275464,0.07693345,-0.09442512,-0.09669774,0.07988645,0.04156081,-0.107424036,0.11978885,-0.02343476,-0.035753712,0.040205512,-0.0744595,-0.103479385,-0.13435668,-0.119383655,0.052557338,-0.071333356,0.11925409,-0.11573472,-0.086966515,-0.110567294,-0.12751932,0.09005693,0.041958384,-0.027462004,-0.047460258,-0.076670244,0.07602635,-0.060028832,0.032500587,-0.033835553,0.10084816,-0.037765622,0.101166956,0.045074873,0.114810586,0.01312862,-0.092065915,0.07158938,0.08636562,-0.10881377,-0.056884963,0.06732006,0.09751852,0.09303694,-0.04113265,0.054364882,0.08296468,0.08515132,0.0219617,0.07028221,0.05843914,-0.12891077,0.03186136,-0.0918367,-0.0875748,-0.042605255,0.10873296,-0.11418853,-0.100502074,0.096066296,0.01933871,0.06413085,-0.09129283,-0.04690084,-0.05504653,0.055569973,0.07065896,0.04302859,-0.09151162,0.05592196,0.110807,-0.026009716,-0.10196167,-0.080164306,0.017811114,0.12765427,-0.07570985,0.07452163,0.104142375,-0.11046317,0.11085246,-0.104982644,0.13839573,-0.06195314,-0.07720392,-0.059115358,-0.031719495,0.09637882,0.06922156,-0.050185814,0.07075789,-0.08097365,-0.109563105,0.04928411,-0.12303746,-0.070564866,-0.07372456,0.116055496,0.08698088,0.04616459,-0.118621916,-0.08497308,0.069719605,-0.14668445,0.027440397,-0.11326174,0.08685354,-0.086228184,-0.030669993,-0.10486827,0.11039706,0.09407383,0.124768145,-0.035466176,0.084790185,-0.031206684,-0.032740396,-0.08913787,-0.080482066,0.10425569,0.08636345,0.08903873,0.051249135,-0.08539669,-0.039096553,0.10008975,-0.11318267,-0.095079824,0.049402043,0.1263163,-0.06035053,-0.124911025,0.021114072,-0.12490534,0.080380835,0.03864883,0.07388741,-0.11728607,0.09486695,0.058579322,0.04492585,0.11095435,-0.03519527,0.112647384,-0.121620744,-0.089299984,-0.07937107,-0.08493474,0.0724684,0.10520832,0.11586584,0.1455867,-0.06609274,0.07635342,0.06122767,-0.0706472,-0.05944971,0.14272945,-0.19120587,0.11316636,0.06018949,0.03590224,-0.089908876,-0.034718376,0.040198408,0.12820499,0.11317799,0.0729869,-0.05100372,-0.124470465,0.027686415,0.105796814,-0.030872425,0.021925347,0.085586466
0.08580657,0.05348229,-0.09278131,-0.08088628,-0.057110593,-0.11250047,-0.035741225,0.097921565,0.0613283,0.11283067,-0.08163888,-0.06786707,0.052322526,0.067900166,-0.031992182,-0.046656862,0.08074027,0.0677034,0.1466929,-0.13331047,0.05137047,-0.09538992,0.118090875,0.074464284,-0.11010058,-0.032675907,0.07202665,-0.1236712,0.034997895,0.08164537,0.03311593,0.080168135,-0.12055646,0.04547421,-0.12843883,-0.12398189,0.0690379,0.06549607,-0.018462725,0.108860135,-0.07533952,-0.12503429,0.025546996,-0.09561198,0.091028206,0.056283746,0.08763216,-0.10261394,-0.09747112,-0.09930544,-0.069368005,0.0751121,-0.04955589,-0.0320943,-0.011457418,0.031971697,-0.037120737,0.09150353,-0.09200055,-0.07131804,-0.02338444,-0.13500766,-0.012100287,0.06994731,0.11399941,0.046419896,-0.0804788,0.05226253,0.0824338,0.06184959,0.097997576,-0.02316479,-0.07449876,0.087817274,-0.014277236,0.049745113,-0.09401341,-0.07620737,0.04519126,0.0983355,-0.07694332,0.12494937,-0.032281566,-0.061307088,0.07085369,-0.110020265,-0.054502174,-0.0634458,-0.064016305,0.06194949,-0.058726106,0.10888017,-0.04236712,-0.14583598,-0.08616237,-0.060396906,0.09557355,0.111207865,-0.034038134,-0.080313146,-0.04997543,0.08113104,-0.09102935,0.02198005,-0.11204102,0.053002764,-0.0577521,0.06981156,0.081960686,0.10356441,0.029385844,-0.05410282,0.04906095,0.07706158,-0.036823,-0.028671643,0.058523364,0.06374213,0.10408437,-0.042336896,0.084387615,0.123894475,0.076860905,0.08484479,0.082888626,0.097980395,-0.11838844,0.06749484,-0.12427902,-0.07700162,-0.11120866,0.1329355,-0.035604004,-0.06199796,0.061707146,0.0727201,0.05168377,-0.083339706,-0.10813193,-0.15040815,0.04572162,0.101893745,0.03895867,-0.1060857,0.0902141,0.118598506,-0.060404025,-0.07646899,-0.066636674,0.09981789,0.12878598,-0.12655063,0.13238096,0.07478944,-0.030457217,0.10938739,-0.1112648,0.124669656,-0.029660845,-0.09091171,-0.10643808,-0.03496617,0.09831666,0.08134642,-0.042908557,0.09540185,-0.09422235,-0.03639332,0.13851172,-0.10933455,-0.09161645,-0.027736807,0.07671324,0.061865874,0.08621657,-0.08570693,-0.11976328,0.047829915,-0.15089692,0.071229324,-0.13891515,0.034713402,-0.124255955,-0.1062787,-0.09085187,0.074625954,0.11795583,0.09731056,-0.06394086,0.13685478,-0.112706654,-0.093380846,-0.12577972,-0.042150076,0.021147907,0.06926,0.14020973,0.10710296,-0.09480587,-0.052319534,0.13168393,-0.10239956,-0.11226776,0.095601946,0.054231197,-0.06807143,-0.12149974,0.07465743,-0.12850082,0.082894996,0.13447642,0.09404693,-0.13341889,0.0599088,0.02926828,0.12322708,0.07983432,-0.09707678,0.07323627,-0.1330553,-0.043649867,-0.06876059,-0.06319866,0.12222057,0.065187514,0.1104084,0.12123863,-0.10130904,0.08156085,0.12455092,-0.1297285,-0.02929007,0.13378818,-0.13884005,0.096860915,0.095956974,0.09661524,-0.11401492,-0.091507435,0.10926044,0.09995114,0.13379477,0.09722991,-0.072780505,-0.089850985,0.08807603,0.017068062,-0.10485151,0.05100456,0.04232451
0.11042705,0.07318453,-0.12456204,-0.12262238,-0.06036718,-0.099289425,-0.11176252,0.08153868,0.10580756,0.054456826,-0.09296102,-0.04562551,0.1098136,0.039037857,-0.11025009,-0.08625506,0.056094285,0.11974789,0.09423012,-0.06314154,0.08605648,-0.11290478,0.0520008,0.055654645,-0.100272864,-0.04011575,0.1384526,-0.11584782,0.04448175,0.11807598,0.09256668,0.021561578,-0.10368007,0.09226861,-0.1363282,-0.13845006,0.09264706,0.13384587,-0.06361452,0.09845472,-0.111702,-0.052790873,0.05708302,-0.061670236,0.08283689,0.06731656,0.037442364,-0.061579783,-0.11157886,-0.07907297,-0.051511053,0.092835866,-0.10455017,-0.021421729,-0.07284478,0.038092762,-0.024474667,0.1208044,-0.019353798,-0.11150096,-0.027771901,-0.13939495,-0.08744947,0.080442324,0.021581555,0.12213016,-0.11149723,0.09528802,0.06534733,0.045191262,0.046757318,-0.1165382,-0.070904404,0.08236408,-0.022685647,0.09357109,-0.09268106,-0.07883065,0.09770701,0.08072849,-0.04756316,0.097847894,-0.0956924,-0.057543613,0.053619992,-0.054325372,-0.112599336,-0.110343195,-0.11334975,0.0884061,-0.12686169,0.038006995,-0.09466977,-0.10593799,-0.06134678,-0.1324481,0.035795156,0.06654246,-0.094484605,-0.04152687,-0.04365204,0.07372918,-0.031929396,0.09551551,-0.13192567,0.10531496,-0.13526745,0.1100114,0.10098068,0.10956393,0.0648002,-0.035807997,0.048963167,0.10740587,-0.086254284,-0.027870256,0.08166451,0.10805265,0.034987163,-0.060477477,0.13340013,0.046289746,0.036666434,0.0542076,0.08060056,0.1139907,-0.0911315,0.08492496,-0.07291249,-0.052441217,-0.101912715,0.13623096,-0.079524785,-0.10251552,0.009951131,0.047017638,0.10479432,-0.0896217,-0.085526116,-0.04898953,0.058446355,0.124660134,0.09498669,-0.055360947,0.051320516,0.111231744,-0.010724809,-0.114271544,-0.09875181,0.11357032,0.13972181,-0.100363165,0.055830378,0.05181393,-0.040269095,0.101196185,-0.04214188,0.091083355,-0.10172401,-0.048278753,-0.10157579,-0.06254797,0.11234659,0.05216118,-0.06702608,0.08942698,-0.037898034,-0.030346118,0.08781021,-0.039722066,-0.09538915,0.015714183,0.035202026,0.053279813,0.09119111,-0.065719076,-0.090391755,0.091412164,-0.15431057,0.08228272,-0.06879289,0.04729272,-0.04595638,-0.090941295,-0.099498525,0.050296232,0.08785309,0.06346142,-0.11243107,0.062809125,-0.06256353,-0.026559863,-0.13848424,-0.073985524,0.061195932,0.094852395,0.073049076,0.0886553,-0.09963048,-0.09137429,0.1208566,-0.048689324,-0.07005241,0.094078295,0.058035657,-0.09861029,-0.12007331,0.11340663,-0.029263085,0.07030571,0.045589443,0.098359115,-0.15091598,0.07009287,0.11371421,0.11960423,0.064438425,-0.12354448,0.077960655,-0.12931037,-0.08331429,-0.12628639,-0.10487097,0.03963002,0.037860893,0.07949862,0.06342656,-0.030305913,0.072380275,0.049713086,-0.12666307,-0.087947614,0.11815943,-0.08443579,0.09174655,0.056769017,0.115993455,-0.09837355,-0.05544672,0.10204376,0.06972931,0.13811448,0.0712799,-0.08255934,-0.13439937,0.10439453,0.036037207,-0.052384812,0.11233126,0.07308246
0.07094309,0.029457474,-0.04433506,-0.126591,-0.08034939,-0.12658255,-0.10195491,0.12469461,0.0791543,0.12648754,-0.13537169,-0.10007085,0.11016423,0.09302091,-0.053840987,-0.075778864,0.048029646,0.042576253,0.05501686,-0.11248029,0.038391832,-0.058220495,0.11172154,0.096033014,-0.03621316,-0.08005335,0.07332911,-0.119846374,0.036374263,0.07173443,0.13011205,0.02184619,-0.04810093,0.11308488,-0.063961975,-0.14233398,0.05059918,0.0689801,-0.026707923,0.026125178,-0.080206245,-0.05873139,0.12521183,-0.08490157,0.13767792,0.12662436,0.08967933,-0.051940423,-0.062796146,-0.054962613,-0.08748314,0.042618174,-0.10335101,-0.051253922,-0.05448948,0.042357724,-0.07308392,0.082558274,-0.043075863,-0.11665812,-0.09619824,-0.1022055,-0.050767817,0.08140321,0.09399811,0.10923984,-0.026142394,0.033102147,0.10758288,0.1318865,0.041444514,-0.06492122,-0.13750799,0.067292646,-0.12437477,0.04420956,-0.053954072,-0.12725504,0.106310815,0.08344783,-0.11924664,0.03445922,-0.06868845,-0.07718763,0.041000657,-0.03084805,-0.10819959,-0.060473587,-0.088514015,0.05969526,-0.07323217,0.049572006,-0.12659965,-0.1169264,-0.16285396,-0.11916943,0.04465651,0.048134957,-0.023837376,-0.045744035,-0.057741433,0.087769136,-0.033905543,0.04541836,-0.10539879,0.10810562,-0.07206523,0.1249284,0.043491554,0.074557446,0.01701916,-0.11006249,0.045584805,0.059126414,-0.057550892,-0.060415354,0.057999372,0.13780984,0.10233636,-0.046901643,0.09391466,0.0594461,0.096826784,0.047552403,0.075466745,0.08772537,-0.084201485,0.08182133,-0.09020127,-0.063882224,-0.046054043,0.12966001,-0.080096945,-0.056516774,0.0445192,0.09394663,0.09573558,-0.058161173,-0.039540038,-0.06765067,0.05774282,0.123409025,0.052129045,-0.058302578,0.05279019,0.14636438,-0.07062193,-0.0353386,-0.071665145,0.049672995,0.10760382,-0.048867725,0.12457465,0.086515635,-0.14877257,0.106190175,-0.0864044,0.105935834,-0.048287854,-0.12845582,-0.15209992,-0.020618457,0.102074854,0.040646438,-0.08449761,0.02350429,-0.07359915,-0.06876777,0.04415343,-0.14692254,-0.1494222,0.03157073,0.10958133,0.099967934,0.057599172,-0.08977048,-0.106878124,0.07771613,-0.14992242,0.10807487,-0.1301518,0.09154351,-0.09445155,-0.09615236,-0.08631165,0.11298838,0.124306336,0.10124103,-0.105660774,0.06974633,-0.023655567,-0.08617325,-0.10971072,-0.055349264,0.095026374,0.07168932,0.104860246,0.04890248,-0.07337763,-0.04786263,0.123201616,-0.06596309,-0.033601295,0.0760112,0.09694651,-0.031512067,-0.043397963,0.062606305,-0.080282815,0.048623778,0.11244384,0.12963879,-0.120773725,0.03586697,0.062120024,0.055531356,0.098520994,-0.07239643,0.031964824,-0.08854546,-0.08254543,-0.08283835,-0.10677152,0.11739054,0.045825794,0.036339547,0.10277906,-0.06706173,0.065073445,0.11355228,-0.09566579,-0.046395868,0.12525664,-0.17446029,0.10820919,0.112325676,0.04215028,-0.04830461,-0.02146797,0.045657992,0.09637988,0.119620055,0.05429579,-0.13668865,-0.08805764,0.04605771,0.062491823,-0.050262094,0.11993601,0.14373083
0.020108275,0.07772127,-0.13922007,-0.12523305,-0.015991572,-0.047022134,-0.07071957,0.03899496,0.0542131,0.021751296,-0.054507796,-0.06422931,0.10348733,0.06185741,-0.11656153,-0.043203443,0.08263445,0.09022981,0.08300925,-0.050144266,0.060930535,-0.09340354,0.09775153,0.13182212,-0.07776315,-0.05921602,0.08897151,-0.04874622,0.050204415,0.09574225,0.11235445,0.03440284,-0.1110459,0.04711712,-0.080758505,-0.11817285,0.09289785,0.082686424,-0.011054036,0.09659506,-0.09118454,-0.093983725,0.08304163,-0.041725606,0.07199642,0.09169554,0.14154099,-0.04979445,-0.11553671,-0.06052949,-0.023569725,0.06821572,-0.12584282,-0.04434996,-0.10820857,0.05308934,-0.061276693,0.10951755,-0.058660116,-0.06630107,-0.078517765,-0.08204662,-0.104090214,0.04755032,0.022228498,0.038863633,-0.046526104,0.074863,0.08696967,0.081164755,0.09966503,-0.06645971,-0.10426051,0.07567688,-0.07347014,0.097275786,-0.02226208,-0.11347956,0.09884791,0.116934404,-0.10455765,0.12924907,-0.07922745,-0.026496619,0.05249088,-0.053201716,-0.10444674,-0.06583124,-0.03593185,0.065501146,-0.105505705,0.064689204,-0.1202849,-0.11129852,-0.14990528,-0.07071152,0.11157303,0.08163676,-0.037646912,-0.07532855,-0.032247756,0.10907048,-0.087132305,0.087803,-0.035103388,0.1215877,-0.1270322,0.15571524,0.064507656,0.06773194,0.07890948,-0.047271326,0.01658062,0.066128634,-0.0646675,-0.06350344,0.13022557,0.10118532,0.06500643,-0.09919034,0.07012014,0.035389673,0.048707478,0.032349557,0.03494669,0.106352605,-0.043428287,0.11532076,-0.06917756,-0.096621886,-0.1253184,0.037917458,-0.03138589,-0.036690604,0.051010698,0.08022845,0.05723847,-0.090109594,-0.11295079,-0.12658562,0.038121376,0.061264325,0.081110515,-0.11723407,0.085213706,0.1083668,0.016868176,-0.05736483,-0.06996673,0.047338773,0.14001094,-0.05891225,0.12165833,0.08192586,-0.06481316,0.05540112,-0.10045489,0.118013605,-0.06537711,-0.14495185,-0.08205367,-0.023152752,0.05091026,0.030743435,-0.06189872,0.019423835,-0.12114301,-0.112890184,0.07158109,-0.076694645,-0.1473014,0.030463872,0.08353256,0.01981861,0.050332405,-0.114287086,-0.09279441,0.04418033,-0.13566038,0.097265445,-0.0960608,0.08334469,-0.12745841,-0.08724958,-0.12342159,0.0686454,0.11897974,0.07666488,-0.09072357,0.050301246,-0.06237122,-0.10623651,-0.071147524,-0.113774076,0.03567235,0.02124756,0.13618188,0.05993321,-0.049988635,-0.11485504,0.07740992,-0.07783841,-0.054650493,0.09712399,0.028496623,-0.09351262,-0.07653217,0.069012366,-0.08794415,0.037959743,0.12865648,0.1229267,-0.06756141,0.10916762,0.07614235,0.05626157,0.057989538,-0.12414576,0.029053546,-0.09762559,-0.07152619,-0.081361026,-0.1348652,0.11906269,0.1129079,0.08173957,0.15010774,-0.044554833,0.04725346,0.078978084,-0.05187531,-0.04246585,0.073198535,-0.15518667,0.110109895,0.034088433,0.06622231,-0.13828638,-0.10219822,0.06010262,0.15696797,0.057329085,0.102982305,-0.040306,-0.10791022,0.085313395,0.10689036,-0.09510823,0.0850208,0.12089291
0.020239783,0.019814098,-0.06596807,-0.13030027,-0.0677151,-0.02642179,-0.07555926,0.095245235,0.109832674,0.049166746,-0.08629183,-0.11370802,0.06241124,0.11633032,-0.07273576,-0.118119255,0.049153265,0.103777945,0.08207474,-0.11292356,0.062460948,-0.12711109,0.020502677,0.10778443,-0.12461467,-0.09596598,0.12655659,-0.058834225,0.10356842,0.10067442,0.09036111,0.07329667,-0.032867365,0.044607524,-0.073412314,-0.09395183,0.07221589,0.058275573,-0.07098502,0.030700976,-0.061966605,-0.04382673,0.06275801,-0.12028718,0.052031174,0.08710573,0.13226473,-0.069641106,-0.05132916,-0.031170757,-0.049395073,0.0334651,-0.101535074,-0.029550474,-0.03460349,0.08770932,0.0016318071,0.07930749,-0.04044891,-0.09089718,-0.04327272,-0.06563062,-0.057231262,0.10400121,0.10346797,0.06800107,-0.08595878,0.12304321,0.041871972,0.052593984,0.035394173,-0.06888792,-0.1533708,0.08619961,-0.0077760858,0.10929584,-0.022313708,-0.07568163,0.06957352,0.10439868,-0.04839782,0.08703736,-0.027893284,-0.046686366,0.039111875,-0.039298005,-0.07336927,-0.12438186,-0.029512886,0.05258473,-0.09585854,0.12683079,-0.13135825,-0.09107604,-0.12754174,-0.10258639,0.06727989,0.057665262,-0.11538178,-0.06498545,-0.042912275,0.068766706,-0.05409869,0.026000988,-0.04109231,0.07378914,-0.13147257,0.07943847,0.08266753,0.030377511,0.034774166,-0.11878654,0.05064776,0.11801454,-0.06891101,-0.11037654,0.06776556,0.09027443,0.027428549,-0.11807874,0.1162897,0.11862475,0.027005011,0.089259855,0.08828717,0.10353761,-0.09889043,0.047437493,-0.05276147,-0.06072482,-0.096943386,0.06930867,-0.0816301,-0.03212425,0.026824592,0.059596084,0.1189867,-0.12590855,-0.14175339,-0.09698359,0.08201795,0.050752442,0.10315423,-0.10403685,0.07171354,0.077367015,-0.053159054,-0.09975633,-0.033558592,0.045375064,0.06472542,-0.064912185,0.11106546,0.0911562,-0.086628914,0.051191315,-0.107572764,0.13636228,-0.02986096,-0.123122945,-0.042486385,0.004094055,0.05878865,0.030638773,-0.063912,0.05713812,-0.049397662,-0.068187095,0.06792558,-0.07108223,-0.07510492,-0.015959458,0.023590835,0.024015743,0.103706375,-0.0893134,-0.07008811,0.029226033,-0.0700089,0.07777827,-0.11891565,0.101361535,-0.038554363,-0.1036227,-0.04970981,0.07973289,0.11030154,0.13582034,-0.097031526,0.086447805,-0.10178887,-0.036700793,-0.04607824,-0.0439226,0.03513735,0.02254697,0.058653813,0.07520536,-0.061187107,-0.11808757,0.091541104,-0.041740436,-0.100655586,0.08076679,0.090083815,-0.094267756,-0.040189482,0.0614558,-0.058995713,0.058748372,0.07630396,0.10950826,-0.122595616,0.11404992,0.097020544,0.10449076,0.06775667,-0.04547843,0.11307056,-0.11911015,-0.0915222,-0.14150582,-0.12140855,0.11591373,0.112715125,0.06797875,0.13856831,-0.031198723,0.06570114,0.0668335,-0.082747936,-0.109169066,0.10678664,-0.07857661,0.05216167,0.13455306,0.039488174,-0.03988818,-0.114355855,0.024086893,0.12263378,0.050362706,0.021803085,-0.095791906,-0.07530242,0.068794265,0.053652853,-0.03284554,0.104769506,0.052655425
0.07715425,0.0452215,-0.058818836,-0.15181513,-0.09744449,-0.047735278,-0.030626146,0.05765329,0.061899137,0.096029855,-0.083784476,-0.042223398,0.11388632,0.080679,-0.06528316,-0.11330243,0.107899114,0.029308889,0.1023988,-0.11829306,0.04027017,-0.15850787,0.10332322,0.11697405,-0.116081856,-0.045019433,0.07941113,-0.117564864,0.05273409,0.059401177,0.1258211,0.067424074,-0.06976597,0.107608706,-0.13715129,-0.088220395,0.0970918,0.06425544,-0.100079186,0.016142227,-0.061254498,-0.057333276,0.10200817,-0.10573286,0.15754095,0.03165875,0.0765423,-0.07151629,-0.07206938,-0.08909146,-0.084161125,0.09374506,-0.10739878,-0.020358788,-0.109074526,0.08238897,-0.010672451,0.10445963,-0.059798043,-0.09279933,-0.068536095,-0.08366113,-0.033643603,0.03238649,0.036255416,0.101775326,-0.060332295,0.016872695,0.10028088,0.09806163,0.068469256,-0.08323075,-0.13973907,0.09814931,-0.05410755,0.05860743,-0.06922539,-0.10545421,0.10886209,0.06263294,-0.0916059,0.08612768,-0.038115673,-0.082985274,0.04503759,-0.068946965,-0.026407707,-0.09486298,-0.03263184,0.025140101,-0.058933638,0.08028307,-0.053103156,-0.11781159,-0.1540971,-0.11992735,0.0999285,0.02980808,-0.051750585,-0.11944181,-0.111854754,0.052247677,-0.10922275,0.0325667,-0.0763849,0.03680957,-0.11046635,0.066443406,0.095407546,0.09982074,0.040789325,-0.07978306,0.06826632,0.096596085,-0.1299161,-0.095995545,0.11846779,0.13110481,0.035798687,-0.04010495,0.10464277,0.12970279,0.09695538,0.051078446,0.08356201,0.10897701,-0.105363905,0.10027246,-0.042495172,-0.035255656,-0.11055356,0.10833642,-0.067317046,-0.03334952,0.09924338,0.013263466,0.026966618,-0.07504305,-0.15359618,-0.036536343,0.069730885,0.0441422,0.08646634,-0.14136198,0.033942748,0.16118889,0.0007472952,-0.028414417,-0.063480265,0.043510914,0.13601683,-0.08894566,0.07847308,0.07100718,-0.09081446,0.08996248,-0.04054028,0.14793597,-0.03464961,-0.14475113,-0.12545176,-0.08492335,0.07960754,0.09001485,-0.112287164,0.077713355,-0.10675434,-0.038099308,0.06849116,-0.13680924,-0.09018289,-0.016311245,0.070162006,0.10217033,0.0912411,-0.045991026,-0.10326724,0.06375278,-0.11122178,0.04402979,-0.10423499,0.039552376,-0.0961117,-0.0573049,-0.11142206,0.1452404,0.03672928,0.10098432,-0.10162907,0.07700125,-0.08701925,-0.0474755,-0.109759614,-0.09744014,0.051143806,0.08667293,0.081176214,0.07042306,-0.040596616,-0.08485324,0.06558636,-0.11953526,-0.039418325,0.048413973,0.061791744,-0.042276923,-0.13606529,0.10183996,-0.10177517,0.09575096,0.050350677,0.06812786,-0.062906936,0.11122249,0.029384688,0.045353256,0.05504662,-0.08306971,0.06252862,-0.038255822,-0.062483247,-0.123822525,-0.12971763,0.07519543,0.09930561,0.06946426,0.07422173,-0.022321729,0.11475688,0.05943477,-0.10988471,-0.10307863,0.06637517,-0.12565722,0.068230964,0.08447672,0.053114474,-0.03274977,-0.02433068,0.06088277,0.15658253,0.08541835,0.09004551,-0.10106648,-0.14081833,0.11832316,0.09607261,-0.08247072,0.07856647,0.14354718
0.030864617,0.11384295,-0.09597199,-0.112312295,-0.09938723,-0.12533635,-0.06793072,0.08256633,0.055295944,0.071405,-0.076819874,-0.08059623,0.050139397,0.111044705,-0.024398204,-0.023294512,0.052469395,0.08669325,0.16623358,-0.12278245,0.043672167,-0.08633622,0.089217916,0.10375669,-0.07060578,-0.12421649,0.079669595,-0.036181893,0.030067792,0.109623596,0.06767277,0.03013691,-0.028822092,0.039714657,-0.11084451,-0.056154814,0.05366285,0.14991632,-0.0995806,0.041910194,-0.09262683,-0.07726948,0.0897448,-0.06578165,0.060487285,0.078066126,0.074873716,-0.027022373,-0.027303021,-0.07645728,-0.079478644,0.09112339,-0.07694877,-0.08442513,-0.08553987,0.05071728,-0.014811792,0.032837946,-0.024320863,-0.03335468,-0.06038735,-0.05911373,-0.05368429,0.022104759,0.09843795,0.061579384,-0.043062042,0.0756863,0.117795564,0.042809725,0.055646565,-0.06783931,-0.10180399,0.086069845,-0.08947532,0.028823731,-0.10299603,-0.12496356,0.044242516,0.03639067,-0.038799472,0.09866949,-0.06929513,-0.10450637,-0.001038934,-0.100023,-0.09788688,-0.09103708,-0.08460706,0.009815466,-0.12343482,0.046971314,-0.12443516,-0.046501927,-0.12537584,-0.04914161,0.048439123,0.053367767,-0.0607554,-0.05828887,-0.08184203,0.0825807,-0.07207102,0.053832885,-0.12224884,0.04302183,-0.053998083,0.11638658,0.11673318,0.06809992,0.014922501,-0.05598395,0.068169676,0.056166083,-0.06791027,-0.080813535,0.090386316,0.0674874,0.1056465,-0.07713754,0.09841673,0.09558572,0.110481136,0.08867268,0.07893053,0.063634425,-0.103794,0.069445044,-0.07318972,-0.039917916,-0.053229917,0.09099026,-0.10032269,-0.055989757,0.1122417,0.098182574,0.0898934,-0.09102793,-0.07272699,-0.14432429,0.09222418,0.05384983,0.12147857,-0.095221035,0.03980622,0.09333667,-0.011938479,-0.11666869,-0.074348144,0.031073522,0.11804331,-0.13653755,0.11826047,0.09748217,-0.1137847,0.12517276,-0.036468666,0.092014,-0.11473207,-0.113408156,-0.0680464,-0.06893201,0.10999281,0.11304183,-0.021659354,0.02210007,-0.049601536,-0.10156695,0.07122117,-0.11404732,-0.08323592,0.0057251323,0.09223037,0.03522754,0.06788381,-0.09470917,-0.048079815,0.03844017,-0.08036502,0.061422512,-0.048356473,0.06557562,-0.12611641,-0.078538306,-0.110454984,0.07334585,0.02192169,0.04944686,-0.0486206,0.1120234,-0.093550764,-0.07592749,-0.111159,-0.029230902,0.07756306,0.038432997,0.13018683,0.121931575,-0.08777251,-0.08925747,0.11455135,-0.04680662,-0.08351027,0.04795983,0.11379545,-0.052337453,-0.06694175,0.118785605,-0.06847127,0.08491013,0.08186403,0.10055699,-0.050440215,0.06796436,0.038045693,0.11227633,0.041126747,-0.07427161,0.09026827,-0.03233642,-0.108150594,-0.067596056,-0.060000554,0.09987888,0.06959719,0.06192813,0.08204987,-0.055601094,0.038034864,0.1011425,-0.09118297,-0.086291805,0.077058144,-0.11963617,0.091981925,0.06235378,0.04953718,-0.068364486,-0.043634243,0.08066819,0.14237075,0.08343,0.11533954,-0.09552397,-0.059685994,0.04592714,0.029401027,-0.038621698,0.109887935,0.0335462
0.09773599,0.101579115,-0.035511818,-0.054654304,-0.024255024,-0.09487587,-0.12215223,0.08916953,0.12222891,0.080338016,-0.11673357,-0.08099982,0.042537402,0.04294639,-0.12112326,-0.020600269,0.06971716,0.032112796,0.06825645,-0.06726,0.03030522,-0.1620836,0.04424885,0.060961988,-0.0763353,-0.10434937,0.12225387,-0.1170021,0.06353223,0.067723244,0.056676377,0.091493264,-0.047858156,0.112144336,-0.10550244,-0.086791694,0.107832246,0.06669943,-0.06260168,0.09708916,-0.06740574,-0.03382015,0.099386364,-0.052155226,0.06739682,0.03882515,0.061762374,-0.097760096,-0.031200223,-0.039809667,-0.033797674,0.03824902,-0.094392225,-0.08263549,-0.026252177,0.12689681,-0.034818683,0.06649379,-0.10927791,-0.077989444,-0.11153828,-0.15385999,-0.119081184,0.11146342,0.03963809,0.033544853,-0.109029,0.041783992,0.021356028,0.10296525,0.025025647,-0.11599179,-0.07532313,0.043369085,-0.08775607,0.1008419,-0.11715288,-0.07795763,0.116955325,0.033294845,-0.08257275,0.038461752,-0.08834207,-0.033339754,0.061501727,-0.033102952,-0.07746189,-0.13810886,-0.07796537,0.032414455,-0.11107669,0.061851263,-0.0311082,-0.05926747,-0.11930714,-0.09970994,0.115862995,0.07534715,-0.033640817,-0.07410179,-0.07126542,0.043720815,-0.09638729,0.046976835,-0.12209092,0.03702852,-0.1354588,0.05887775,0.040589623,0.045698762,0.038136538,-0.06906119,0.07182519,0.06272448,-0.12465886,-0.05906777,0.062251363,0.078752376,0.1145388,-0.036105137,0.079450846,0.047477674,0.06960252,0.03520793,0.1034115,0.026341984,-0.09994538,0.037647154,-0.064096786,-0.050284836,-0.07845027,0.046511557,-0.10385926,-0.070085675,0.09653716,0.053592157,0.043925595,-0.03361253,-0.14795472,-0.059231304,0.08786035,0.066289425,0.11565485,-0.11641078,0.061280467,0.0943938,-0.015143707,-0.10623746,-0.09996341,0.1213289,0.08959994,-0.10557906,0.1187229,0.060218096,-0.05010495,0.10342648,-0.03916141,0.119094335,-0.105633534,-0.09689959,-0.114188135,-0.07105514,0.07500666,0.027172726,-0.03447042,0.042876527,-0.08620316,-0.023476176,0.08354109,-0.11633868,-0.15680118,-0.056508027,0.05215639,0.04436635,0.050260413,-0.07411033,-0.08514411,0.104496285,-0.07276527,0.052183066,-0.08833692,0.07335353,-0.04834363,-0.027471207,-0.09702507,0.13831638,0.10731491,0.06677146,-0.030642975,0.03644567,-0.08595506,-0.079566985,-0.15492466,-0.044212595,0.08859494,0.014611097,0.065544136,0.076787844,-0.11635151,-0.07542081,0.096958235,-0.10545842,-0.03705069,0.03652431,0.054792576,-0.12597671,-0.10170516,0.04536212,-0.10377998,0.02551291,0.088727094,0.084412426,-0.13944027,0.034650963,0.06760972,0.07681438,0.097706445,-0.095890895,0.052146174,-0.081933044,-0.04484485,-0.09270062,-0.14143947,0.08602258,0.06529578,0.09852684,0.05477696,-0.081263766,0.067114055,0.089268826,-0.061714545,-0.06257659,0.06640135,-0.13633683,0.12432849,0.1281632,0.08720544,-0.100832075,-0.0911409,0.11799447,0.090228684,0.078117885,0.06632814,-0.092377536,-0.089333154,0.08447055,0.051466275,-0.08918048,0.072211616,0.10879047
0.019343007,0.0807667,-0.11768114,-0.05177783,-0.05854691,-0.069705404,-0.10432791,0.07360051,0.10366472,0.10718698,-0.12577957,-0.095654674,0.08032753,0.05866285,-0.109971315,-0.0366077,0.058348566,0.064288765,0.04343753,-0.0383322,0.022608396,-0.06855586,0.019692246,0.1418145,-0.10999912,-0.10804786,0.19020055,-0.0411736,0.07711568,0.14890477,0.06448043,0.08816424,-0.08619298,0.121012196,-0.062221963,-0.13664617,0.0987075,0.09064225,-0.07468572,0.07435083,-0.03915617,-0.105039746,0.095544785,-0.08034099,0.10785552,0.09034018,0.06575688,-0.13495135,-0.0503065,-0.09236174,-0.020407785,0.048873883,-0.06794791,-0.11060185,-0.09960506,0.08031663,-0.0044462956,0.036082968,-0.07659889,-0.08653832,-0.05274856,-0.07479618,-0.04271204,0.042166956,0.04287063,0.08053342,-0.06364002,0.10033767,0.09791732,0.06433133,0.026504796,-0.038627885,-0.14476041,0.03920108,-0.08930588,0.05822866,-0.037757047,-0.06902426,0.062334467,0.03492461,-0.09779666,0.104143,-0.041714095,-0.050269037,0.0219776,-0.041034445,-0.12171873,-0.08361326,-0.07106304,0.06733289,-0.079188086,0.054123282,-0.12096275,-0.12493524,-0.13671346,-0.1235998,0.1378545,0.11003535,-0.059790026,-0.120122604,-0.083631635,0.08564105,-0.10052444,0.051124617,-0.04801223,0.11904594,-0.045519534,0.076176256,0.117076546,0.13340706,0.06673597,-0.13636188,0.08632355,0.122279435,-0.12478731,-0.037003804,0.05059202,0.048851922,0.08521986,-0.10611051,0.053135388,0.10032331,0.0456589,0.06745754,0.030951615,0.06844061,-0.05567814,0.11348441,-0.054869458,-0.10116418,-0.08670396,0.10687782,-0.02325224,-0.10953429,0.034686785,0.057383336,0.12106184,-0.10383245,-0.09523013,-0.13938668,0.08420813,0.10684958,0.06271292,-0.117371045,0.09623919,0.05609214,-0.051986065,-0.026895704,-0.056125026,0.03103926,0.053769246,-0.13990052,0.10359121,0.061703347,-0.06135261,0.06326847,-0.03982026,0.09484394,-0.08731116,-0.09779698,-0.05339091,-0.041891407,0.1344368,0.099583454,-0.09315253,0.103619695,-0.07438563,-0.059752952,0.047147807,-0.088112935,-0.13414343,-0.011180334,0.05517108,0.08312128,0.058984313,-0.0600738,-0.06677419,0.09609918,-0.13222459,0.09386999,-0.06633195,0.09662766,-0.052452587,-0.11640195,-0.13290358,0.07932165,0.07458109,0.085003674,-0.07346004,0.13636205,-0.06509917,-0.09035558,-0.17639151,-0.085618705,0.074211046,-0.005057346,0.05256786,0.0867616,-0.106693566,-0.11127245,0.08767853,-0.12811412,-0.12107605,0.051300492,0.05173598,-0.07074688,-0.07651674,0.03748855,-0.026239725,0.033226363,0.06243038,0.12536664,-0.08318681,0.06153278,0.103156276,0.07876555,0.10720927,-0.055165738,0.052196953,-0.11260039,-0.12774888,-0.12349113,-0.091259286,0.045288865,0.026468182,0.0477561,0.11293274,-0.03834873,0.05186707,0.074894406,-0.13542193,-0.08329389,0.08142112,-0.085812934,0.07674264,0.13203952,0.11444317,-0.12559181,-0.048594482,0.04822388,0.17076606,0.07285404,0.090759374,-0.10920547,-0.07871161,0.10206038,0.1087957,-0.05845848,0.07984561,0.053337026
0.06147993,0.09595976,-0.09359884,-0.05646845,-0.026663756,-0.10765096,-0.07956202,0.105792105,0.058078554,0.11200054,-0.12078968,-0.12076399,0.04263326,0.055772416,-0.10369924,-0.10056322,0.08251488,0.07778936,0.07895167,-0.056847073,0.030668067,-0.12514938,0.09026387,0.10556457,-0.12434665,-0.10426333,0.07189356,-0.1309619,0.042218905,0.14139411,0.030695925,0.057865936,-0.03373654,0.09271271,-0.14790134,-0.06280122,0.09425094,0.083050184,-0.10283702,0.092481904,-0.042116333,-0.086282276,0.10383979,-0.050502352,0.14372277,0.07295331,0.11443268,-0.11565319,-0.11779241,-0.021532353,-0.053598184,0.08199528,-0.10738251,-0.037939116,-0.014470327,0.1124811,-0.015993547,0.10350215,-0.06614268,-0.018515926,-0.07549678,-0.07196353,-0.06909755,0.11594341,0.09365995,0.09939012,-0.046633046,0.079307444,0.08650474,0.086279206,0.06706698,-0.06669547,-0.09313315,0.1147318,-0.060355544,0.07307412,-0.11523407,-0.081102185,0.11919175,0.11759202,-0.1337599,0.030771032,-0.07988781,-0.09730888,-0.012711794,-0.0774014,-0.1028515,-0.04397006,-0.105057254,0.056731883,-0.028140146,0.07078672,-0.063595496,-0.064712055,-0.07421341,-0.12763406,0.120597236,0.06491078,-0.045189485,-0.100651324,-0.07264245,0.042553365,-0.0996456,0.07159214,-0.12439103,0.043976992,-0.110556245,0.10822056,0.07960978,0.0897912,-0.0021631874,-0.0847799,0.020714931,0.07667268,-0.042458355,-0.057004686,0.07786377,0.060261115,0.079803936,-0.1139071,0.07495057,0.1211707,0.110133804,0.110838905,0.026182916,0.092264995,-0.11530662,0.037345365,-0.09634974,-0.10078083,-0.112130806,0.1087695,-0.05126411,-0.025030624,0.07119855,0.078316756,0.065051414,-0.11834191,-0.12693407,-0.14059253,0.10724547,0.06272705,0.035733327,-0.077701814,0.04619338,0.03246587,0.014808167,-0.066315316,-0.07073138,0.12615225,0.12486904,-0.055009335,0.076673284,0.043988608,-0.032109503,0.113980874,-0.05750103,0.06418302,-0.05118563,-0.09834322,-0.11786506,-0.013569855,0.06445816,0.119117364,-0.114013635,0.028874334,-0.060992252,-0.06526925,0.10659837,-0.070346914,-0.15757927,-0.024380699,0.10847592,0.11313144,0.104375675,-0.10495189,-0.076614074,0.09615028,-0.10657068,0.106708184,-0.10507568,0.06282772,-0.058301754,-0.041967593,-0.08190605,0.13133325,0.07828431,0.07525494,-0.06310943,0.09896099,-0.068228446,-0.048489403,-0.065396234,-0.117849454,0.043059383,0.04675305,0.07490652,0.08186592,-0.06972937,-0.049458146,0.12709115,-0.07145671,-0.089944765,0.046956293,0.11111826,-0.042105265,-0.04532028,0.035456914,-0.046156008,0.101000845,0.10253966,0.07299384,-0.14355469,0.099365436,0.091449045,0.049088582,0.09000243,-0.05912177,0.109079726,-0.03715427,-0.05494065,-0.061450075,-0.096987836,0.05235131,0.06086016,0.12702498,0.13523214,-0.027512373,0.09648489,0.104560085,-0.06437829,-0.062244605,0.086943,-0.10022933,0.11552061,0.11573847,0.068773575,-0.08306042,-0.07596722,0.08689879,0.16294272,0.05202311,0.10733927,-0.07151744,-0.10623043,0.06427339,0.057154726,-0.055986147,0.093039446,0.03828367
0.09570695,0.109100685,-0.10037196,-0.063358895,-0.070634454,-0.11424869,-0.08575283,0.07062076,0.0802285,0.030364573,-0.043945536,-0.0960054,0.05329722,0.035790086,-0.099526584,-0.051013835,0.091648065,0.09927626,0.04599595,-0.023458632,0.12335233,-0.14693414,0.096604586,0.076729536,-0.06159766,-0.052193828,0.10758669,-0.056858607,0.1074867,0.108401045,0.11691679,0.060935996,-0.0721025,0.035672188,-0.13426413,-0.13258915,0.11359763,0.12480261,-0.020367214,0.10121032,-0.08792044,-0.107423395,0.040003937,-0.07633843,0.15232895,0.102517456,0.023960175,-0.057434656,-0.0372859,-0.076584354,-0.029199902,0.11640122,-0.04988114,-0.11323149,-0.10680348,0.08480866,-0.051476754,0.034493614,-0.101249926,-0.11103717,-0.027662132,-0.12801407,-0.11091302,0.09390148,0.10816293,0.1013773,-0.117859,0.12163551,0.03505215,0.09314172,0.109,-0.07919797,-0.099490896,0.06444718,-0.032982916,0.09613566,-0.116626136,-0.086148754,0.024985658,0.07479754,-0.135407,0.1262922,-0.07474137,-0.12584437,-0.011773859,-0.071742296,-0.07704411,-0.03367943,-0.047785953,0.08268531,-0.0341005,0.10531383,-0.105220184,-0.05613989,-0.14128533,-0.03985645,0.053444307,0.06129096,-0.09977929,-0.03085803,-0.0798244,0.019789744,-0.10589757,0.088560395,-0.12226192,0.10262735,-0.11277989,0.13171662,0.09299988,0.12453513,0.052142493,-0.09349834,0.052261867,0.026865214,-0.076031156,-0.04537338,0.06423563,0.09462226,0.049645808,-0.05846318,0.049194053,0.06817488,0.043327328,0.103660844,0.1147719,0.028981585,-0.0437174,0.11390704,-0.096281886,-0.098338164,-0.03615978,0.12302123,-0.033683363,-0.084254816,0.017455367,0.08346151,0.060809303,-0.020148167,-0.15620969,-0.109291896,0.09751648,0.094322965,0.05374952,-0.055373274,0.13009831,0.08949061,-0.044277012,-0.02953542,-0.11149673,0.11209887,0.086181395,-0.07288306,0.115148336,0.037840944,-0.08713946,0.10224473,-0.069222346,0.10571231,-0.097526856,-0.087227225,-0.07264713,-0.075073,0.06444039,0.11896251,-0.056229424,0.049574107,-0.12599097,-0.12243612,0.052877475,-0.08692162,-0.066890456,-0.052412953,0.08361808,0.10323192,0.10860515,-0.094937235,-0.029002339,0.083010025,-0.07129962,0.06486912,-0.11051783,0.069480605,-0.039350286,-0.11791771,-0.04626132,0.15413003,0.11647505,0.0820383,-0.060364645,0.095445946,-0.109454684,-0.09581407,-0.1302879,-0.09847894,0.024645276,-0.0042178924,0.055148587,0.11253168,-0.09877686,-0.11992763,0.07753541,-0.12431351,-0.041659214,0.0982536,0.12802422,-0.061244156,-0.050279737,0.07729001,-0.08129429,0.1176522,0.106637605,0.054171383,-0.121103644,0.04155558,0.049407944,0.10938698,0.06646537,-0.088651344,0.05056779,-0.122727714,-0.05686854,-0.09883682,-0.061413944,0.10922692,0.019623103,0.07976355,0.06949263,-0.025743313,0.08334394,0.04399572,-0.10648004,-0.067208216,0.07558972,-0.12520231,0.11753989,0.13005444,0.11012035,-0.048865724,-0.089609064,0.11782314,0.09369872,0.046509873,0.030791156,-0.11592051,-0.09638446,0.04357834,0.0641607,-0.106183566,0.11081207,0.04763695
0.08074421,0.05201859,-0.050273255,-0.04887627,-0.060195643,-0.06719985,-0.03963681,0.09121545,0.081110574,0.089611955,-0.110284045,-0.1199762,0.1113467,0.05931357,-0.09381002,-0.10529804,0.05753395,0.026370302,0.067815036,-0.095933996,0.052894555,-0.10463304,0.05657572,0.06058036,-0.044646524,-0.03726944,0.15386938,-0.078120776,0.02253102,0.067086816,0.12711324,0.07855895,-0.07337631,0.041681387,-0.110075474,-0.14335942,0.04752279,0.15502717,-0.086707905,0.086800225,-0.070895344,-0.1110874,0.1378823,-0.09085252,0.11701288,0.031659666,0.0474756,-0.11352702,-0.057944927,-0.021526255,-0.015303312,0.064826995,-0.06870275,-0.054226805,-0.03323652,0.055541378,-0.075272545,0.08478111,-0.108763434,-0.06196794,-0.051499087,-0.14031556,-0.089009926,0.017707432,0.03646105,0.1086536,-0.031157827,0.10490997,0.115300015,0.07403648,0.064034685,-0.07735415,-0.10766765,0.03300738,-0.0770461,0.097734965,-0.056249518,-0.13393173,0.06006952,0.058973916,-0.07685446,0.050859384,-0.08260239,-0.089134105,0.036228452,-0.1191772,-0.030572949,-0.14374083,-0.049256146,0.13302542,-0.10010749,0.103280105,-0.085483916,-0.096569926,-0.10673794,-0.14157814,0.102456674,0.06916136,-0.08121834,-0.07161695,-0.06949328,0.03097923,-0.06225459,0.07653701,-0.055062138,0.07952364,-0.0981692,0.07680767,0.12636903,0.05180353,0.055257484,-0.13939455,0.049475048,0.045979228,-0.03685962,-0.016747326,0.05074093,0.12181569,0.07768853,-0.045744427,0.07086008,0.03810373,0.09624992,0.032650985,0.1203354,0.07474797,-0.056975357,0.08741877,-0.03058151,-0.048251405,-0.049295466,0.123915456,-0.11678768,-0.10240846,0.138972,0.084409915,0.10109516,-0.06764388,-0.16332251,-0.15305583,0.08955353,0.067848474,0.06533261,-0.11836026,0.066009685,0.07286173,-0.026776498,-0.031930864,-0.034159113,0.08141012,0.12067942,-0.07998398,0.06934619,0.05316471,-0.085971296,0.10082521,-0.08237994,0.0751423,-0.08325391,-0.12851168,-0.07998461,-0.10237747,0.16901892,0.05436744,-0.06589207,0.08259863,-0.07429697,-0.1025086,0.07081488,-0.085861064,-0.11298548,-0.1294214,0.082243145,0.06212084,0.06695994,-0.09344252,-0.028275732,0.10046313,-0.12686233,0.05135449,-0.11717503,0.096784525,-0.112318665,-0.045360234,-0.13317128,0.13559367,0.09336889,0.078842066,-0.06112898,0.09222474,-0.11122239,-0.046778154,-0.10103096,-0.072374,0.07608576,0.036108278,0.13761951,0.06672837,-0.12230848,-0.05380647,0.13019983,-0.0497375,-0.09536173,0.044042118,0.119863056,-0.07326269,-0.07586557,0.03255312,-0.10670968,0.08234704,0.13122664,0.1466744,-0.08624299,0.061281104,0.09861222,0.12922116,0.12927529,-0.09023328,0.07988752,-0.06426936,-0.054976538,-0.070760585,-0.116160624,0.06714881,0.068615675,0.11885186,0.11264135,-0.075748354,0.11011867,0.11996336,-0.044566814,-0.077434756,0.103217535,-0.10512964,0.1387982,0.11760014,0.068743795,-0.126769,-0.03721096,0.02152612,0.099230684,0.048695832,0.06891891,-0.059962083,-0.06785726,0.052921526,0.06740327,-0.11117244,0.08319896,0.13384554
0.027277471,0.01980501,-0.106182456,-0.084568545,-0.055247664,-0.0436795,-0.112443894,0.09521809,0.07331938,0.082171,-0.03375248,-0.06415466,0.0822842,0.0274504,-0.1013901,-0.105409965,0.07292328,0.09157276,0.046548285,-0.09502598,0.021904824,-0.10061011,0.07146398,0.08494568,-0.057785507,-0.12257273,0.12920037,-0.12190611,0.09631354,0.117936,0.10802135,0.08633881,-0.031123606,0.10710958,-0.13351895,-0.09855372,0.06181446,0.07801472,-0.015204658,0.05931822,-0.02944241,-0.08601661,0.09383288,-0.06487428,0.07869361,0.06685967,0.08475741,-0.077758044,-0.10043068,-0.050153106,-0.015342151,0.020295268,-0.089159474,-0.01633004,-0.050507363,0.09491617,0.0037555029,0.04645576,-0.048477124,-0.108926855,-0.023566684,-0.11490903,-0.067202546,0.06572173,0.05602141,0.06707617,-0.026662359,0.105684325,0.08735465,0.07178794,0.03967773,-0.033166744,-0.13314115,0.07171362,-0.08410789,0.07059045,-0.08220987,-0.10948611,0.09733419,0.067903824,-0.09571018,0.07554811,-0.0904291,-0.08376285,-0.00034096412,-0.05381362,-0.044085633,-0.051589593,-0.076573916,0.09298515,-0.11028745,0.07839918,-0.13112171,-0.07181295,-0.12425239,-0.13016233,0.07193414,0.038610667,-0.027903229,-0.083248995,-0.07703851,0.039959032,-0.09622749,0.10766152,-0.036320813,0.07338927,-0.0683095,0.10938327,0.054491457,0.10437136,0.100902684,-0.03891782,0.07166018,0.08900776,-0.04684448,-0.10446688,0.12011968,0.09622654,0.08114718,-0.11233446,0.052733112,0.11215115,0.06725281,0.08682986,0.05831036,0.033462252,-0.05456157,0.091987446,-0.06805496,-0.058873687,-0.07481962,0.12535103,-0.024756389,-0.045674875,0.09367865,0.10614549,0.025827896,-0.017845733,-0.14278767,-0.06830737,0.073828906,0.11727276,0.054823916,-0.13784747,0.046929665,0.13486588,-0.06341691,-0.05615397,-0.10770478,0.02248772,0.07437147,-0.12902802,0.124550134,0.09462706,-0.08649367,0.040845025,-0.090336025,0.09207275,-0.06975811,-0.062565975,-0.086054556,0.0065817996,0.104816034,0.08107614,-0.042340674,0.052370228,-0.045647588,-0.085189514,0.046913516,-0.048772518,-0.12680992,-0.042571694,0.0985757,0.078262925,0.06954552,-0.10398435,-0.02028114,0.095468596,-0.13023224,0.11025949,-0.04640818,0.10114541,-0.12834466,-0.025170596,-0.10204363,0.11208164,0.038350537,0.06016402,-0.05217726,0.13516042,-0.023983715,-0.03602642,-0.088576235,-0.049776,0.052597716,0.041737232,0.10677694,0.038888533,-0.07806872,-0.0562513,0.07453141,-0.048363004,-0.059529755,0.044072486,0.0788109,-0.039093148,-0.12519611,0.062571496,-0.074513085,0.09138626,0.12322886,0.12559356,-0.15221381,0.117388085,0.022214683,0.10781414,0.12910037,-0.06688525,0.053969603,-0.08110995,-0.09967631,-0.12120072,-0.16299441,0.05335044,0.08593042,0.11331978,0.145791,-0.013911223,0.059401948,0.09345765,-0.09015027,-0.06878134,0.081624955,-0.17304997,0.10078944,0.0451627,0.097635075,-0.048889123,-0.07432781,0.03825098,0.0888006,0.057533354,0.056179747,-0.10356391,-0.13457794,0.057428654,0.09036095,-0.09775215,0.050258696,0.071197145
0.09153338,0.036283396,-0.048146036,-0.12903668,-0.019538091,-0.11585184,-0.10585437,0.050251957,0.07442214,0.057259273,-0.043822706,-0.06842453,0.11154495,0.106236294,-0.094967246,-0.08305391,0.105159454,0.071140036,0.08104975,-0.07206653,0.029643426,-0.10883191,0.05437387,0.101663716,-0.09291581,-0.03997338,0.12572879,-0.0448901,0.079928994,0.06442195,0.11182187,0.04099868,-0.03704668,0.036003303,-0.09261093,-0.114079125,0.05000113,0.075544395,-0.10690945,0.046258014,-0.03699837,-0.037716,0.04467135,-0.040324274,0.08532625,0.078370206,0.091216125,-0.056748826,-0.07706475,-0.06389963,-0.10051338,0.04578954,-0.08682077,-0.09390149,-0.08901077,0.11830221,-0.02117049,0.08199006,-0.043402795,-0.10073997,-0.08468799,-0.11178904,-0.10437156,0.034879718,0.062222525,0.04370158,-0.06519749,0.02263793,0.094233155,0.034365993,0.09001075,-0.10047892,-0.12107529,0.05506669,-0.026912984,0.027320433,-0.072040446,-0.075043574,0.092653565,0.06569855,-0.05053814,0.089322105,-0.038506303,-0.07745052,0.03321606,-0.056699477,-0.05529393,-0.13683172,-0.09222688,0.071832694,-0.09520863,0.07023848,-0.026619572,-0.039787326,-0.1455143,-0.0826574,0.079913236,0.12000828,-0.08150597,-0.109944485,-0.11606261,0.041975204,-0.06799849,0.079733096,-0.08387604,0.12892976,-0.13753419,0.1067483,0.104953684,0.11175407,0.07813994,-0.073114514,0.018825242,0.11983722,-0.05551442,-0.07483753,0.040784854,0.13147588,0.0847756,-0.06314973,0.073299594,0.074891135,0.078083634,0.052490022,0.09645448,0.087573566,-0.061412495,0.09976864,-0.08059249,-0.11620625,-0.09922243,0.042352006,-0.026543828,-0.100501664,0.027998831,0.07222214,0.033653237,-0.096509986,-0.11929723,-0.12114081,0.07825219,0.06923153,0.08292429,-0.08249507,0.12952752,0.03535596,-0.0107153775,-0.064580396,-0.09794167,0.05842247,0.12034777,-0.1263002,0.061041996,0.049011346,-0.11990153,0.11890417,-0.028471278,0.13370869,-0.045766942,-0.12214839,-0.073793754,0.03920254,0.051645316,0.09861216,-0.09005122,0.07659722,-0.038898952,-0.06566732,0.023115043,-0.108307645,-0.06609541,-0.006232382,-0.017481323,0.04362337,0.048177652,-0.120386876,-0.11481324,0.11273329,-0.09099495,0.0785155,-0.09616632,0.044577003,-0.113728255,-0.08319079,-0.07473812,0.14072183,0.104938425,0.14443274,-0.08702611,0.099354476,-0.04363521,-0.08086674,-0.07699915,-0.11160248,0.04971238,0.031856656,0.056104295,0.11669966,-0.049967263,-0.101022564,0.11699307,-0.11132937,-0.0617595,0.056739442,0.09894747,-0.08030818,-0.11210954,0.09483337,-0.11125279,0.10727935,0.11392505,0.07032256,-0.08181586,0.045633744,0.1180167,0.055914566,0.05742639,-0.11165104,0.03124056,-0.1240124,-0.06452748,-0.12487315,-0.1282257,0.10868747,0.058303826,0.10902616,0.113482215,-0.05284773,0.07004469,0.029184908,-0.098614715,-0.10559458,0.038750593,-0.13493037,0.14125721,0.06196851,0.053142186,-0.12270571,-0.069716886,0.054762017,0.072252445,0.06262353,0.08519283,-0.13412493,-0.058929343,0.08041456,0.024038283,-0.114180766,0.115250684,0.10059542
0.026422493,0.045926183,-0.09464901,-0.09218225,-0.055979714,-0.116267405,-0.10148792,0.050559163,0.058470447,0.111643136,-0.092371196,-0.10445511,0.10056657,0.076534666,-0.11492129,-0.030833634,0.041337825,0.027952595,0.029077904,-0.025801534,0.04485005,-0.099367484,0.053356916,0.056086026,-0.029505672,-0.053352248,0.14208858,-0.13318229,0.02702953,0.096892424,0.12900005,0.07091963,-0.055131607,0.07768246,-0.032843325,-0.115944736,0.01278281,0.11756304,-0.093808606,0.055836953,-0.08903822,-0.10937164,0.015826417,-0.04532807,0.13209276,0.05746203,0.08847635,-0.08606611,-0.11521422,-0.08116984,-0.0935165,0.022658871,-0.055168778,-0.052910242,-0.01608501,0.036184855,-0.007343587,0.05826347,-0.04719113,-0.03205759,-0.035500146,-0.10351562,-0.111414276,0.03342503,0.07458502,0.027037019,-0.038048536,0.0991666,0.0927965,0.07046629,0.054386117,-0.057514273,-0.1175279,0.11120452,-0.086432844,0.04224861,-0.11795615,-0.0993421,0.11866358,0.10029296,-0.055183306,0.09735668,-0.075297706,-0.07775859,0.03264483,-0.043740038,-0.053072553,-0.090066314,-0.079867855,0.08610204,-0.11790723,0.055463288,-0.12675221,-0.10196557,-0.07476996,-0.04047855,0.08234697,0.12074858,-0.08671303,-0.08896804,-0.12167529,0.09779193,-0.0110330405,0.10681153,-0.08139337,0.099545404,-0.05608153,0.10123475,0.069716156,0.053938307,0.026089482,-0.108740866,0.10615827,0.049426496,-0.098430745,-0.100569636,0.060758058,0.04449107,0.108440794,-0.06596274,0.07287575,0.119080044,0.06309507,0.10817934,0.02944898,0.031915285,-0.11779763,0.04522879,-0.034551933,-0.11888445,-0.11699083,0.025994465,-0.028896723,-0.03683405,0.10980279,0.033187605,0.08448944,-0.10236239,-0.13752861,-0.12732592,0.02723027,0.03178381,0.06066111,-0.07457021,0.06680851,0.08121216,0.021031458,-0.05439781,-0.051185645,0.032540604,0.13166602,-0.118367486,0.06166541,0.018226577,-0.028947258,0.11383123,-0.08620076,0.14574207,-0.034444526,-0.06523909,-0.08271685,-0.039041735,0.098034754,0.023093825,-0.050281834,0.065684274,-0.046082743,-0.07175326,0.09658823,-0.07899461,-0.08729888,-0.021974513,0.014156204,0.077624075,0.102515936,-0.115919776,-0.052197486,0.10550892,-0.16173932,0.04332828,-0.0926139,0.0989647,-0.08977478,-0.059390448,-0.115465514,0.059131566,0.09455566,0.09662254,-0.08512644,0.06364528,-0.043581717,-0.019502437,-0.101755455,-0.093515694,0.037575264,0.08689198,0.0987104,0.11052743,-0.0480298,-0.05224558,0.10168699,-0.060530808,-0.06345332,0.03804511,0.07540513,-0.126106,-0.070512794,0.085809074,-0.08740642,0.050275244,0.10421927,0.106321,-0.08312253,0.09438455,0.09450923,0.09737571,0.12097324,-0.10108416,0.10789736,-0.09946948,-0.120182805,-0.100398585,-0.11571249,0.045498528,0.06818709,0.09338068,0.06198804,-0.055874385,0.078660145,0.032677628,-0.08675737,-0.023018068,0.07002108,-0.08558764,0.078521624,0.047563065,0.083911784,-0.07661856,-0.029802725,0.022387858,0.09923036,0.10280376,0.052317,-0.07878062,-0.0894214,0.08326868,0.09642637,-0.03434366,0.057782844,0.08387725
0.078475155,0.09847161,-0.046793014,-0.11535353,-0.0396583,-0.09271661,-0.108132,0.12022311,0.14369753,0.10553412,-0.052323893,-0.10458535,0.11019397,0.093206935,-0.07319353,-0.029640673,0.11961151,0.094722375,0.13851331,-0.039333638,0.044103786,-0.12349622,0.037214357,0.073317505,-0.0905321,-0.041591495,0.10854639,-0.104140125,0.051646758,0.10746834,0.12394589,0.069834456,-0.0863647,0.03974636,-0.07520217,-0.053391796,0.053943165,0.12578373,-0.10147046,0.035969716,-0.10440451,-0.08579006,0.12998389,-0.06163326,0.07658529,0.10752424,0.048645325,-0.115527116,-0.03367931,-0.06630221,-0.053555794,0.08323809,-0.05324368,-0.081307046,-0.053633157,0.02063565,-0.10447628,0.1092271,-0.08266344,-0.06932483,-0.07565184,-0.14453232,-0.04117117,0.08238687,0.06974797,0.03451995,-0.107418865,0.044892695,0.03514154,0.028842239,0.10011756,-0.112292364,-0.14235596,0.052997734,-0.13768288,0.078224495,-0.12904672,-0.0861486,0.11479109,0.037255317,-0.10812521,0.054065056,-0.101098895,-0.10302899,0.06220218,-0.098290585,-0.09871383,-0.06448821,-0.028467191,0.1385853,-0.06274907,0.0629325,-0.032793038,-0.10861679,-0.102618754,-0.124563165,0.086525954,0.08378237,-0.06691862,-0.041620728,-0.04521451,0.10707599,-0.07692632,0.016190471,-0.06283447,0.08142018,-0.067074746,0.105737865,0.031674348,0.036934774,0.048951045,-0.11396599,0.07499656,0.055162206,-0.09647845,-0.109121114,0.11534563,0.031809274,0.05206993,-0.11180813,0.090391845,0.04103803,0.065832384,0.039658595,0.023125336,0.08299072,-0.09602047,0.04186375,-0.10816047,-0.06784202,-0.06141309,0.0634136,-0.080140755,-0.016020657,0.12454163,0.09070523,0.053102523,-0.05183807,-0.15797411,-0.11391803,0.054847755,0.061968736,0.10925969,-0.08207612,0.10555888,0.17146674,-0.037903465,-0.06820237,-0.034802686,0.09735605,0.15550686,-0.16177906,0.110425085,0.10545204,-0.08669726,0.029715078,-0.032619167,0.09597587,-0.045258135,-0.07008116,-0.13944866,-0.103420846,0.134439,0.026634926,-0.09003165,0.026353758,-0.07035217,-0.073834546,0.11560362,-0.08532898,-0.0817832,-0.12384217,0.108909845,0.10013642,0.020240173,-0.07911875,-0.024490599,0.07766441,-0.11216236,0.077671334,-0.08600329,0.03978715,-0.102504075,-0.02077587,-0.08565535,0.108882666,0.0870208,0.090017505,-0.10425699,0.13343593,-0.06321307,-0.024372099,-0.06142962,-0.101493694,0.015495545,0.038139984,0.12912478,0.081406556,-0.033450447,-0.09324665,0.06334936,-0.07946084,-0.04149283,0.022336613,0.13936722,-0.10134984,-0.0850246,0.035495214,-0.052351646,0.029842015,0.04039914,0.13837996,-0.15493599,0.020508595,0.08932363,0.053820577,0.065032214,-0.13082638,0.043847315,-0.079889745,-0.0573677,-0.060577385,-0.062036697,0.076706596,0.110030845,0.09556169,0.08004962,-0.02971855,0.11308499,0.10586528,-0.087997176,-0.039195437,0.08587004,-0.15990567,0.072822705,0.085533895,0.022551633,-0.11213074,-0.035419792,0.027861224,0.08362495,0.15276442,0.102482036,-0.0870531,-0.04822507,0.10549411,0.07390928,-0.043631576,0.07736103,0.106985
0.045194615,0.039875314,-0.063116446,-0.076389685,-0.10255731,-0.065981,-0.11776003,0.031256218,0.05867248,0.11067892,-0.045752946,-0.12745267,0.09770682,0.054382402,-0.044367142,-0.11199144,0.11063046,0.062534265,0.04677499,-0.105097145,0.068816856,-0.07976909,0.078395225,0.109284915,-0.06599616,-0.12295969,0.13889997,-0.057267834,0.08016301,0.049294434,0.023083404,0.063170925,-0.111973174,0.10565433,-0.022768756,-0.067846596,0.047478054,0.06383205,-0.08774224,0.05277686,-0.022709526,-0.085421644,0.054289382,-0.0851988,0.12972991,0.09102669,0.038267486,-0.08728594,-0.12381222,-0.10229601,-0.020413402,0.075811274,-0.07879957,-0.023464868,-0.0902616,0.12423701,-0.008221062,0.027007477,-0.100286186,-0.11029692,-0.109406754,-0.1120207,-0.10885778,0.10686042,0.049868528,0.076613516,-0.043632153,0.11409634,0.08430751,0.033149082,0.06430289,-0.04308866,-0.11857279,0.11610413,-0.0404137,0.07734005,-0.08159921,-0.0743072,0.10337101,0.10256434,-0.12765712,0.07129331,-0.06938213,-0.04874015,0.014806825,-0.08021899,-0.07730194,-0.08013068,-0.10175614,0.044399973,-0.08044893,0.08451931,-0.11409174,-0.13895765,-0.12147396,-0.08660555,0.056348454,0.025228344,-0.039142884,-0.07529333,-0.05347292,0.085864395,-0.08891452,0.08951638,-0.05934495,0.09478466,-0.057453766,0.08311296,0.029955817,0.113822296,0.014320802,-0.09764282,0.089233354,0.093378805,-0.10376742,-0.044889495,0.07172481,0.0982326,0.09636052,-0.039048888,0.115989275,0.08901597,0.08545932,0.112171866,0.062291756,0.0899737,-0.080956444,0.07348857,-0.052304693,-0.06420259,-0.11757176,0.111335225,-0.11650108,-0.02224568,0.01730584,0.06887494,0.07134198,-0.1313215,-0.0938947,-0.05331034,0.0726472,0.056868207,0.10624201,-0.042365566,0.10072359,0.06678758,-0.052402362,-0.111935705,-0.083446346,0.11705985,0.061038494,-0.049884778,0.104022756,0.01994501,-0.09827289,0.05116786,-0.12667756,0.0744062,-0.04399438,-0.07300532,-0.056008756,0.0046655773,0.082025155,0.027149394,-0.04459182,0.054092735,-0.07709002,-0.09227284,0.10939315,-0.08130178,-0.16721794,-0.015271925,0.037037496,0.042480938,0.055638667,-0.071715154,-0.042871945,0.04381007,-0.14297205,0.09820663,-0.099026956,0.10907202,-0.0501315,-0.116153784,-0.11776553,0.12922597,0.0797458,0.12314222,-0.104999974,0.047734004,-0.037887495,-0.0809727,-0.074572764,-0.0505435,0.05497644,0.06727516,0.10012843,0.059956532,-0.042517897,-0.064689726,0.07893569,-0.07271743,-0.112755656,0.11935916,0.051696006,-0.111649215,-0.021997282,0.067098565,-0.047583718,0.10933443,0.1262396,0.08632307,-0.05714413,0.05198224,0.076576136,0.08391303,0.09188838,-0.03276988,0.03590545,-0.09514398,-0.120755956,-0.0785237,-0.043997526,0.034416813,0.059654396,0.024707405,0.094291694,-0.029339058,0.037352186,0.10580805,-0.09635406,-0.07768147,0.07197704,-0.11539456,0.11037479,0.11317688,0.059906516,-0.04897408,-0.022616949,0.10694085,0.1709417,0.10587012,0.11670311,-0.12637912,-0.088513136,0.08595979,0.03395509,-0.06524611,0.05521226,0.04445078
0.22020055,0.22834843,-0.2574377,-0.2938844,-0.20875564,-0.22380571,-0.20113975,0.23368819,0.2895409,0.24940918,-0.22244322,-0.24094994,0.26568633,0.21592905,-0.20152196,-0.20927387,0.2133186,0.23202293,0.32051244,-0.2191503,0.21151632,-0.35157478,0.20389777,0.24046057,-0.26337913,-0.26071972,0.36384317,-0.2586161,0.19804627,0.29203683,0.26843378,0.22317761,-0.22419399,0.23946136,-0.29871935,-0.29441908,0.22312142,0.31348225,-0.21372218,0.23401499,-0.22665827,-0.22818296,0.16111842,-0.2525438,0.31160894,0.25214866,0.28509784,-0.25500336,-0.25258207,-0.22413701,-0.23009807,0.22493008,-0.23452544,-0.21338119,-0.2183538,0.23246877,-0.07691988,0.2501691,-0.2293532,-0.22078755,-0.2213236,-0.25880656,-0.21577515,0.2250512,0.23826198,0.2376715,-0.22714719,0.23943037,0.20347635,0.23012857,0.2392847,-0.25396731,-0.3545334,0.25013942,-0.21333005,0.21716273,-0.16673154,-0.31636178,0.23020974,0.2657791,-0.27819845,0.22959916,-0.24305804,-0.21684504,0.07076759,-0.21365832,-0.25332457,-0.3316745,-0.2366524,0.1515524,-0.26192746,0.18804364,-0.25326443,-0.25403783,-0.3489188,-0.21506162,0.2561684,0.24037725,-0.21114993,-0.20735419,-0.23853841,0.23007889,-0.14943422,0.23717993,-0.27105153,0.23968834,-0.26631448,0.32911104,0.2487934,0.22733656,0.2093842,-0.27192163,0.22031821,0.251675,-0.26326713,-0.20129,0.2636947,0.2926766,0.2331754,-0.239071,0.2970723,0.24487595,0.21329641,0.19896318,0.23778817,0.23766449,-0.26618043,0.26292923,-0.27162704,-0.26457042,-0.21662384,0.21954173,-0.20555642,-0.20248955,0.21567,0.23583588,0.22682583,-0.26061276,-0.4282516,-0.2627815,0.20915647,0.24074902,0.24941628,-0.21744934,0.2584801,0.21054897,-0.10469412,-0.24548934,-0.26691616,0.22492908,0.25582927,-0.3199215,0.2660124,0.21929654,-0.22284661,0.25421086,-0.24373601,0.2650713,-0.22428603,-0.25901657,-0.31658304,-0.1722572,0.29227605,0.21333829,-0.21223763,0.20385237,-0.23668322,-0.1992861,0.29990274,-0.2296382,-0.35184038,-0.09481895,0.25812325,0.23801602,0.22288759,-0.2578046,-0.22812696,0.22356807,-0.3321406,0.25856405,-0.2585946,0.21637875,-0.2845438,-0.21069969,-0.25730866,0.26667553,0.26140973,0.25145337,-0.19809882,0.29407662,-0.20818326,-0.20675777,-0.3282089,-0.23829845,0.229855,0.11571185,0.24617422,0.19624822,-0.24934988,-0.20401289,0.25074148,-0.27750918,-0.23585998,0.19355154,0.20088196,-0.21213727,-0.26649088,0.25362623,-0.22241719,0.24255383,0.25667128,0.27721384,-0.27011916,0.2236913,0.23599346,0.26696512,0.26040408,-0.26960796,0.2534298,-0.25343448,-0.2673165,-0.23998314,-0.27457017,0.22959772,0.21573704,0.26062205,0.28759757,-0.23635878,0.25439328,0.21914345,-0.24724652,-0.2406587,0.25411308,-0.3568978,0.28407785,0.27087706,0.21575746,-0.26765013,-0.22244197,0.1986071,0.3262598,0.27845943,0.23293027,-0.25469837,-0.24489273,0.2545565,0.21395159,-0.18778817,0.22472863,0.21555716
0.054866727,0.08768502,-0.116524614,-0.057483993,-0.0441269,-0.04770022,-0.029681398,0.08999218,0.067935556,0.115888424,-0.11709665,-0.12489716,0.118538566,0.089149125,-0.033174362,-0.080621645,0.12638499,0.07530255,0.11951021,-0.08063975,0.10260503,-0.12264312,0.08073735,0.06634824,-0.1299161,-0.11330882,0.092502646,-0.067467995,0.035666686,0.06400214,0.041130684,0.021125607,-0.060924172,0.12407261,-0.11876974,-0.13360658,0.041498605,0.13450794,-0.056099344,0.07972932,-0.10590637,-0.10519398,0.07216956,-0.06871016,0.12113425,0.07037685,0.040962588,-0.12690245,-0.116307974,-0.09660912,-0.07614787,0.06481063,-0.087402396,-0.055888895,-0.06681989,0.045274165,-0.037258904,0.1284996,-0.05716018,-0.116404906,-0.05290721,-0.094944336,-0.040243965,0.07353658,0.07180397,0.045178577,-0.027656782,0.02554758,0.062985934,0.09157399,0.10436465,-0.08085612,-0.1447067,0.078830555,-0.061979625,0.08427384,-0.12266659,-0.14617711,0.09758622,0.061948013,-0.033801846,0.04543675,-0.07371695,-0.11622422,-0.0007064531,-0.10975682,-0.11619669,-0.059510056,-0.0550844,0.04860961,-0.09170168,0.06173859,-0.12176753,-0.112146355,-0.1429731,-0.07168496,0.07961595,0.112510055,-0.08081985,-0.12873164,-0.1319423,0.023449797,-0.06725957,0.120531075,-0.1263745,0.061666775,-0.10529421,0.12229511,0.12387857,0.094079815,0.09748923,-0.109130256,0.06545626,0.10815937,-0.07807727,-0.08813102,0.11158302,0.067109026,0.061003916,-0.052754886,0.0842687,0.04859375,0.09474232,0.081762746,0.073325016,0.06792695,-0.11313992,0.036235683,-0.04934661,-0.036740944,-0.09960753,0.041605867,-0.07742875,-0.10621085,0.00067709055,0.098172665,0.04876183,-0.048663076,-0.1354463,-0.10847121,0.09151438,0.12317844,0.090072535,-0.073600136,0.09172185,0.079244755,-0.060237255,-0.11890661,-0.05483955,0.047028944,0.0453287,-0.08525358,0.052909646,0.030684713,-0.10880975,0.09464396,-0.077786565,0.10432899,-0.078795776,-0.062121756,-0.06690335,-0.046641845,0.07024135,0.052392952,-0.09445981,0.060126398,-0.10846199,-0.07333621,0.08226807,-0.049863193,-0.08774935,-0.04502899,0.10664984,0.085592575,0.06310786,-0.097970985,-0.09604867,0.04275411,-0.067825764,0.12176869,-0.055431075,0.06012908,-0.12796815,-0.104261294,-0.12283417,0.13345641,0.13089712,0.13035266,-0.11592488,0.10038885,-0.07031378,-0.05736024,-0.0972479,-0.08529082,0.1105008,-0.0007901827,0.103345975,0.064208575,-0.061100945,-0.07307914,0.086899996,-0.089471355,-0.043402683,0.11739267,0.046166442,-0.11979278,-0.04621757,0.06797349,-0.10645619,0.026585637,0.10419452,0.07533616,-0.1383468,0.052891724,0.035410475,0.052346114,0.10278535,-0.11398892,0.12814748,-0.09385541,-0.13812172,-0.08498169,-0.12216768,0.09697629,0.047867708,0.12144271,0.12941612,-0.12693262,0.044235587,0.05540443,-0.07910328,-0.10503169,0.07860769,-0.1645025,0.07957601,0.07032298,0.047110144,-0.09774254,-0.06933383,0.05014816,0.06682203,0.10731246,0.10025126,-0.09321612,-0.051601857,0.12372945,0.1052113,-0.1154835,0.08834669,0.08572373
0.054701902,0.038687125,-0.118051976,-0.09164299,-0.08909187,-0.070097364,-0.104946636,0.06198489,0.12262952,0.036179993,-0.05106949,-0.10254286,0.10828773,0.033304315,-0.11896282,-0.0797667,0.041242406,0.044888925,0.08490686,-0.040063594,0.10409584,-0.12745203,0.049711097,0.059195418,-0.14326574,-0.120904535,0.18064913,-0.067914255,0.022269752,0.09102014,0.041422196,0.025523704,-0.10658926,0.094647825,-0.1060682,-0.15024589,0.10457085,0.10193931,-0.103888355,0.048239503,-0.05469193,-0.067541406,0.042115327,-0.10820463,0.07194343,0.113448285,0.089412995,-0.1416411,-0.0973919,-0.02926414,-0.07540925,0.113822736,-0.049617022,-0.09827322,-0.078937836,0.079484545,-0.0829825,0.09685838,-0.08682128,-0.11478893,-0.105650984,-0.0640042,-0.05242698,0.107923195,0.06769243,0.12754302,-0.09366169,0.035170536,0.054589815,0.11885161,0.09073984,-0.12578946,-0.103833824,0.0916564,-0.12983866,0.10617911,-0.057202674,-0.08715107,0.0725949,0.07121553,-0.076337524,0.097080186,-0.027987702,-0.07915007,0.07361394,-0.077236526,-0.08202886,-0.07622437,-0.043216016,0.11032374,-0.080438495,0.038789347,-0.041274544,-0.1541754,-0.14907636,-0.10726132,0.09481439,0.09629022,-0.045633588,-0.06625663,-0.10223966,0.09528949,-0.08729482,0.06349015,-0.064608686,0.13232552,-0.11558731,0.13878201,0.10516129,0.111217566,0.04131619,-0.11617096,0.11754865,0.09778997,-0.14437808,-0.07344309,0.041964274,0.15802996,0.034396254,-0.068316,0.13739926,0.116227925,0.11146546,0.06869443,0.11750726,0.09102313,-0.11881002,0.064027734,-0.060799737,-0.06468663,-0.1130418,0.11978255,-0.12158194,-0.08706259,0.13525818,0.06584147,0.115026325,-0.054369953,-0.13516937,-0.1488114,0.10331126,0.044151835,0.0507989,-0.16371721,0.06049501,0.10717347,-0.07009708,-0.1068107,-0.10764527,0.10886492,0.08861181,-0.11383468,0.0928965,0.058169145,-0.15369709,0.052260652,-0.12371987,0.1255738,-0.09392938,-0.055465773,-0.09607852,-0.04251794,0.15875472,0.08544917,-0.028688166,0.12094777,-0.14724962,-0.08308336,0.08184307,-0.12841529,-0.075973116,-0.018425826,0.08566863,0.08803099,0.054477558,-0.06298488,-0.0781139,0.03974046,-0.11150235,0.11892082,-0.1300131,0.036185414,-0.046650667,-0.0682534,-0.12070613,0.13382138,0.13540909,0.13218193,-0.07633211,0.10728251,-0.05644149,-0.047551226,-0.109860346,-0.035282884,0.074649855,0.059744105,0.09108373,0.06699294,-0.110592075,-0.03388881,0.15059029,-0.069503635,-0.1273881,0.10841126,0.0623919,-0.092543736,-0.08221368,0.053489424,-0.045638427,0.117865525,0.044492736,0.14764617,-0.14228655,0.11230402,0.029964548,0.094181895,0.10082573,-0.084911875,0.04503685,-0.04399908,-0.044249665,-0.10232659,-0.053995825,0.04887425,0.03302441,0.045269765,0.1550943,-0.111372374,0.12495333,0.048177592,-0.11998093,-0.080708645,0.08677688,-0.1623599,0.14396155,0.11273311,0.052336514,-0.048655037,-0.039793845,0.1028956,0.11364056,0.12863328,0.044972192,-0.060334615,-0.14713128,0.05283794,0.09385506,-0.04514349,0.06911296,0.13158038
0.036448106,0.08880418,-0.03854246,-0.14127643,-0.033642728,-0.034241486,-0.025834937,0.07721929,0.10571718,0.0425158,-0.07252026,-0.09183887,0.079163685,0.11684307,-0.04298969,-0.06243239,0.044616777,0.027861645,0.1461065,-0.027745835,0.07861603,-0.07161543,0.09920418,0.09647208,-0.042527817,-0.13075323,0.098498754,-0.062720716,0.038363673,0.065586485,0.10763761,0.029286154,-0.11500215,0.0663982,-0.08291668,-0.08403779,0.030935664,0.06376774,-0.035659917,0.07395151,-0.07861796,-0.12174928,0.101526335,-0.09548994,0.083038114,0.11255462,0.09803914,-0.083914235,-0.08634931,-0.044110157,-0.07252661,0.054002378,-0.052805647,-0.036858357,-0.10391697,0.120161995,-0.023627989,0.10850311,-0.039060198,-0.095858626,-0.060734745,-0.08875175,-0.03212787,0.04420314,0.117251724,0.02953818,-0.06971285,0.055050943,0.07274039,0.067073524,0.046706982,-0.11280188,-0.09132245,0.08497164,-0.061363827,0.025021564,-0.075577445,-0.06235507,0.07100802,0.0823393,-0.12550436,0.0752927,-0.028250307,-0.06905556,0.048427697,-0.08926914,-0.07555799,-0.07402329,-0.033042036,0.061993644,-0.1000928,0.12507616,-0.09120356,-0.14891098,-0.12677543,-0.13310753,0.09057185,0.124863505,-0.07504413,-0.11304225,-0.027563509,0.04610954,-0.091358915,0.039157264,-0.124432996,0.047465686,-0.070838265,0.1471331,0.13080469,0.06888624,0.040488694,-0.07349365,0.10740994,0.10894231,-0.048915505,-0.100866936,0.06409192,0.0673533,0.116160706,-0.02855106,0.07313086,0.05701175,0.10583163,0.101798035,0.07611858,0.10783999,-0.05283724,0.111582085,-0.12929016,-0.08368894,-0.11856303,0.07825162,-0.041136805,-0.06412434,0.08988047,0.026060272,0.031492017,-0.11636323,-0.15551178,-0.059677504,0.06714648,0.110409714,0.035829734,-0.08477274,0.05440573,0.16449623,-0.073431775,-0.075609975,-0.07111283,0.030021392,0.07963029,-0.121586725,0.062214207,0.065549016,-0.06683239,0.07005164,-0.037611373,0.109021656,-0.07183899,-0.090827145,-0.07099404,-0.079589054,0.11107481,0.09160529,-0.11428684,0.10478805,-0.104882754,-0.10812093,0.10664864,-0.06537296,-0.06836986,-0.038943876,0.04314805,0.02358633,0.045095757,-0.055385508,-0.04148564,0.10449892,-0.14625622,0.041088406,-0.07646333,0.08253679,-0.041148216,-0.11899203,-0.05971989,0.08681873,0.08878414,0.07064528,-0.04503469,0.0695994,-0.023413012,-0.075940914,-0.12824562,-0.053108267,0.057960216,0.086763225,0.13498895,0.10735639,-0.069076054,-0.08980005,0.1051807,-0.099774,-0.11655844,0.035840463,0.07654012,-0.0685734,-0.11069814,0.049533557,-0.08117166,0.041406535,0.08057217,0.09671878,-0.13872516,0.1132926,0.048038013,0.09508869,0.10331903,-0.042701427,0.03828958,-0.03929886,-0.11717987,-0.11412132,-0.14944558,0.0876174,0.07093709,0.088280044,0.15734792,-0.09600728,0.056748305,0.03563664,-0.12119939,-0.07637007,0.10045093,-0.13093773,0.13987464,0.109670594,0.056076437,-0.093298644,-0.019169275,0.1160961,0.1312534,0.062073197,0.05901509,-0.08760346,-0.056586266,0.051147655,0.08287365,-0.038252037,0.11214794,0.084341526
