0,1,2,3,4,5,6,7,8,9,10,11,12,13,14,15,16,17,18,19,20,21,22,23,24,25,26,27,28,29,30,31,32,33,34,35,36,37,38,39,40,41,42,43,44,45,46,47,48,49,50,51,52,53,54,55,56,57,58,59,60,61,62,63,64,65,66,67,68,69,70,71,72,73,74,75,76,77,78,79,80,81,82,83,84,85,86,87,88,89,90,91,92,93,94,95,96,97,98,99,100,101,102,103,104,105,106,107,108,109,110,111,112,113,114,115,116,117,118,119,120,121,122,123,124,125,126,127,128,129,130,131,132,133,134,135,136,137,138,139,140,141,142,143,144,145,146,147,148,149,150,151,152,153,154,155,156,157,158,159,160,161,162,163,164,165,166,167,168,169,170,171,172,173,174,175,176,177,178,179,180,181,182,183,184,185,186,187,188,189,190,191,192,193,194,195,196,197,198,199,200,201,202,203,204,205,206,207,208,209,210,211,212,213,214,215,216,217,218,219,220,221,222,223,224,225,226,227,228,229,230,231,232,233,234,235,236,237,238,239,240,241,242,243,244,245,246,247,248,249
0.04110389,0.04287633,-0.03211961,0.0009776577,0.037890684,-0.018966889,0.046705965,-0.033902384,0.031435255,0.049348596,0.011832871,-0.046872545,-0.025445974,0.019535575,-0.01310705,0.023591314,-0.044532575,-0.030081486,-0.0055560954,0.026962463,-0.04365945,0.024834324,-0.007945813,-0.03264209,-0.019772017,0.015005123,0.03502996,-0.028112758,0.034712944,-0.005368054,-0.046232212,-0.03723507,-0.0027884953,0.014830481,-0.022269333,-0.04424503,-0.005110573,0.03762568,0.029622938,0.015210222,0.0071903244,-0.014864959,-0.04052179,-0.018864691,0.020563032,0.036769975,0.010644637,-0.008104324,-0.0118994005,-0.004703868,0.0004361868,-0.04133308,0.046668615,0.020100776,0.03493465,0.015606072,0.028638508,0.029980432,0.032146845,0.004238285,-0.029144287,-0.030765105,-0.009079587,0.045772504,0.04733411,-0.03617207,0.021722462,0.036362614,-0.00946809,-0.010657322,-0.011165429,-0.00083756447,0.024966422,-0.012264967,0.037714396,-0.009640373,-0.01853887,0.0039392225,0.029265795,-0.048635136,0.007572852,-0.03627666,0.03517249,0.010929644,0.02628554,-0.0498858,-0.019691432,0.012310527,0.042256977,0.025683258,-0.03286095,0.03156245,0.0047009476,-0.039541088,-0.009246267,-0.041597616,0.035734598,0.02017415,-0.024085939,-0.01577283,0.04183824,0.03348695,0.034178685,0.039131586,0.036200833,0.018600632,-0.049964786,-0.03454598,0.021837924,-0.029513204,-0.01914196,-0.031006683,0.012471952,-0.014683783,0.016694415,0.016143773,0.011451781,0.028547693,-0.00026313215,-0.040191412,-0.0056523792,0.0110938065,-0.028698934,0.008348297,-0.036773395,0.031624977,0.010373127,0.009070672,-0.04261216,-0.026037956,0.018586706,-0.008622158,-0.022939444,0.011005007,0.049988333,0.04435767,-0.032469176,0.005590059,-0.010035969,0.01685575,-0.014179625,0.041934337,-0.0167845,0.035094503,0.022676993,0.014536928,0.012117766,0.049837742,-0.03039639,0.011698268,-0.004996024,0.016650666,-0.029083634,-0.0012725592,-0.049937453,-0.03708259,-0.0028334148,-0.015869785,-0.002844654,-0.027780104,0.040173974,-0.013995122,0.010709275,0.0434818,-0.014532637,-0.03939451,-0.039731584,-0.0272614,0.0029777773,-0.016328752,-0.04746267,-0.008478485,-0.042032503,0.03169973,0.033953015,0.04575387,-0.041012537,0.007970773,0.0042030215,0.007876407,0.030896198,0.033139218,-0.026937498,0.045756463,0.009134673,-0.03765856,-0.025346493,0.032136682,0.003876578,-0.004920684,0.0071871877,-0.021056497,-0.040286552,0.02488688,-0.017781328,0.007368587,-0.0014022589,-0.04732584,-0.013522483,0.043291677,-0.0155185945,-0.006179534,-0.01046554,0.013500903,-0.03785316,0.032325197,-0.04032742,-0.00048898533,0.02076317,-0.0058359616,-0.0181733,0.00594189,0.0025168061,0.048212197,-0.027395522,-0.017699469,0.043735478,0.009008039,-0.03801111,0.04602373,0.021886084,-0.012431096,0.015584137,-0.04918399,-0.017031752,-0.039293922,0.00026319176,-0.020605315,0.027548026,-0.04639559,-0.04012842,0.0025297776,-0.014405679,-0.044964015,0.020776581,0.007268358,-0.03547045,-0.036343694,-0.047060777,-0.041375637,0.036613796,-0.022058427,0.039565194,-0.04460461,-0.03211441,0.00088522583,0.0009404421,-0.017217003,0.044577423,0.047245707
0.2331755,0.03570927,-0.008631329,-0.0020648,-0.072747305,-0.05679847,-0.31953812,-0.04990989,-0.11905975,-0.046667725,0.20296797,0.21115921,0.0025958715,0.010189513,0.008964655,-0.10203471,-0.112782866,0.025062405,0.09431884,-0.01751405,-0.20079565,-0.1648598,-0.13684447,0.30881718,0.001336741,-0.057556115,0.06630578,-0.016950414,0.045850426,-0.23934779,-0.028735587,0.06412593,-0.16670817,0.08945261,-0.00018009213,-0.20322047,0.050322358,0.15193218,0.2191397,0.003603484,0.16568862,0.00012764381,-0.042754468,-0.016243408,-0.0086950725,0.15174791,0.108662866,-0.17119868,0.008606184,0.01650609,-0.16112599,-0.0645358,0.053461954,0.027837118,0.0059549976,-0.05316767,0.12121278,0.08539423,0.0066799643,0.20759444,-0.061001923,-0.0830403,-0.15698528,0.01308358,0.035450883,-0.010274863,0.0064979326,-0.124457285,-0.017625365,0.05277805,0.04085231,0.061906036,-0.32643926,-0.08639011,-0.0074841017,-0.058495753,-0.04125484,-0.01955018,0.020333696,0.053155452,-0.11320775,-0.0015712442,0.01797311,0.026788075,0.009260697,0.112432666,0.085846886,-0.013665653,-0.052789096,0.05193982,0.12922892,0.013743212,-0.018233676,-0.06834621,-0.025616081,-0.008635093,-0.0135904085,-0.05391217,0.16641888,0.2722039,-0.15977585,0.065757655,-0.0102450345,0.018226054,0.16821082,-0.0023273157,-0.049250025,0.059332095,-0.19497138,-0.014442662,0.0061859945,-0.12332692,0.19048478,-0.053503383,-0.0025752056,-0.042093392,-0.021447463,-0.034722522,0.023594864,-0.15048985,0.029657733,-0.00056225306,-0.034230273,0.04460317,-0.29610792,0.19361623,-0.03448497,0.3606088,-0.14002125,-0.015534389,-0.4277097,0.0644239,0.026958391,0.12753287,-0.20722313,-0.043475207,0.10463502,0.021049127,-0.010356187,-0.18389328,-0.049692348,-0.030392379,0.14197181,0.22949576,0.016502284,0.22090505,0.30928808,-0.00252069,-0.13379233,-0.16982798,0.022071028,0.07241686,0.006509586,0.08796185,-0.1428564,-0.20476183,-0.00674052,0.027128484,-0.061430395,-0.021913975,0.13305208,0.07445396,0.37349275,0.0013745532,-0.1964267,-0.22480313,-0.08500107,0.1510803,-0.0046235663,0.04847467,0.15866333,-0.030949507,0.044094052,-0.008895216,0.020712325,0.07442239,-0.06045184,0.047610138,0.11229218,0.13587627,-0.0066965283,-0.13046084,-0.0284868,0.10570611,0.29054296,-0.09259145,0.18988001,0.03517654,0.083116144,-0.011463337,0.17843567,-0.0033477468,0.023496056,0.007036568,-0.06931102,-0.09156861,-0.033028528,-0.05898322,-0.10813959,0.012569981,-0.091090836,0.03136632,-0.16863318,-0.065074176,0.041523058,-0.15317015,0.012209539,0.09523936,0.11526943,-0.032232184,-0.012816517,-0.08197684,-0.14566164,-0.07034005,0.075246006,0.06744405,-0.040353388,-0.31265643,-0.03782265,0.083315216,-0.074105576,-0.24862786,-0.007882395,-0.03274843,-0.00069038966,-0.041247107,0.14609991,0.24841239,-0.05410632,-0.20485331,-0.21041846,0.080332376,0.2339048,-0.21365689,-0.012161677,-0.03390533,0.0647681,0.31775,-0.016262284,0.15954846,-0.03647316,0.0206109,-0.041783266,-0.21063234,-0.07884202,0.06662338,0.032527603,0.163974,0.0022902263,0.0030094252
0.06510795,0.010617861,0.0076045594,0.06341597,-0.19951262,0.008509454,-0.18880129,0.16423687,0.034331277,-0.08281994,0.18878151,0.13882148,-0.043837026,0.0024695117,-0.0043637156,-0.11204339,-0.09272492,0.009074444,0.010214794,0.013201524,-0.03350928,0.01718714,-0.1714031,-0.080408834,0.039739616,-0.007474905,0.06954883,-0.04548286,0.14911443,-0.17429739,-0.030559376,0.19747883,0.09804423,0.018984681,0.11730698,-0.10817275,0.041705385,0.18381363,0.12837858,0.06194087,-0.108697765,0.029592887,-0.026280588,0.2904456,0.17926043,0.039165076,0.090877384,-0.056508403,-0.027409976,-0.0053137774,-0.044881277,0.042391606,0.2572848,0.027328474,-0.038719673,-0.01539945,0.03858373,0.17137897,-0.018479586,0.030647052,-0.015822662,0.085759796,-0.11894269,-0.21493936,0.07789077,0.044621862,-0.063417286,0.06973473,-0.14888696,0.06782684,-0.06362815,0.21708807,-0.2471445,0.048314527,0.008671501,-0.015292471,-0.045212265,-0.0761316,-0.024415215,0.1172308,0.1053166,0.2269834,0.045697663,0.012798008,0.01574255,-0.07747984,-0.11702506,0.031513747,-0.044012744,0.05399926,0.22794266,-0.061711214,0.03492508,-0.13661903,-0.009853909,-0.0839471,-0.028926916,-0.006050067,-0.12447113,0.21616113,-0.33601856,0.062451236,0.031989243,0.021649731,-0.03891176,-0.025568975,-0.013877677,0.048911788,-0.1550826,-0.044007387,0.0424458,-0.02956176,0.11680361,0.2927626,-0.042259965,-0.01826474,-0.023483684,-0.041812688,0.12062555,-0.0133861685,0.03783378,-0.01279442,0.010184844,0.009399766,-0.0026140935,0.13822019,0.027028022,0.05970752,-0.0014144713,-0.20994774,-0.016077625,0.066257,0.0121494755,0.07541368,-0.17167328,0.11013958,-0.01816638,-0.011671694,0.022995507,-0.15372774,-0.087655604,0.1878304,-0.13669214,-0.078548945,-0.032427013,0.18775328,-0.173399,0.04699528,0.10098163,-0.115142465,-0.037718657,-0.014609803,-0.02725655,0.21547118,0.01606565,-0.12200181,-0.0008713835,-0.0006089151,-0.06558269,0.007210641,0.1514831,-0.12738387,0.2893424,-0.17564604,0.13697037,-0.09242206,-0.09733492,0.2757352,0.01063309,0.002521176,0.041708756,0.13230331,-0.15957436,0.03778633,0.032900397,-0.05550281,-0.026342768,0.050493766,0.1595394,-0.12755722,-0.06648927,0.015436804,0.045229908,0.26767737,-0.0027897581,-0.22638571,0.19378637,0.036950707,0.14268705,-0.002105571,0.24064043,-0.034649085,-0.02735851,0.0015014138,0.051341485,-0.07333265,0.024435036,0.049436525,-0.029990518,-0.0005473104,0.0091368845,0.019266019,-0.04262206,-0.064696215,-0.0011372465,-0.11058683,0.004537108,0.15188688,-0.005449045,0.15266758,0.019007115,0.001352372,-0.13089015,0.003171136,0.035758864,-0.1238552,0.13300647,-0.040159184,-0.0471761,0.1481006,-0.010095206,-0.076408215,0.0795816,-0.04142202,0.048949227,0.029832205,0.25735086,-0.20600815,-0.099748515,-0.033915553,-0.12494179,0.10963304,-0.15173447,-0.04144053,-0.0049515944,0.06642279,0.19454573,0.22301246,-0.014912463,-0.09933662,0.039465018,-0.052851394,-0.16225274,-0.13482441,-0.118043736,-0.027917212,-0.030871784,0.14818159,-0.026287306,-0.019770605
0.2675899,-0.017096544,-0.019006869,0.036301967,-0.089944765,-0.035723384,-0.2464431,-0.0064869984,0.0043958067,0.0025840874,-0.057033263,-0.041950043,0.09005904,0.02051716,0.0014322525,-0.06872972,0.019656131,-0.003177886,-0.026781488,-0.037711225,0.113598615,-0.020286288,-0.0956477,0.10739945,0.08499581,-0.035783842,0.026678057,-0.02467197,0.20013362,-0.1779052,0.013949602,0.12345732,0.25213268,-0.021494312,-0.017530972,-0.1520794,0.002399534,0.21678075,0.083259,-0.030312235,-0.1097077,-0.023931814,0.0450523,0.18293582,0.16492113,-0.03657434,0.034553807,-0.20129833,-0.04283592,-0.029792378,0.025758171,0.044004753,0.14687607,-0.010468572,0.025099978,0.056041867,0.023623472,0.30028194,-0.014920053,-0.06846896,0.011674769,-0.112659335,-0.07233083,-0.13854505,0.005266032,0.0038281889,-0.042992,-0.07301072,-0.029337306,-0.05069329,-0.033752374,0.21019326,-0.10779218,0.07675624,-0.0608557,-0.057876922,0.02197945,0.015282337,-0.020137396,0.09710932,-0.057167977,0.23741569,-0.041025307,-0.048047904,-0.04035314,-0.084060416,-0.13154146,0.0009629525,0.04733789,0.13084298,0.24489282,0.01924206,0.014572151,-0.12924044,0.055565175,0.04533175,0.04953392,0.026135085,0.14073919,0.12295038,-0.1889646,0.046752665,0.043888632,0.016306316,-0.022518687,0.007109815,0.02913726,-0.09150733,-0.18625264,-0.11551605,0.036995333,0.092809275,0.052817866,0.076026596,0.0065384503,-0.10160078,0.012063177,0.0118689565,0.022115419,-0.08788751,-0.045561597,0.0019987114,0.017964976,0.009841776,-0.061696954,0.0075628962,0.0031712116,0.103749394,0.012241973,0.03161515,0.064791225,-0.016327336,-0.023175105,0.23417094,-0.2507213,-0.04847772,-0.010377508,-0.04307899,-0.05513144,-0.15469292,-0.09348191,-0.11876902,-0.10877387,0.19906679,0.016795203,-0.0054708915,-0.13577603,-0.032260574,0.10271672,-0.09226892,-0.007616205,-0.0012327454,-0.07958248,0.00021115695,-0.12586185,0.06264923,0.0037203347,-0.032081965,0.034247704,-0.01598523,0.054973796,-0.07680913,0.16351186,-0.10876106,-0.03373983,-0.011000634,0.00026276126,0.24526621,-0.0039057066,0.07333239,0.20634954,0.053962376,-0.047166303,-0.005570733,-0.052053403,0.013186132,-0.00028461608,0.021078294,0.0668658,-0.05820542,0.038044833,0.07467179,0.084746234,0.06707904,0.066224605,-0.20309015,0.14808567,-0.04362021,0.12717064,-0.021668015,0.10077932,-0.031516742,-0.015475191,-0.021257399,-0.06073756,-0.11515615,0.016236223,0.055255245,0.04341056,0.030085731,-0.040395003,-0.056958605,-0.000995486,-0.017556842,-0.0046534166,-0.21599895,0.05099097,0.082705036,0.1089015,0.063579105,0.10775547,0.049375203,-0.010218675,-0.11875291,-0.026347918,-0.124478415,-0.0002580971,0.018448526,0.032221027,0.024715874,0.07875992,0.009510658,0.05480617,-0.07386217,-0.12054068,0.091847405,0.14231835,-0.07259789,0.028015763,0.017627483,0.007646342,-0.015038003,-0.089024484,0.034555085,0.0029281734,0.12507771,0.12011413,0.14840956,0.02890972,-0.13429824,0.0066331173,-0.031835154,-0.12981106,-0.09424424,-0.14857548,0.06546931,0.0006055419,0.037433356,0.024067141,-0.012720074
0.14829479,0.05672429,-0.033813614,-0.07479796,-0.3901329,-0.015421137,0.19169587,-0.23281372,-0.027894977,-0.0035944525,-0.22521316,0.17776155,0.03734252,0.03694221,-0.016534476,-0.15061536,-0.041812435,-0.019458903,0.19697143,0.033664398,-0.07146559,0.102933824,0.007589827,0.18123241,0.18424141,0.01742211,0.15632415,0.28161618,-0.16658926,-0.26908624,-0.107281804,0.16509263,-0.11199804,0.090511024,-0.1328663,0.13168956,0.109941766,0.45069522,0.16194488,-0.024124121,0.05147239,0.06972437,0.014797686,0.033626128,-0.14371338,0.08968529,0.09873366,-0.091600396,-0.14718893,-0.09326595,-0.06900316,0.048293646,-0.051120162,0.054195482,0.01578807,0.027325626,0.06991198,0.10199459,0.030708106,0.03162906,0.027196972,-0.040089782,0.026578784,-0.087263465,0.04185265,-0.07047378,-0.049114395,0.059170194,0.40640834,-0.28777888,0.086620025,-0.059334226,-0.011365983,-0.09912273,-0.05721876,0.106304035,0.07908865,-0.0029255915,-0.022305889,-0.014451035,0.035864785,0.15420333,-0.015990317,-0.016489081,-0.008083159,0.15457799,0.1756934,0.019921934,0.015863307,-0.011705224,-0.27128196,0.0009288187,-0.007501598,-0.047740433,0.019249178,-0.14221835,0.028850762,0.015280032,0.25084704,-0.13742025,0.18298247,0.110504545,-0.033751093,-0.018410815,0.09862706,0.12543695,0.027999843,0.1372441,0.16631289,-0.057487637,0.0029917394,0.13333075,0.2250927,-0.033573255,0.0073191375,0.15333755,-0.06471618,0.020379445,0.25102708,-0.1438949,-0.028389689,-0.023352133,-0.002844576,-0.24337697,-0.33242604,0.13819285,-0.013755141,0.17517745,-0.102193385,0.1307819,-0.23807679,0.14213149,-0.020912765,0.2375883,0.130188,-0.053291604,-0.043927617,0.028450198,-0.018881321,-0.20303552,-0.003868787,0.069296084,0.056924347,0.12543106,0.010899805,-0.15857552,0.18651809,-0.028659107,0.106119014,-0.33872822,-0.011102585,-0.0034144,0.0330012,0.2727443,0.036960337,-0.3313776,0.0074176397,-0.048918564,0.05906737,-0.009269174,-0.104575865,0.27492166,-0.17677416,0.15340343,-0.15838209,0.13691,-0.07732607,-0.082804315,0.048264433,-0.015791249,0.34678835,0.03598919,0.42286772,-0.01070691,-0.029243398,0.5213035,-0.09165225,-0.13336562,-0.08926896,0.08036677,0.018471507,0.22174875,0.032796506,-0.051621825,0.1779934,0.1802827,0.20687997,-0.0143285105,0.17460907,-0.033567395,-0.048029978,-0.009923677,0.28923547,0.051734805,-0.05114641,-0.10568416,0.011873493,-0.119221486,-0.06018561,-0.14673387,0.13391651,-0.022614382,-0.124887384,0.13089909,-0.0008665302,0.15051156,-0.06712039,-0.034106404,0.41540286,-0.11047552,0.016999474,-0.16520558,-0.12595955,-0.14124802,0.07402535,-0.13768479,0.039613128,-0.44921613,0.012978929,-0.026179584,0.027323559,-0.49504632,0.046607748,0.06622684,-0.107636996,-0.18763076,0.042434424,0.10134923,-0.3893084,-0.07714715,-0.09683794,-0.19509494,0.13029692,-0.11101702,0.00045260892,-0.18667838,-0.13530113,0.24121016,-0.18159842,-0.2781996,0.004608105,-0.010148278,0.09171993,0.04738178,0.14076298,0.11655951,-0.01479836,0.21512601,0.015352121,-0.01034268
-0.1011591,0.007221008,-0.011696442,-0.015040987,0.17174102,0.033126995,-0.19772786,-0.17473488,-0.115998656,-0.21128932,0.08705232,0.28172842,-0.25139517,0.060203884,-0.004978685,0.24995986,0.030431349,0.0040431884,-0.37390894,-0.075466126,-0.00962473,0.13086313,-0.045188162,0.042929858,-0.039642483,0.10547033,-0.17490979,-0.04678431,0.06639052,-0.24353197,0.05323716,0.121960185,0.294982,0.05556691,-0.014070633,-0.06518136,0.15816031,0.054338682,0.003247896,-0.06126375,0.10333583,-0.025094958,0.012428793,0.17968254,-0.12120246,0.35602638,-0.10792365,0.36543056,0.07035297,0.019008167,-0.17760943,-0.090543486,-0.04901927,-0.04308092,0.037574474,-0.0004899333,-0.017849026,0.086060874,-0.0034817595,-0.1743213,-0.028463589,-0.009261189,0.016156571,0.19017352,-0.0105359405,-0.10316049,0.07193873,-0.12873438,-0.2807845,0.018631596,-0.010038253,0.042976666,-0.048447825,1.4585719e-05,-0.063106775,-0.09661116,0.028266093,0.098422825,-0.021617522,-0.11344217,-0.13634011,-0.0011285887,-0.053120226,-0.017249405,-0.024025416,-0.19240779,-0.30777884,-0.021387732,0.039252453,0.15412076,0.34860647,0.048379667,-0.019469384,-0.33681658,0.005330701,0.14429481,0.0459231,-0.022140637,-0.103285246,0.27939805,-0.2797327,-0.0012836176,0.10004884,0.009855055,0.006823689,-0.18849596,-0.0066708922,-0.04982471,-0.09013543,0.017741987,-0.051983856,-0.093094155,0.076691546,-0.11464535,0.059321456,-0.21041705,-0.01741291,0.015101083,0.055243805,-0.08651227,-0.04891622,0.015485489,-0.06628348,0.013072518,-0.0133239245,0.10376788,-0.0019645512,0.3684008,0.13580966,0.29894036,-0.11413012,-0.07670902,-0.041294735,0.15479986,0.1522186,0.0006446402,-0.028983705,-0.029550204,0.04835504,-0.09474044,0.12025846,-0.28533962,0.03142318,0.016401531,0.038460456,-0.3325601,-0.016683377,-0.053705297,-0.16590519,0.09665341,0.050087214,0.067624964,-0.028041502,0.036006052,0.13533472,-0.17961794,0.029452918,-0.0018323117,-0.08104767,0.013372432,0.1438048,-0.28378648,0.09424719,-0.19978862,0.08990994,-0.17614289,-0.22657308,0.15822965,0.025135143,-0.012856156,-0.030612491,-0.14557488,0.17510252,-0.03888009,-0.04266871,-0.14578757,0.0219956,0.14035988,0.10665905,0.092672996,0.081009604,0.1604495,-0.020726344,0.27828053,-0.038887,0.13767596,0.19012101,-0.063216,-0.07741966,-0.031192651,0.09850702,0.005210958,0.079558946,-0.058766738,0.00084878947,-0.0905867,-0.040976893,0.04197331,-0.13811679,0.05290778,-0.068676844,-0.02474722,0.031681117,-0.13069782,0.04151903,-0.06759918,-0.07261964,0.021380432,0.11266048,-0.33770514,0.02091089,0.31057405,-0.169527,-0.02788533,0.014120241,0.11927831,-0.0956605,0.26738825,0.060659315,-0.06707248,0.042862948,0.17156407,-0.070500255,-0.047725167,-0.0629659,-0.07915034,-0.043065853,-0.2565785,-0.04216536,-0.12730654,-0.17590173,0.31168938,0.21194193,-0.019557677,0.0234604,-0.0057055783,0.2023632,0.111031756,-0.10707587,0.042765602,-0.06402289,0.059275918,-0.0018504816,-0.16231957,0.1642301,0.25650865,0.059239935,0.19498561,0.05542395,-0.042840745
0.29546988,0.1968948,0.020917628,0.12405429,0.30293697,-0.08873417,0.12274148,0.10847721,-0.0020246762,0.037311826,0.002678291,0.03229829,0.14521107,-0.08597579,0.08605043,-0.061027262,0.060073115,0.0366556,0.02164147,0.113557145,-0.33599544,0.25480893,-0.21077256,-0.07308848,0.15643491,-0.070132986,0.16777298,-0.17747186,-0.008462073,-0.01469302,-0.008505971,0.13219777,0.17913954,-0.11864277,-0.11635381,-0.061202142,0.14692672,0.16038153,-0.0020128146,0.07306055,0.34405464,0.14110126,0.0013574047,-0.020032773,0.122214824,0.12725566,0.01663258,0.13195828,0.05285361,0.09511154,0.048539843,0.03840157,0.09994732,-0.02816336,-0.09143534,-0.08246728,0.19622013,0.101898015,0.084005095,-0.1296614,0.029309498,0.13006416,0.12231786,-0.19398199,-0.18012288,-0.026828773,-0.020482967,0.25003576,0.1578474,-0.22057244,-0.020653449,-0.03940741,-0.21875401,-0.16112953,-0.050118398,-0.31671956,-0.06265451,-0.027967129,0.027440742,0.1929696,-0.30684996,0.09950694,0.019082788,0.026149528,0.080479,0.13247216,-0.27830142,0.058598574,-0.017364368,-0.022801414,0.0235518,-0.06667287,0.052279703,-0.27603963,-0.014003713,-0.06821873,-0.108203284,0.02056719,0.37366545,-0.058240373,0.08176486,0.052884433,0.28631508,-0.08488376,0.05831392,-0.011920973,0.01482438,0.0029887292,0.14410558,-0.0017520696,-0.013800612,-0.3145812,0.041312985,0.22642632,-0.034088977,0.07523857,0.013008409,-0.01963066,-0.21125574,0.0059578023,0.014482544,0.021471953,0.06349238,0.05376352,-0.19866596,-0.14438272,0.008500019,-0.05960524,0.35078067,0.5893793,-0.2715011,-0.07786591,-0.059371494,0.0073333974,0.3082332,-0.21858098,0.14362842,0.092962906,0.20585743,-0.2557639,0.011876863,0.033552516,0.33172387,-0.10702171,-0.08982198,-0.001995434,0.0046982635,0.08653349,-0.09379887,0.06583477,-0.045622084,0.21085109,-0.063545115,0.10254462,-0.20104212,-0.28292724,-0.069783166,0.12939627,-0.22105353,0.028900523,0.07542758,-0.022563543,-0.05865566,0.013285172,-0.3299386,-0.1117862,-0.17125845,0.090308726,-0.032549504,0.041572705,0.2847928,-0.27598327,0.015433269,0.097846285,0.0703341,-0.0749595,0.038188156,0.1332482,0.18195148,0.011968914,-0.0936386,0.13353889,-0.0019523342,0.6274389,0.31903538,0.033859957,-0.021296239,0.041203275,0.114131615,-0.0035982851,0.13632815,-0.00023444011,0.022538546,0.13791636,-0.13185874,0.08646169,0.051815096,-0.13380803,-0.054169536,0.19087242,0.07258023,0.054448392,-0.0709581,-0.021145804,-0.05137657,-0.17323625,0.044442497,0.07075614,0.38821563,0.022981964,0.20215626,0.5854148,-0.5390924,-0.2905158,-0.124056116,-0.17339689,0.12401802,0.20640887,-0.027494192,0.020243134,-0.25441602,-0.21597157,-0.010762718,-0.006064801,-0.11704198,-0.28416017,0.50026244,-0.14825119,0.22239405,-0.37311077,0.007118819,0.052220963,0.1409147,0.16726382,-0.012485001,0.13092262,0.037375335,0.14661726,-0.1803977,0.052846752,0.071054466,0.0015202869,-0.089547805,-0.12728171,-0.031293586,0.27505577,-0.07168501,0.011662039,-0.06426002,0.053934265
0.03143233,0.057983525,0.0006491173,0.07539107,-0.05987099,0.07629303,-0.28017485,0.110755995,-0.07774872,-0.0077260635,0.016075743,0.044863574,0.1328493,-0.0070909834,0.03481229,-0.19373967,0.1429333,0.011682196,-0.050290775,-0.047097918,-0.0914741,-0.14793585,-0.051594857,-0.038265493,0.11579812,-0.15169446,0.09767418,-0.04059141,0.21318232,-0.030655365,-0.031677242,0.31292012,-0.08626591,0.028939478,0.21031915,-0.26943102,-0.08984856,0.1064408,0.0084945755,-0.025717713,-0.07033315,0.07645305,0.03899822,0.060308296,0.08275821,0.11244577,-0.07596689,-0.22674833,0.099637434,0.0016479518,-0.018614542,-0.070075765,0.03870836,-0.12736182,0.016111415,0.023052467,-0.046310924,0.22002792,0.038366374,-0.06458466,0.028030457,0.023289112,-0.1291139,0.048931997,-0.0363503,-0.056799196,-3.1880758e-05,0.0056640934,0.24302082,-0.058580954,0.06402649,0.15014915,0.08473377,0.19295797,-0.09233036,-0.06858165,0.025375403,0.05045141,-0.06870231,0.24704888,-0.007933499,-0.018149018,-0.0452653,-0.018237019,-0.016102588,0.0036124624,-0.36329004,0.010388392,0.03848192,-0.11015072,0.1173574,0.040694654,0.00045539284,-0.274069,0.03359032,0.38308454,0.013372843,0.027778318,-0.032832976,0.0035400812,-0.1564469,0.034149233,-0.067060046,-0.043608014,-0.11387094,0.0022494274,0.01794922,-0.14272933,-0.1347101,-0.04231944,-0.0032887491,0.14705439,-0.0700669,0.028223436,0.019282166,-0.15514271,-0.014830866,0.025269577,0.05633217,-0.27206057,-0.04256698,0.041664205,0.023815129,-0.12784876,-0.10074118,-0.12207976,-0.003346718,0.057868887,-0.22879341,0.023678796,0.1917966,0.17684801,-0.018740391,0.0604146,-0.15336637,-0.021023624,0.09581297,-0.007959292,-0.24905552,0.07449044,-0.18435967,0.14933525,-0.29336005,0.059311133,0.015765378,0.046486165,-0.17390688,-0.019091103,0.24690798,-0.03252659,0.012907578,0.025468584,0.034756836,0.109699436,-0.12792738,-0.03506583,0.009339283,0.09238775,0.14541689,0.017316027,0.05260772,-0.24658185,0.16448732,-0.1882694,-0.062245555,-0.2175628,-0.12895535,0.40655,0.020973329,0.05679485,0.012163414,-0.07765154,-0.14138788,3.157909e-05,-0.010799923,0.094902344,0.027210232,0.0686169,0.013961482,0.025266813,0.02588421,0.09180226,-0.048144843,0.17680117,-0.000442329,-0.17234892,-0.03601076,-0.043066375,0.06365592,-0.04976587,0.00029787497,-0.003702071,0.04716394,0.018829715,0.012140786,-0.08753284,-0.0061916797,0.07424039,0.11338816,-0.043446697,0.035828404,-0.045523744,0.049489457,0.04013307,-0.03127745,-0.22327259,0.038506392,-0.011065562,0.0549533,0.016039023,-0.08750038,0.05252333,-0.16658513,-0.012615101,0.0143132955,-0.21142429,0.056336153,0.24836113,0.04115605,0.15735646,0.043828223,-0.045932118,-0.01672611,-0.22975373,0.036382347,0.13668041,0.13326716,-0.33258978,0.06252584,-0.07787902,0.1253526,0.08626101,-0.0997367,-0.09501671,0.004544019,0.13821445,0.081332564,0.3796466,-0.083524175,0.09899553,-0.009320692,0.01300977,-0.0022413987,0.019515933,-0.15550667,0.03796703,0.019424543,0.022007294,0.043748684,0.050601117
0.1965007,0.08965752,0.034747403,0.07584994,0.17573856,-0.030922137,-0.38305032,0.041313358,0.039347906,0.03185612,-0.016881732,0.028622221,-0.09932834,-0.028313283,0.009931042,-0.041909315,0.05257091,0.037346274,0.0763034,0.030601114,-0.041737214,-0.016022945,-0.04533902,0.008071477,0.025728075,-0.03394254,0.066220075,-0.20664012,0.22083677,0.20249881,0.028819682,-0.08214975,0.20994218,0.045046892,-0.20782526,-0.30401012,0.09264553,0.20233494,0.0780013,0.02281216,0.13550857,0.016442843,-0.026443658,0.094987,0.14967829,0.03732382,-0.1897294,-0.10425931,-0.0336311,0.03698889,0.1951484,-0.014285853,0.31401172,-0.058777288,-0.024853688,-0.018620307,0.05444313,0.30423394,-0.005281795,-0.22824146,-0.012872968,0.0107245045,-0.061140276,-0.119781554,-0.1293739,-0.12634237,0.034980286,-0.19786237,0.023908755,0.009527952,0.030611357,0.1869983,0.11414763,-0.046070885,-0.023645205,-0.05655546,-0.045878027,-0.015515531,0.043667458,-0.08927213,-0.11787393,0.023340244,0.04427608,0.027955187,0.02243426,0.016052704,-0.12293416,-0.009510581,-0.030552981,0.1442451,0.08919797,-0.017178375,0.0029461815,-0.13454291,-0.039772175,-0.036157444,-0.031531364,-0.014362185,0.26098126,0.15779285,-0.24578872,-0.17712651,0.31062785,0.03169784,0.10567898,-0.0027210026,-0.02806326,-0.1315589,-0.14986141,-0.064029604,-0.004635226,-0.18831632,0.27163336,0.109207116,-0.019993389,-0.19459088,0.035922315,-0.026286952,0.078591235,-0.14702886,0.04814786,0.0050950637,-0.007204228,-0.14381617,-0.08463252,0.084389366,-0.03442127,0.026514478,0.17795457,0.3785327,0.14684816,-0.13497674,-0.018869853,0.2413427,-0.2766023,-0.16231082,0.059739906,-0.026748389,0.110521585,-0.19498481,0.046661418,-0.105130784,0.1177445,0.43576264,-0.02644795,0.03152566,-0.111750506,0.029730452,-0.03644123,0.16950631,-0.01280602,0.087435596,-0.010913603,0.062136516,-0.11214923,-0.049838435,-0.015183883,0.04063952,0.08775568,-0.005642963,-0.0126720695,0.069641836,0.19681297,-0.23297751,-0.24068092,-0.31699497,0.011242945,0.108366966,-0.012087094,0.05321787,0.037074056,-0.0368298,0.011363116,0.011190258,0.030685978,0.09590392,-0.08509201,0.04522882,0.21761616,-0.03371813,-0.02041404,0.17522214,0.117351405,-0.054029446,0.053849436,-0.2931475,-0.06125834,0.043770008,-0.05128525,-0.012079837,0.08814494,0.039658632,0.080622286,-0.038648725,-0.10500597,-0.26385733,0.003160077,0.20544262,-0.12569484,-0.03765049,0.06507877,0.006722096,-0.01445639,0.041226253,-0.0031808105,-0.2967842,0.023513211,-0.024757335,0.17711398,0.23780099,0.19932428,0.17823401,-0.1776018,-0.10369173,-0.041393787,-0.04206326,0.03665681,0.14673147,-0.03921178,0.047559083,0.008102944,0.041427728,-0.030842196,-0.107412644,-0.07809878,-0.035510074,0.10878451,-0.21984304,-0.101667,-0.028698474,0.053616144,-0.057200454,-0.37967682,0.06536982,0.044876847,0.17556451,0.34663266,0.1389497,-0.15757436,-0.12718378,0.011713652,0.015284439,-0.20195931,0.05143406,-0.21664809,-0.07649938,-0.008839844,0.11465452,-0.031220004,0.015278367
-0.24170245,-0.026028283,-0.0602413,0.09651116,-0.25243106,-0.019794222,-0.17759135,0.09376494,-0.04199348,-0.09380181,0.27984932,0.070117116,0.11831996,0.0650617,0.0025139078,0.02594678,0.092905484,-0.048927344,-0.011520825,-0.016393688,0.0047950963,-0.019737015,-0.070113964,0.026370823,0.19627059,-0.03592709,0.052637074,-0.04018984,0.034739845,0.1189717,-0.027325168,0.13514344,0.080589525,0.012021781,0.17464553,-0.075256065,-0.02079026,0.050661303,-0.09442762,-0.030051887,-0.029592661,0.047073018,0.0022743552,0.12828267,0.122698426,0.13853107,-0.081082836,-0.08862561,0.064884245,-0.029972574,0.04524492,0.06639871,0.24209969,-0.040877596,0.035979185,-0.0008678431,0.032664433,0.19509843,0.036066286,0.23162141,-0.05193593,0.08593223,-0.103729084,-0.035326723,0.09307805,0.043748483,0.005526131,0.26819038,0.06612925,-0.09877736,0.0035224753,0.14168975,0.045087554,0.14319365,-0.064921096,-0.085376956,-0.061078764,0.008510517,0.021588894,-0.015312773,-0.060768202,0.014108318,-0.03239937,-0.028332483,-0.038237125,-0.15177876,-0.12511696,-0.012646674,0.020950578,-0.017615804,0.12289389,0.053027917,-0.029634548,-0.06314137,0.029827485,0.05256663,0.042724937,-0.023196863,-0.13355401,0.19191575,-0.21756302,-0.06535975,0.03021056,0.04560236,-0.0042928793,0.019523615,-0.0014777579,-0.06816862,-0.10909277,-0.034539632,0.006698317,-0.16810822,0.12001984,0.14747961,0.00886761,-0.065091185,-0.03346146,-0.023287497,0.03743574,-0.083356716,-0.027936557,-0.008314406,-0.022587454,-0.10363147,-0.14045782,0.08476187,0.024938459,0.2011413,0.05467461,-0.12600991,-0.060078975,0.0829703,-0.06016462,0.1253924,-0.0041510337,0.06764263,0.15926613,0.022115612,0.04355076,-0.12360499,0.04389453,0.048899867,-0.07142553,-0.17173275,0.012966358,0.1728984,-0.22987539,-0.023045396,-0.12494059,-0.081267916,0.031800434,0.09478336,-0.0380048,0.27509972,0.049139876,-0.039309267,-0.013458382,0.09623853,0.034019284,-0.0373354,-0.07150324,-0.1547786,0.09064852,-0.17364281,0.18458901,-0.24823278,-0.14961135,0.16522679,0.0065798284,-0.001446505,-0.07241717,-0.055084355,-0.19489266,-0.03983415,-0.04090554,-0.11454438,-0.1027599,-0.01654227,0.055925637,0.0466377,0.047172807,0.22463231,0.023446389,0.13244309,-0.2469063,0.045260824,0.010082973,-0.015543992,-0.051875584,0.009143992,0.10870126,0.0030864826,0.15296623,-0.0073509547,-0.026767498,-0.0132053355,-0.010094396,0.024260392,-0.06259335,-0.038991943,-0.022234336,-0.0054770927,0.066099025,0.05559838,0.035904557,-0.12112017,-0.11153766,-0.03843539,0.0773006,0.066012785,-0.02944756,0.099402726,-0.15888017,0.027091606,0.036890488,-0.1400651,0.09092704,0.05217026,0.0053660823,-0.045831077,-0.0008727289,-0.17341849,-0.0042572,0.049645435,0.10054923,0.01902472,-0.017944513,-0.02770629,0.0610674,-0.09372439,-0.244543,0.037690207,0.03866664,0.043781992,-0.0025107479,0.02569407,-0.026712414,-0.049365386,0.0075172805,-0.05358109,-0.039948378,0.015409832,-0.09343991,-0.16603655,-0.031208823,0.11892757,0.007266563,0.21420266,0.06381556,-0.059466105
0.020198822,0.069297604,0.020437514,-0.017947065,-0.15046301,0.004715608,-0.3151175,-0.018234458,-0.06345221,-0.24608415,-0.14816815,0.10855263,-0.015698764,0.0019499152,-0.004290061,0.07616652,0.06825413,0.022114739,-0.0787404,-0.030505307,0.14018853,0.05062141,-0.017297603,0.050634563,-0.043185778,0.036418527,-0.077817276,-0.009383128,0.2508912,0.026103025,0.020065527,0.018462168,0.17183924,0.073734924,0.18684152,-0.13234793,0.011378326,0.10358938,-0.1356657,-0.0060011605,-0.017117452,-0.030405032,0.0009968462,0.05218559,-0.05258346,0.10079958,-0.09400162,0.043195006,0.028644852,-0.020063372,-0.1459585,-0.046113934,0.1114811,-0.046951752,0.010867276,-0.002215565,-0.028186068,-0.016317088,0.00417376,-0.03996242,-0.015486152,-0.086861186,-0.28244755,-0.006860009,-0.059513435,-0.01883892,0.029958403,-0.12375376,-0.18386997,0.050470456,0.024987964,0.12726822,-0.037110996,0.096448384,-0.04765645,-0.108950235,-0.004561731,0.039525185,-0.017648978,0.1874938,-0.005719113,-0.039840356,-0.031835977,-0.008678108,-0.027340086,-0.21164094,-0.24982281,-0.0009293499,0.00061782484,0.07461174,0.16640179,0.02206001,0.00050624064,-0.1960866,-0.0004497053,0.23812905,0.00866312,-0.008037871,-0.17988423,0.07877941,-0.019011209,-0.083190255,0.20582968,0.005935742,-0.09788754,-0.12664558,-0.021754935,-0.097379975,-0.245088,-0.06449934,-0.009136919,0.11732577,0.06093396,0.076294236,0.019207688,-0.34446225,0.013765792,-0.002328488,-0.08882416,-0.13478267,-0.016424567,0.02913984,-0.026254155,0.017462188,0.008045928,0.1415048,-0.021280251,0.06925072,0.20837085,-0.15712574,-0.00947471,-0.022535702,-0.010417035,0.21722315,-0.15004364,0.07957211,-0.045954846,-0.0002874865,-0.07683653,-0.080060214,-0.0049546356,-0.07333125,-0.030521687,0.14711566,0.011720455,-0.10371451,-0.14428356,-0.0058973427,-0.15678564,0.0092829,0.023477396,0.0058971597,-0.00064422085,0.0020117532,0.007870505,-0.0472975,0.02051383,0.06779699,0.009223458,0.0049223914,-0.033636037,-0.008674908,0.29326418,-0.20229723,0.022028375,-0.30667067,-0.015297454,0.19144118,-0.0030854554,0.06883759,0.14456154,0.018701732,0.07046037,-0.014183927,-0.0045332937,0.018772554,-0.018098423,0.0014321435,0.10107598,-0.0012185823,0.021615025,0.0892302,0.060891572,0.11856362,-0.041727938,0.24440914,0.037623357,-0.028431408,-0.09711161,-0.025114255,0.04405657,0.015808875,0.0134384,0.0018415875,-0.009230848,-0.018697329,-0.018354028,0.17074434,0.09035344,-0.003380746,-0.009079461,-0.012904781,0.022435255,-0.30103505,0.0055369223,-0.23402178,0.049926475,-0.18821198,-0.06264916,0.0702715,0.08987602,0.26021895,-0.0008862355,0.026186042,0.14659695,0.049368348,-0.07424961,-0.1657844,0.031188168,-0.17938212,0.061488844,-0.06602609,-0.025430746,-0.12112772,0.19136813,-0.0054820143,-0.17106013,-0.06400647,0.025477702,-0.0019931933,-0.014781988,0.09487725,-0.13396335,-0.057413787,0.008020875,-0.016121022,0.1420989,0.07522479,-0.06174962,-0.05526247,-0.026364937,0.01789833,0.12254186,0.06775507,-0.117158435,0.22265294,0.02862685,0.07920218,0.024356646,0.005960969
-0.03423825,0.0053400053,-0.01798166,0.07036798,-0.023761453,0.103905626,-0.3934365,0.12194966,-0.007572184,-0.090156004,0.28950468,0.11053467,-0.07473182,0.009025235,-0.04262183,0.072344065,0.035123978,-0.019473027,-0.09904499,-0.0005046804,-0.16256668,-0.20604864,-0.040239714,-0.023954831,0.06389903,-0.08538565,0.15419097,0.010553014,0.057971213,0.13714194,0.06955877,-0.04339171,-0.032599725,0.04044413,-0.07270789,-0.2848898,-0.08656489,-0.104271494,0.02330848,-0.032203518,0.115171105,0.0030633365,0.051316682,-0.013432442,0.09011724,0.19511627,-0.10656665,0.035301965,0.07647286,0.057255525,0.05518637,-0.099042974,0.26767778,-0.080327995,0.022597264,0.053361867,0.04255052,0.15396747,0.08037327,-0.005665209,0.015876109,0.033266228,-0.10209984,0.048488636,-0.034082714,-0.022534503,-0.007136812,-0.080133736,-0.08113923,-0.16489536,0.047875192,-0.014489877,0.1659201,0.023533918,-0.06613656,-0.037600454,-0.038502228,0.010756903,0.0010636678,-0.010131689,-0.06951099,-0.058508914,-0.020790992,-0.02991456,-0.016359484,0.06490057,-0.12054666,0.005113963,0.061320573,-0.002525412,0.091282435,0.03215003,-4.114196e-05,-0.00021166759,0.046903096,-0.006374585,0.028002331,0.04049295,0.03540381,0.16319913,-0.25689623,-0.20215026,0.12851618,-0.030599218,0.06411989,-0.04535007,0.059821244,-0.11758298,-0.045258943,-0.012821479,-0.008868233,-0.2893091,0.16089495,0.1983786,0.0018917506,-0.12018515,0.012724959,0.05441861,0.070314065,-0.04264404,-0.0358412,-0.01272589,0.035587035,-0.1353994,-0.19467476,0.3311569,0.027584746,0.07045372,0.06838675,0.17708541,-0.052691408,0.14508301,-0.019265553,-0.039880823,-0.21184635,0.016047923,0.19264877,0.025059583,-0.03355457,0.03371185,-0.03895411,0.1571881,0.026324471,0.083239146,0.018089103,0.23478848,0.34601435,-0.033351775,-0.35727155,0.027061211,-0.012221315,0.07219203,0.01827264,0.14143763,-0.053161938,-0.109234296,0.004442596,0.05019708,0.09185238,0.0028915035,-0.00549388,0.103248365,0.4035391,-0.15320277,-0.15220928,-0.16880935,-0.15212023,-0.06412503,-0.025089229,0.030679727,-0.06472833,-0.060461875,0.03453088,-0.013227177,-0.041731168,0.14768288,-0.03697504,0.078317896,0.1607152,0.060669094,0.030819338,0.2727606,0.0034373351,-0.097373374,0.03608988,0.12416322,0.009810333,-0.043197658,-0.12472094,-0.02948229,0.1239165,-0.010202561,0.17773592,-0.03890829,-0.05157312,-0.0673231,0.017141819,0.13691323,-0.13528162,-0.049289294,-0.0053147827,-0.016375525,-0.09568274,-0.025847774,-4.52359e-05,-0.05394396,-0.009451917,0.033140175,0.27817702,0.093731344,0.06556005,0.08125474,-0.026311046,0.060415506,0.06612324,-0.02889925,0.02399603,0.20816246,0.043728195,-0.06378737,-0.116788924,-0.058276914,-0.0012591652,-0.10974349,0.11485344,-0.098171905,0.10073224,-0.108709596,-0.06839261,-0.052000646,-0.17280604,0.10210589,0.09752655,-0.02215492,0.033496927,0.19231151,0.1082281,0.099982455,-0.2746374,-0.16044375,0.015339664,-0.0030054767,-0.24836871,-0.20746304,-0.24573658,-0.06976219,-0.0113725625,0.13903564,0.016948447,0.010932723
0.13166688,-0.07513355,-0.059656154,0.011060031,0.052760616,0.19076276,-0.42559823,0.0068371547,0.045709394,-0.17274003,-0.0247129,-0.024709249,0.13356417,0.028055206,0.009036063,-0.12952566,-0.14297058,-0.04872424,0.033367816,-0.013914952,-0.12755555,-0.1393392,0.05463915,0.08620039,0.08965644,0.04889064,-0.1142989,0.25194472,0.12106502,-0.12902749,0.01271075,-0.010865848,0.15205571,-0.0494093,0.26210162,-0.35875177,-0.052749574,-0.10640412,0.082468584,0.0031625563,-0.047127474,-0.07471103,-0.030966733,-0.0017329148,0.21723081,-0.0614197,0.013564364,-0.05501997,0.07346582,0.02038303,0.17026111,-0.15806776,-0.0002923283,-0.026950901,0.014131742,-0.024472998,0.009879703,0.16276625,0.020946184,-0.05958508,-0.035374813,0.057621222,-0.21150431,0.037246507,-0.016475884,-0.02912696,-0.030194525,-0.1443254,0.043814436,-0.2534062,-0.07960262,0.15397489,0.005372773,0.039911907,0.02380729,-0.08152914,0.07551244,-0.020482328,0.0676106,0.02231864,0.05500156,0.079718806,-0.002957005,0.0009984861,-0.023959437,0.10635842,-0.13741548,-0.030561395,-0.024337765,0.092517756,-0.14171192,-0.0031041128,-0.009605649,-0.022868734,0.0077987197,0.22686969,0.016627215,-0.03492918,0.098537475,0.0853465,-0.23470934,-0.064585164,0.14322762,0.055920344,-0.07073666,0.03785961,-0.008308057,-0.15918195,-0.13936974,-0.017671356,0.01585345,-0.1263654,-0.024776455,-0.044848256,0.005879368,-0.06273494,-0.019899193,-0.049030554,0.0047711544,-0.056799196,-0.0067788754,-0.022981407,-0.017025284,0.0006152203,-0.018597756,-0.0012474715,-0.035812944,0.023320528,0.19465777,0.0070342,0.20878474,0.09355792,0.029358976,0.10292355,-0.35229915,0.060185004,0.15135033,0.0066358587,0.030731004,-0.017191725,-0.19783773,0.06416289,-0.14700785,0.029669445,0.0031126633,0.1771472,0.118641034,-0.0025521456,-0.060735628,0.2311999,0.021127833,0.058608573,-0.0795266,0.09801685,-0.056395564,0.07145661,-0.0021689541,-0.14409192,0.13119078,-0.06195447,0.055911116,0.08135969,0.3487368,-0.1405982,-0.04912687,0.14643139,-0.019248717,-0.08690958,-0.03669258,-0.044410758,-0.09244605,0.02192457,0.07251218,-0.031030323,-0.011700401,0.20448062,-0.1523656,0.09483498,0.017767001,-0.0054678833,-0.0031393091,0.35340416,-0.03977487,-0.15708975,-0.080313005,0.064235136,0.13688444,0.0131756,-0.02889865,0.0068531027,0.17110169,-0.042197913,-0.0059312936,0.011790039,0.06095254,-0.0726794,-0.008307935,0.0011966331,0.077996545,0.030052366,-0.013614332,0.041034054,-0.051306445,-0.013616579,0.03949262,0.106823295,-0.06611425,0.058777127,0.2588169,0.0229013,-0.04075211,0.32292208,0.06503076,-0.010914099,0.0042679296,-0.20102239,0.06959988,0.2753816,-0.002928311,-0.027541095,-0.052899655,-0.033260345,0.044547677,-0.09973213,0.1396902,-0.05440649,0.13957871,0.02798808,0.036974818,0.08995266,-0.23567528,0.14234768,-0.10353787,0.0641406,-0.036759745,0.22781873,-0.08689977,-0.050478518,0.00021239332,-0.16094348,-0.02373418,-0.027203724,-0.19245394,0.016202472,-0.31740993,0.046342805,-0.005146567,0.011430442,0.00013694196,-0.01634922
0.054124177,0.010128745,-0.025587535,0.045634035,-0.08528736,-0.028758138,-0.21433781,0.095562525,0.16048753,0.029309098,0.14325504,0.091526926,0.06272189,-0.0048570246,-0.025269939,-0.0707706,0.024828218,-0.013368196,0.15490752,-0.002643637,0.042495456,-0.034116354,0.020158151,0.16670063,0.0022870516,0.081191175,0.033520423,-0.08586475,0.060955074,0.30527955,-0.023671074,-0.12052451,-0.06563238,-0.014656762,0.0046486338,-0.07360684,-0.032943215,0.13513523,0.024585094,-0.022976493,-0.012719846,-0.051482487,0.010419292,0.10947291,0.23567893,-0.06976333,-0.043866746,-0.18487824,0.0356968,-0.0231792,-0.040036153,0.03901635,-0.09156449,0.06048767,0.030469077,0.04532975,0.011853909,-0.0083514,-0.008340005,0.082485184,0.0001402426,0.0059970575,-0.013082759,0.08692674,0.028571494,-0.1121224,-0.014667049,-0.0062439577,0.386008,-0.11892457,0.07957404,0.21818124,-0.1415436,0.09582979,0.028606012,-0.0013159852,0.029653568,-0.008095685,0.008998889,0.11076624,-0.0021533817,0.2223139,-0.026594952,-0.030912787,-0.03569293,0.03145044,0.02480394,-0.0094065005,0.015516039,-0.0112019,-0.13848953,0.03583569,-0.009230471,-0.05214489,0.024622051,0.11866632,0.04350095,0.0071793892,0.192395,-0.011569852,0.02246111,-0.07810273,0.041015282,0.0014178512,-0.0029788027,-0.09537806,0.0053467536,-0.14686665,-0.14357533,-0.005010242,0.014299589,-0.03385247,-0.01610208,-0.28211966,0.0020219353,-0.094212584,-0.010271945,-0.015329727,-0.0769577,-0.039531793,-0.017020494,0.028606644,-0.0009907886,0.06609557,0.04000812,-0.08786101,0.012102629,0.12774795,0.14756955,0.1673747,-0.16363005,0.024048284,-0.009292511,0.08067441,-0.14840095,-0.011646884,-0.031902913,0.009195365,-0.02782543,-0.14115006,-0.0029055038,0.12134928,0.035880525,-0.02701669,0.033435598,0.15000226,-0.31094083,-0.02084208,0.028111313,0.01916225,0.007255215,0.02120948,-0.030311922,0.24091958,-0.016344102,-0.21747068,0.018606745,0.022831576,0.3012178,-0.037255757,0.160346,0.04484137,0.17856732,0.08000626,0.05258702,-0.12109081,0.07787866,-0.0016897231,-0.026481688,-0.004063635,0.19252813,-0.06622369,-0.051570337,-0.033301696,-0.027410831,0.07354488,-0.05440751,0.07146722,0.018755738,-0.02582625,0.021943307,-0.04046325,0.039076224,0.04092837,0.048390284,-0.11200695,0.0683974,-0.018367939,-0.09505406,-0.0011379521,0.08306235,-0.008835842,-0.060862064,0.050110146,0.04477713,-0.057460476,-0.012436675,0.03263386,0.3408928,0.06079147,-0.02174315,0.020289084,0.13136873,-0.10407013,0.001085674,-0.16162254,0.045568485,0.009164128,-0.048657577,0.23088439,-0.020989208,0.16963887,-0.019989092,0.02443495,-0.051762305,-0.13800474,-0.028918386,-0.10338243,0.011800971,0.19140346,0.021411752,-0.1627095,0.014133573,-0.0143064605,-0.16070108,0.11219088,-0.3967001,-0.013841024,0.005080336,0.12087865,0.07132537,0.029811613,-0.022374284,0.15725237,0.009979232,-0.12583539,-0.12267557,0.092914805,0.21457061,-0.0913936,-0.0161727,-0.013549571,-0.015429198,-0.01680362,0.0048618466,0.03965098,0.015885293,0.14548689,0.014772625,-0.0035029692
0.3817088,-0.019565301,-0.025078902,0.005333081,0.13994886,0.27929077,-0.12733212,0.20846978,0.17421836,-0.07262923,0.009005173,-0.06952717,-0.103879854,-0.09979353,0.017075062,0.14822116,-0.034770083,0.017453106,-0.21419293,0.017416919,0.028128503,-0.21535888,-0.04588946,0.20953211,-0.018893443,0.062101327,0.19237855,0.124170795,-0.10891519,-0.15604743,0.04509603,-0.16865452,0.11188782,-0.1471259,-0.25780338,0.0013809532,-0.048510186,0.18411307,-0.059674438,-0.022079013,0.18638562,-0.03415195,-0.0049219336,0.1614379,0.15165262,-0.07549511,0.1511699,0.14826941,0.030966742,0.085367166,-0.28666222,-0.06686694,-0.036906205,-0.02644128,0.020111475,0.008504128,0.042192865,0.1283407,-0.028306043,-0.07018144,0.039573476,-0.28301018,-0.066042565,0.08117901,-0.057083763,-0.09642895,0.0007178977,-0.18236917,-0.0991584,-0.15976454,0.15342079,0.03735917,-0.5659376,-0.0066263345,0.023585161,-0.1273089,-0.12204824,0.013387287,0.043858886,-0.014348659,0.05219902,0.2208328,0.0014313014,0.0070485272,-0.011120102,0.10686832,-0.011075115,-0.019391272,-0.0026126518,0.08275261,0.19286293,-0.018869778,-0.028804297,-0.011583997,-0.022896538,0.023137908,0.029948952,0.00013582972,0.13074848,0.011202534,-0.11987376,-0.05706609,-0.1757916,0.0027132474,0.11771129,-0.2540908,0.00580954,-0.21271236,-0.11684728,-0.039791208,-0.024308212,-0.26095188,-0.062452286,0.107305035,0.031046366,-0.08074862,0.05651653,-0.029640311,-0.07860267,0.15722576,0.0069380966,0.02179508,-0.020392532,0.10259655,-0.061508305,0.2282856,-0.037980635,-0.19479847,0.24140446,0.07488707,-0.5584139,-0.019286618,0.1157672,-0.13948822,-0.20716378,-0.37811393,-0.07598998,0.03341899,-0.44365907,-0.017928192,-0.023996146,-0.07033019,0.032883026,0.27943623,0.01418542,-0.0699917,0.3137437,-0.019928472,-0.25924534,-0.06356647,0.020155523,0.040028363,0.06292754,-0.026924437,-0.11607557,-0.07606668,0.00233176,0.084911294,-0.03920135,-0.02930086,0.35713267,0.31905675,0.3170219,0.07839255,-0.057912353,0.042086765,-0.015638698,-0.23158836,-0.034589067,-0.010490414,0.42259392,-0.28758404,0.19106412,-0.031669308,-0.013150887,0.030445259,0.09445985,0.12544113,0.073600896,-0.19696982,0.014510435,-0.014355841,0.14007297,0.08551962,0.38837272,0.13786843,0.11128506,0.006087784,0.0059600626,-0.042305894,0.15385891,0.018388402,-0.07200247,0.030220186,-0.09673514,-0.04073939,-0.013371422,0.22321367,0.3532712,0.16579969,-0.14037345,0.07218832,0.0062025185,-0.37177673,-0.018539276,-0.13907574,0.32349476,0.16827258,0.04234936,0.087972805,0.20638297,-0.035171706,-0.028725365,-0.24403073,0.028930381,0.04113971,0.16438535,-0.16305369,0.019610403,0.026042704,-0.2472516,-0.14996466,-0.002855368,-0.10363542,0.18290994,-0.17771558,-0.2560727,-0.06176978,-0.098860525,-0.008215634,-0.05731693,0.24189186,0.3424257,0.16915429,-0.011017297,0.22263406,-0.083229385,0.09991618,-0.041671075,-0.3028581,-0.02343994,-0.013326584,-0.29133284,-0.20953798,-0.06461444,0.13185672,-0.0009352507,-0.09121929,-0.07594805,-0.017256312
0.062798955,0.13404754,0.03833982,0.0044098436,-0.35885644,-0.03599011,-0.12355432,-0.0754588,-0.1598892,0.008713957,0.0060622706,0.15264273,0.04260581,-0.024697134,0.028541677,0.15028904,-0.07182302,0.028304875,0.13544811,0.030773284,0.1857054,-0.18504035,-0.10194195,0.13603057,0.07340974,-0.088601016,-0.05866172,-0.059756808,0.0872365,-0.09721791,0.03993403,-0.112942494,0.48139706,0.077393584,-0.12765247,-0.23386753,0.11601061,0.13349843,-0.037777156,-0.02195994,0.06275674,-0.02923812,0.03827469,0.14832719,-0.15014485,0.17278264,-0.06263188,0.18549876,-0.0041954136,-0.06957991,-0.06819282,0.015236661,-0.0962812,-0.047961935,0.02993014,-0.011333574,0.05332469,0.050298147,0.024815679,0.004615224,0.017571278,-0.08668881,-0.17760994,0.116676204,-0.057663046,0.17001955,0.069738805,-0.092798896,-0.005694879,-0.22017287,-0.06379604,0.10269655,-0.0440866,0.012970943,-0.0061115245,-0.059355456,0.0247027,0.035337113,-0.034965627,0.13991635,-0.40523076,0.01389806,0.023323372,0.04834275,0.025784539,-0.038719863,0.08067317,0.030507434,0.011368573,0.010827553,0.06917503,0.008954751,-0.040292475,-0.189772,-0.028234225,0.011564924,-0.006042101,0.009020835,0.15797023,0.13384159,-0.00012877575,-0.10438283,0.15650561,-0.026210943,-0.13009039,0.02825074,0.021486862,-0.05832247,-0.06424124,-0.065995075,-0.050984636,0.11509748,-0.06670446,0.07072142,0.020182412,0.004530244,-0.055261653,0.031727117,-0.12650068,-0.20963877,0.018459767,-0.020213507,-0.010739628,0.007739299,-0.17765845,0.02622663,-0.03872942,0.1858275,0.0029929797,-0.059690803,-0.016970647,0.108509295,-0.013377202,0.119817235,0.03650347,-0.0850192,0.04295384,-0.017956894,0.078999065,-0.07264306,-0.006150138,-0.2533549,0.054880362,-0.03908051,0.030763986,-0.08429517,-0.09866543,-0.023067065,-0.0037234179,-0.14305392,0.030904826,-0.0056030313,0.062480114,0.07632513,-0.021312041,-0.06397184,0.018611018,-0.027201477,0.02659303,0.05582591,-0.0062242094,0.042964585,0.19373399,-0.11829699,-0.21482792,-0.23330832,-0.041170288,0.20783211,-0.012285491,0.05832487,0.15523635,-0.1539635,0.1634336,-0.013281018,0.0033391775,0.29553783,-0.013944625,-0.0866782,0.08137425,-0.24629658,0.021802798,-0.031254668,0.027259516,0.27203444,0.38018855,0.24870858,0.26778567,-0.0047054365,0.059154097,-0.04673323,-0.013605664,0.0359753,0.12065049,0.0107231615,-0.12155911,-0.06239111,-0.028662913,-0.079975754,0.112124115,-0.03580066,-0.02572278,-0.049157854,0.13806757,-0.050555438,-0.007493143,-0.06881965,0.035244793,0.06236726,0.073375724,0.0076706717,0.14967905,0.36952007,-0.05877069,-0.06439797,-0.0007580007,-0.123371735,0.03386691,-0.10316257,0.012902127,-0.10560591,-0.012888171,-0.048435967,-0.07462741,-0.10881335,0.016726682,-0.047058918,0.010932666,0.11362509,0.09438841,-0.046911787,-0.015733046,0.12474412,-0.06766691,0.11819901,0.009188965,0.08204369,0.25616136,0.08069627,-0.0807263,0.19955343,-0.015049681,0.050251566,0.056023534,0.027249007,-0.26342157,0.01922757,0.021778971,0.025907656,0.0030278733,0.0383948
-0.21940205,0.1517896,0.029384268,0.04922305,-0.1684803,0.18348122,-0.1561939,-0.041354135,0.12969305,0.2542168,-0.07768046,0.18774527,-0.25859174,-0.05714605,0.02964841,-0.2012842,-0.070949376,0.09937219,-0.05413525,0.018484622,0.077641055,-0.39528787,-0.08470508,-0.13648362,0.100982964,0.06334823,-0.0666928,-0.003248301,0.13395867,-0.19624197,-0.05559975,0.12386935,0.33902764,0.019396408,-0.15698607,-0.19815496,0.19721279,0.24507551,-0.17077093,0.037740853,0.0943708,0.33461344,-0.06886602,0.029105013,0.058135554,0.010402956,0.13634732,0.15026654,0.1270876,0.01421589,-0.09748808,-0.13370413,-0.23556182,-0.022397995,-0.047977734,-0.07085985,0.08838234,0.18990275,0.0031630234,-0.26215646,0.027966874,-0.00927392,-0.11609963,0.091229856,-0.09835237,-0.039960813,-0.015642326,-0.018899985,0.3279087,0.0009788633,0.11688304,0.18234451,-0.057331704,-0.18397932,0.0786751,0.018702852,-0.1988184,-0.016486656,0.047983,-0.25869545,-0.046877094,0.19211099,0.026601177,0.017642122,0.020467887,0.06692116,-0.08460574,0.011262982,-0.025624128,0.062739536,-0.35366598,-0.03232825,0.04123514,-0.2018762,-0.018881438,0.026373522,-0.027885828,-0.06930534,-0.13143478,0.2145508,-0.36575612,-0.2504913,0.22406723,0.04317694,-0.12266602,0.06595432,-0.070837736,0.004434951,-0.29847017,-0.036381625,-0.0024852594,-0.4661643,0.33616832,-0.15471216,-0.0108445035,0.029637251,-0.04322273,-0.075672366,0.5191269,0.10024137,0.028536009,0.044242762,-0.026822662,-0.32209462,-0.15059261,-0.26621985,-0.18070757,-0.2491153,0.09367359,0.050237264,0.07914178,0.0038677452,0.013390638,0.058481887,-0.367372,-0.18407516,0.088937715,-0.07040677,0.041177135,-0.023370458,0.09479772,-0.011686573,-0.15283872,-0.11988798,-0.04298111,0.0013867025,-0.1672574,0.049855225,0.035464566,-0.17404358,-0.0062896167,0.1835278,0.09333413,0.22593592,0.3548193,-0.12219141,-0.020979816,-0.17882566,0.096974775,-0.0018018316,0.39342102,-0.19416799,0.22250034,-0.15461421,0.059184805,0.09588085,-0.05726943,-0.10624355,0.036807023,-0.0715671,0.046445176,-0.28160506,0.02493918,0.024321692,0.033984195,-0.035428915,-0.06927271,0.04654265,0.16480418,-0.2700251,-0.030876523,-0.029165616,0.01721317,0.2874436,0.02011618,-0.059319124,0.11940179,0.019938575,0.29900217,-0.18209527,-0.12585686,-0.0052734273,0.06141672,0.15283081,0.12598006,-0.059975415,0.00365277,0.033987544,0.18648036,-0.0034407494,0.16340801,0.043873407,0.29789263,-0.2469129,0.010726617,-0.048198767,-0.0051588486,0.29647842,-0.02118462,0.0066230847,-0.1607743,0.2908826,-0.088016726,-0.3037249,-0.3115544,-0.05620447,0.28576562,0.26749298,-0.039395384,0.043882653,0.028471628,-0.24722576,0.019036787,-0.16213635,-0.11952357,-0.2041784,0.12359854,-0.3520362,-0.43691668,-0.12029411,-0.33480728,0.13503252,-0.015856504,0.24166314,-0.004970359,0.27453613,-0.055080123,0.0907846,0.1969581,-0.23739703,0.009077183,-0.000725433,-0.21320021,0.15673822,0.08301608,0.0047250804,-0.0026397668,0.14205432,-0.02896234,0.070537336
-0.042098273,0.14913066,-0.014154983,-0.18003432,0.22578931,0.15064326,-0.28019017,0.2998573,-0.1472927,-0.16767098,-0.41271994,0.03049885,0.108923264,0.02937038,-0.03988578,0.17199504,-0.006665737,-0.053336777,-0.039034277,-0.010527958,0.023440123,-0.1153575,-0.18094994,-0.07068125,-0.13969004,-0.055141192,-0.03752663,-0.3182638,0.034432437,-0.058230825,0.008897155,0.009753929,-0.13547571,0.05889588,0.2334112,-0.37917268,-0.13271125,-0.22821748,-0.24820548,-0.045780353,0.18607138,0.15810868,0.049952634,0.21374813,-0.32611346,-0.20354897,0.24319051,0.1612976,0.017263357,0.0094001405,-0.09098035,-0.07196765,0.30835605,-0.13582675,0.06476246,0.05535281,-0.0037189398,-0.29529554,-0.0047425684,0.32228056,-0.020380586,-0.10630305,-0.07158012,0.074931376,-0.10579322,0.16083768,-0.020943834,-0.30836144,-0.33970198,0.24433206,0.07933678,0.12842847,-0.14603162,-0.19856381,0.05261285,-0.10138295,-0.04031849,0.0013649199,0.027699506,0.3159891,0.21533126,-0.16636236,-0.049337048,-0.050530545,-0.058190808,0.112635784,-0.3935938,-0.000945952,0.076434016,-0.081712596,-0.18948479,0.07871065,-0.03319076,-0.28360486,0.06710501,0.25760427,0.06512605,0.03541485,-0.43210235,0.013576198,0.13678187,-0.07302659,0.3049641,0.012794093,0.06560504,-0.034997027,0.04886052,0.25900197,-0.30658934,0.059570834,0.010890393,-0.24163234,0.14292394,0.37802514,0.004939943,-0.32800153,-0.029433694,0.043191746,-0.15801491,0.047010645,-0.058700573,-0.006422176,0.02268636,0.0043727956,0.25244492,-0.07068128,-0.019258307,-0.18150133,0.18449982,-0.22798565,0.19515707,0.268782,0.072874926,-0.23564777,-0.23703621,-0.005663148,0.15737316,-0.030007794,-0.09771077,0.1554924,-0.15091513,-0.13349865,-0.28450143,0.32135242,0.046952724,0.019240147,0.20758165,-0.04852144,-0.23400441,0.018617975,0.03740674,-0.07380403,-0.12580785,-0.057194814,0.13948624,0.1581723,0.017908895,-0.10478145,0.015573565,-0.033720694,0.15723604,0.081971124,0.15998517,-0.2684794,0.18338665,0.13703665,-0.05696385,0.081286386,0.055790935,-0.10694245,-0.19514814,-0.04987054,0.3185679,-0.052116122,-0.058188368,-0.04501024,-0.11558254,0.043487675,0.15563366,0.15161453,0.06350056,-0.09014666,-0.080088146,-0.1927941,0.037251852,0.3140133,-0.14663112,-0.071702376,0.053702563,0.06951979,0.21632308,-0.0030982129,-0.21742095,0.058428757,0.06066091,-0.025686326,-0.007563087,-0.13338415,0.067611784,0.113981515,0.11871876,0.02948955,-0.021446183,-0.22528277,0.00024271916,-0.21970588,0.058703262,0.27707863,-0.16931297,-0.045725368,0.09757506,-0.06798061,-0.33988887,-0.11945724,0.18707386,0.08481021,0.18310882,-0.2938088,0.054177374,-0.35167143,-0.044092864,-0.23534472,0.019362865,-0.11644814,0.043023657,-0.15625326,-0.04273318,0.004338462,-0.3492027,-0.04497857,-0.1700644,0.025495613,0.120563544,-0.20716813,0.0065696277,0.23439452,-0.23389083,0.23266393,-0.20978573,-0.24406892,-0.015841926,0.0055292556,-0.14131185,-0.14942601,-0.24408458,0.07290499,0.010854319,0.07943754,-0.0075675948,0.0038794777
-0.16374879,0.07570642,-0.013157562,-0.017144348,-0.1510065,0.038125698,-0.28324974,0.0628604,-0.02436979,0.21404032,-0.015380405,0.08915381,-0.07970629,-0.0151478015,-0.015218538,0.21991871,0.066607565,0.025432179,-0.08625638,-0.0069900625,0.2967313,-0.22800381,-0.051608812,0.22376649,0.046904925,-0.015137106,0.059261553,-0.29400933,-0.008418926,0.100646764,0.0487747,-0.13388391,0.4469306,0.03772903,-0.032986492,-0.24438597,-0.12013499,-0.04584769,-0.105560884,-0.032592006,0.13075201,0.06605806,0.002857646,0.17076902,0.12044362,0.10162538,0.06342806,-0.17057657,-0.01911215,-0.0658705,-0.08966646,0.017885216,-0.0036777328,-0.09302659,0.038279116,-0.004607191,-0.015571343,0.08613024,0.018819468,0.23710397,-0.039938424,-0.070431046,0.07384034,0.20552275,0.025282783,0.13060954,0.05354227,-0.1725549,-0.0081332,-0.2402328,-0.07638256,0.16510741,0.21882208,0.026965069,-0.033746593,-0.07028029,0.11358915,0.04033341,0.017140286,0.041100558,-0.123387195,0.2649624,0.0012519382,0.026810503,0.008412552,-0.14920644,0.04242718,-0.017095026,0.00056457426,0.11527669,0.080607414,0.017215775,-0.04131748,-0.12072845,-0.02803615,0.062147245,0.029170284,-0.01488449,-0.06865657,0.14895928,-0.22541615,-0.089927755,0.06763317,-0.03343769,0.04271939,-0.08584802,-0.0023622187,-0.05518051,-0.22095162,-0.09245945,-0.058399238,0.01770739,0.038186114,0.03352994,0.044331454,-0.014924925,-0.010692242,0.005532342,-0.03376925,0.06142382,0.009732094,0.0004348304,-0.041755933,-0.04544287,-0.04852173,-0.2639239,-0.04266537,0.1686032,-0.038245145,0.40008315,-0.05189,0.021654096,0.047773227,0.016758794,-0.07527425,-0.029093426,0.06977781,-0.011990904,-0.044333085,0.05736669,-0.10403064,0.114116654,-0.12733756,0.103182666,0.04638545,0.19287907,-0.023135997,-0.032947842,0.14224124,-0.4598182,0.038843997,-0.077071555,-0.06562611,0.28827688,-0.053999934,-0.11104713,0.036323603,-0.101688564,0.252259,0.015338537,0.18044536,-0.1478144,0.1765137,-0.18225475,0.06981625,0.095700055,-0.028400268,0.14317861,0.056600355,0.038156003,0.026262708,0.088453315,-0.14048211,-0.04193751,-0.015068699,-0.03513038,-0.023143077,0.05406633,0.08053505,-0.21389028,0.0355189,0.09400469,0.025864081,-0.023238655,-0.106295384,-0.0069193966,0.20395061,-0.008106862,0.19401784,-0.03157244,0.021023234,0.0066166455,0.0581869,0.08101385,-0.022506002,-0.13738531,-0.044731267,0.036134634,0.17861596,0.07581503,-0.05830413,-0.0011336367,0.29492825,-0.04776166,0.028499272,-0.124886505,0.037601773,0.123158455,0.22547555,-0.0035407175,0.0535072,0.2829876,0.03575865,-0.0635757,-0.069693424,-0.23136991,-0.01666241,0.20242631,0.011043131,-0.16115345,-0.03490727,-0.15719335,-0.054433737,0.0054144515,-0.83619237,0.080735825,-0.15892223,0.03815215,-0.21436588,-0.005628459,-0.08908848,-0.014783329,0.22393261,0.27751124,0.020464217,-0.08057806,-0.19034155,0.1832751,0.25733972,-0.06359485,-0.049286082,0.034684807,-0.10085595,-0.26768112,-0.08883412,0.06751514,0.041763972,0.23252934,-0.0034297528,0.042027395
-0.19646356,0.09652349,-0.03059934,-0.01549229,0.08469635,-0.13755472,-0.09930582,0.21850622,-0.07202601,0.15503348,0.1531051,0.17059694,0.59764755,0.014400099,0.01833121,-0.15519099,-0.06735788,0.06703918,0.19080558,-0.023581045,0.21388735,-0.0053448114,0.062549844,0.13317353,0.09981621,-0.0015620493,0.018521782,-0.31727013,-0.1262474,0.01822522,0.053586524,0.16413003,0.070469044,-0.13552879,0.1315712,-0.010303679,-0.18718684,0.132498,0.17499983,-0.019477084,0.07233904,0.07723949,-0.013891374,0.2056578,-0.015944129,-0.18335716,0.22893323,-0.4581588,-0.063066304,-0.1009746,0.20011048,0.17296384,0.2899774,0.06850779,-0.0049134963,-0.013356852,0.035929475,0.051073715,-0.18404208,0.60853285,-0.022687303,-0.0011968951,0.2253473,0.008503516,-0.002574953,-0.03355827,0.0008547715,-0.2469648,0.12300306,0.22740266,0.018672133,0.2771637,-0.24741217,0.07973927,0.047501437,0.17906553,0.09389921,0.012868291,0.085039884,-0.0052628806,-0.19050826,-0.06208261,0.0027521732,0.0095205745,-0.014376246,0.0708438,-0.16136545,-0.012706465,0.0019937088,-0.12028612,-0.12318629,0.01958007,0.021641672,0.0857441,0.041498855,-0.004173453,-0.024863668,-0.0265465,-0.011114732,-0.048587367,0.047917813,0.046817794,0.22681566,0.0268567,0.16837573,-0.1314268,-0.016805295,0.09770555,-0.18175875,0.07537341,0.022140961,-0.2015635,0.045781754,-0.11243506,-0.017548366,0.020554015,0.03149621,-0.050676435,-0.07205243,-0.2990554,-0.014193176,0.044190858,0.037907004,0.0026082962,0.4174476,-0.16544549,-0.0662018,0.29718104,-0.09633537,-0.28785896,0.005147368,0.22880322,-0.024283985,0.27369463,-0.0004706867,-0.07882886,0.21834588,-0.12428627,0.33074293,-0.2998063,0.009436231,-0.38197893,0.20062636,0.34803528,0.0009171146,0.10573345,-0.40886337,-0.010179681,-0.005526974,0.08635064,0.0020255167,-0.025697513,0.06296501,-0.078184806,0.17401296,-0.24246646,-0.049003184,-0.04085972,0.30171794,-0.029887803,0.16208814,-0.058851488,-0.06667781,0.034455393,0.0037678978,-0.3020405,-0.25741458,0.0036426838,0.14498256,0.08463246,-0.23299564,-0.18482585,-0.024253469,0.010431741,0.015207464,-0.023238614,0.10747457,0.0074294587,0.032877613,0.072246805,0.014868053,-0.15757449,-0.07287491,0.01011589,0.15087889,-0.39191812,-0.340673,-0.011752652,-0.14783339,-0.075179785,0.075427495,-0.017444944,-0.1616311,-0.045088805,-0.09312863,-0.29217932,-0.006077468,-0.19537881,-0.07474384,0.124510616,-0.20594347,0.011738751,0.28631014,0.22308354,0.03238571,-0.30684155,-0.0132850185,0.21490577,-0.03249556,0.011140215,-0.08416371,0.013730375,-0.35876548,-0.094649546,-0.059431344,-0.08858299,-0.022042004,-0.5222292,0.0021678512,0.31393027,0.13387641,-0.08574484,0.008859741,-0.049559586,-0.03595803,0.15505901,-0.042648733,0.07332997,-0.19874021,-0.086677134,0.13024394,-0.0012617514,-0.03355259,-0.04756134,0.077673405,-0.123001546,-0.07574853,0.01416553,0.044037838,0.28568453,0.008520388,0.016230725,-0.004698368,0.11777066,-0.00671669,0.24591309,0.01222411,0.005021599,-0.018127806,-0.055899203
0.1548763,-0.19824989,0.04661919,0.026394052,0.17840375,0.013567441,-0.09565454,0.16934595,0.1483388,-0.28570968,-0.21628757,-0.16879913,-0.06902286,-0.056869067,0.022181466,0.10984152,0.40700433,0.018354226,0.036332615,0.037981406,0.21642803,0.11085717,-0.06999616,0.17999755,-0.15132162,-0.091542564,-0.07089433,-0.1357884,0.07591705,0.5561825,-0.067566924,-0.042954374,-0.09503179,0.009441421,-0.16093865,0.1586604,-0.0607578,-0.024019422,-0.24367523,-0.020703811,-0.13250788,-0.12588812,0.044148847,0.316443,0.24131,-0.13785957,-0.24333706,-0.25988165,-0.04399913,0.07766373,0.016147494,0.19305544,0.13509385,0.04760686,-0.012965232,0.02445783,-0.12259538,0.17589206,0.18905358,-0.013328054,-0.0318772,-0.27071637,0.07093081,0.03931496,0.037725717,-0.3333929,0.014080928,0.24704811,-0.12664443,-0.06591296,0.25150788,0.39089522,0.38647926,0.12166358,-0.15850739,-0.049861137,-0.17254944,0.047425475,0.043868445,0.016225683,-0.015244562,0.3038098,-0.009154753,0.0019021424,-0.015198067,-0.20419428,-0.21498738,0.027084908,0.021422775,0.34777316,0.36621958,-0.011188189,0.0059383004,0.009907651,-0.007887391,0.18610953,0.014659122,0.050818242,-0.12108179,0.019779764,0.068252586,-0.0072485353,-0.045948416,-0.04021472,0.033876203,0.00030093803,0.022976339,-0.1402207,-0.050662372,-0.25778496,-0.030293506,-0.08332792,0.09173993,-0.1082681,0.037534233,-0.3426446,0.028523901,-0.00067312375,-0.23061587,-0.1597324,0.0014779193,0.02919699,0.010345619,-0.10117912,-0.111911334,0.1484323,-0.049344964,0.2789274,0.24863902,0.44757542,0.2644004,-0.21103059,0.051170137,0.2087457,0.13352244,-0.32165086,-0.1751417,0.028064026,-0.4035542,-0.1868888,0.054882053,-0.059747107,-0.16905838,0.2654352,-0.018716017,-0.14460783,-0.32073575,0.0013127839,-0.2620351,0.46033186,-0.0044704042,0.1687234,-0.43986505,0.23245679,-0.29640383,0.26751727,0.0016003071,0.11212651,0.27595833,0.04525125,-0.2927184,0.070508525,-0.3453796,0.11215666,0.25174797,0.034218077,0.08145753,0.1594452,-0.09761823,0.0016163567,-0.02891716,-0.15327376,0.03077447,0.009624665,-0.008472387,-0.2116406,-0.19511202,0.16199741,-0.027833529,0.44414186,0.0070178136,0.46643433,0.286199,-0.4846072,-0.2856692,-0.10991937,0.14754428,-0.015407525,-0.08489088,0.028785767,0.017060641,0.040774107,-0.27653053,-0.017928882,-0.17524782,-0.24947152,0.014484657,-0.03263637,0.15297806,0.10790152,-0.01742574,0.0057793055,-0.047274556,0.15537149,-0.05820956,0.11889544,-0.08635601,0.09167012,-0.029694572,0.24399479,0.24173108,-0.16480389,-0.23181367,-0.050071415,0.16818513,0.04610158,0.024328282,0.18414576,0.050037384,-0.3005857,0.30707768,0.07588027,-0.018702272,0.0328863,-0.13275732,0.2555108,-0.51500463,-0.09985922,0.053165395,0.105885446,-0.029855931,-0.12874268,0.0299028,-0.069430344,-0.03341397,-0.016459031,-0.09308016,0.025630673,0.011790943,-0.7142942,0.012233994,-0.006613325,-0.23361109,-0.36581892,0.23053707,0.21049666,-0.015138814,0.2803608,-0.019407958,-0.010398045
-0.23141216,0.11871693,-0.011756681,0.10015487,-0.13513224,-0.039197985,-0.1487377,0.14724311,-0.094909176,0.17542654,-0.031254094,-0.046164144,-0.11630165,0.012696173,-0.012683937,0.05132077,0.09516303,0.00015841002,0.16574083,0.036505334,0.20273061,-0.09067706,-0.42488658,0.031075744,0.0808416,-0.07172358,-0.021862544,-0.136379,0.086675666,-0.02768063,0.065801576,0.04593298,0.23042856,-0.011385452,-0.28042966,-0.10172919,0.18122563,-0.01577251,-0.41797057,0.03898884,0.07113495,0.13613458,-0.03701674,0.2311774,-0.18290615,0.043372154,0.021592522,0.18548743,0.012991712,0.10558596,-0.027166339,0.117895596,0.15156348,-0.0491735,-0.04460605,-0.039858177,0.20768592,0.033769775,0.19151704,0.1484414,-0.036332887,-0.22355805,0.056107875,-0.26774442,-0.05744996,0.15044804,-0.023767315,0.13944323,0.1223657,-0.00019050688,0.1999517,0.01089165,0.21963455,-0.038943842,-0.13827574,-0.20776588,-0.1433134,-0.039888952,0.1043389,0.026774667,-0.20657408,-0.0005525532,0.03180572,0.024790363,0.023258442,-0.29107198,-0.10405347,-0.00262735,-0.04095637,0.1111762,0.038382035,-0.027730148,0.01333233,-0.12436458,-0.018475506,-0.0077108108,-0.034615938,-0.023559969,-0.13532446,0.24985325,-0.07890781,-0.15661743,0.10178073,0.0061858767,-0.3091161,-0.09442364,-0.025112502,0.047188662,-0.09134691,-0.061339106,0.011605859,-0.18988109,0.20613262,0.076208994,-0.024362287,-0.07326516,0.043815173,-0.010041961,-0.07492209,0.14664261,0.032129712,-0.013579735,0.010312144,-0.33951625,-0.21950263,0.2898885,0.0064560184,0.16518834,-0.025079012,-0.15345249,0.15576929,0.10709704,0.059614293,-0.017719198,-0.19912961,-0.27346644,0.14746092,-0.020159017,-0.022690728,-0.19002053,0.16321597,-0.27718115,0.0008968704,0.0059897094,-0.0450523,-0.251837,-0.21182601,0.04454609,-0.20274703,-0.35349292,-0.025526438,0.051761344,-0.297839,0.08624601,0.108960256,-0.0037015157,-0.025446663,-0.00479344,0.0914089,0.019066166,0.041832995,0.004276525,0.032846067,-0.1265616,0.1740676,-0.15508458,-0.12536314,0.24067499,0.15947211,0.14099365,-0.0022304263,-0.023118151,0.22245653,0.04047118,0.044332925,-0.052826673,-0.055630744,-0.1528968,-0.042175222,0.057990514,-0.047966763,-0.0009605101,-0.23571357,-0.06281026,-0.014156652,0.30048296,0.0845598,0.035484493,-0.09658588,-0.10227946,-0.05716679,0.00671837,0.2588103,0.0692981,-0.22643636,0.17308421,0.02573628,-0.14407003,0.19264495,-0.18465085,-0.022523947,0.08837261,0.027150448,-0.060531564,0.014712948,-0.2521476,-0.010623714,0.2257474,-0.25550264,-0.12880744,0.11205333,0.09212008,-0.1882547,-0.25492358,-0.013407506,0.1052008,-0.018104961,-0.37476742,-0.04762392,-0.3575929,0.06527838,-0.14084782,0.019459685,0.097576804,0.028597074,-0.058048073,-0.22834761,0.024502138,-0.41117698,-0.27434105,-0.35932824,-0.004905989,-0.023606729,0.1724802,0.025966696,0.25217354,0.16042285,-0.18105572,-0.16721512,-0.2305595,0.028073136,-0.007983038,-0.080281615,-0.2640633,-0.03887316,0.15208298,-0.026109729,-0.03411788,-0.06498714,-0.018056968
-0.0062622908,0.035029843,-0.024819998,0.055700626,-0.0697406,0.10342743,-0.24468891,0.26242816,0.08972767,0.07334073,0.058883704,-0.05944243,-0.014605611,-0.008355175,-0.0029856805,-0.08670939,-0.049425293,0.0077207023,0.14720312,0.025961945,-0.021465233,-0.12829621,0.024206156,0.26620695,-0.0063237986,0.06812794,-0.07227293,-0.15761209,0.08937307,0.13633479,-0.036729462,-0.07717575,0.120758414,-0.00496222,0.26825073,-0.21633624,0.1071596,0.094453335,-0.10375397,0.02605408,0.058780458,-0.035926357,-0.04824263,0.055727545,0.2612848,-0.099197075,-0.045912173,-0.13666235,0.009403201,0.049239516,-0.0051458087,-0.015325316,-0.036613155,0.031211436,-0.023083115,-0.035743073,0.026992975,0.07200672,0.034872074,0.19565202,-0.037268702,0.016803956,-0.21561284,-0.057695314,-0.023547374,-0.13036513,-0.034545947,-0.015868546,0.2602347,-0.06654472,0.052597344,0.123638324,-0.20901272,0.072898306,0.08468553,-0.103686094,0.025905637,-0.03493896,0.06282397,-0.083965704,0.116983496,0.078308076,-0.005451264,-0.0039481088,-0.016617218,-0.031931687,0.024993638,-0.0004348725,-0.03913693,0.030226082,-0.10280502,-0.007709357,0.025995197,-0.025993466,0.008287774,0.21662566,-0.011782941,-0.042033285,0.14892818,0.114271045,-0.25494713,-0.07751967,-0.0642215,0.050844304,0.055871766,-0.034031987,-0.03338705,-0.19123955,-0.23529285,0.05418023,0.03794729,-0.08716989,0.08410024,-0.053346794,-0.018259255,-0.071741834,-0.011102969,-0.051069967,-0.06981279,-0.0605189,-0.0077212206,0.0054993797,-0.011731289,-0.028168205,-0.020071808,-0.2390856,-0.006355132,0.04938811,0.057231326,-0.01711164,-0.08048849,-0.0070064995,0.053909943,-0.04622577,-0.38155138,-0.14017576,0.05786126,0.015526438,-0.09406406,-0.17201215,-0.0881637,0.04732075,-0.058012795,0.16600214,-0.01852159,0.21210322,-0.24122481,0.015840538,0.30731887,-0.028094146,-0.003891587,0.024677802,-0.03842221,0.27267072,-0.11197774,-0.036120366,-0.0054469127,0.018382054,0.17434481,-0.025227316,0.19025743,0.12878406,0.30559516,-0.1280243,-0.05448744,-0.12823145,0.10247113,0.13126324,0.023137277,-0.0019040059,0.010411681,-0.047990985,-0.19750303,0.008448978,0.00022445872,-0.0015284005,-0.13013867,0.024102021,0.046247352,-0.1735507,-0.023237543,-0.035185732,-0.04012156,-0.06191219,-0.15288663,-0.23249565,-0.0011852451,0.0115932105,-0.016978143,0.0057298806,0.19814171,-0.042298544,-0.01965883,-0.024273045,0.01991231,-0.06368692,0.008562818,0.14112163,0.26598915,-0.09429379,-0.03401412,0.06826659,0.10559673,-0.13915737,0.040003728,-0.27065468,0.02945631,0.025632905,-0.18223949,0.19865358,-0.0118178865,0.21740922,-0.14738521,-0.090917334,0.025985798,-0.3047807,0.061903574,-0.08714081,-0.03693366,0.1120178,-0.08948485,-0.16913944,0.042227134,0.088840924,-0.095160104,0.073107384,-0.28096035,-0.01940481,-0.12346272,0.01603885,-0.10379113,0.09662185,-0.22770639,0.20932278,-0.012535377,0.06730014,-0.11456037,0.057645828,0.24744871,-0.013849034,-0.0055340827,-0.032123897,-0.111949354,-0.04379335,-0.19602762,-0.06313635,-0.004267136,0.14911485,-0.0067631784,-0.027144633
0.1097605,0.08118251,0.0411838,0.15650168,-0.08930902,0.13315599,-0.047470972,-0.0030364804,0.19842188,-0.17557259,0.20934433,0.09610836,0.17888334,-0.030905867,-0.029391771,-0.1436061,0.13248092,-0.04529758,0.087408304,-0.016722782,-0.086215034,-0.13097005,-0.078407645,-0.182678,0.14170413,0.010772372,0.26505283,0.22275852,-0.113518514,0.28387836,-0.08099069,0.05330728,-0.1107384,-0.014451871,-0.26246813,-0.12819695,-0.20182334,0.22858481,0.085374355,0.0088704275,0.23174956,0.1538162,-0.019627342,-0.031978942,0.26560837,-0.031911254,-0.06742165,-0.23865905,0.02860408,0.047241636,0.054890953,-0.10331412,0.16391933,-0.037000038,-0.007409216,-0.008698813,0.1402367,0.3294035,-0.036454573,-0.084642306,0.024635926,-0.10781446,-0.2842768,-0.10408668,0.010683336,-0.17253412,0.058055192,0.003926958,0.46508834,-0.042306192,0.13459505,0.062581986,-0.20908418,0.049320675,-0.14279947,-0.16526887,-0.3166979,0.0074252924,-0.011422009,0.0023651747,-0.03333957,6.7397224e-05,0.040188022,0.03578368,0.0680549,-0.020146241,-0.15868765,-0.0252672,-0.035459455,0.051023792,0.0130246505,-0.023009969,-0.029544163,-0.14378785,-0.084425256,-0.010270944,-0.010249159,-0.01504523,0.07136091,0.024732651,0.113645345,-0.09875954,0.14988591,1.2243894e-05,-0.060069013,-0.019927282,-0.012185058,-0.07358741,-0.083040446,-0.17618008,-0.038693454,-0.45645544,0.13422215,-0.0242906,0.019896936,-0.06032393,0.040967334,0.0464712,0.163593,-0.09082274,0.051221617,-0.027286759,-0.048150368,-0.1310121,-0.27884197,0.21102457,-0.01344154,-0.110685356,0.38081545,0.039146814,-0.42827556,-0.11983041,-0.026405497,0.28254923,-0.03895254,-0.17168827,0.13031426,-0.028151635,-0.05048686,-0.11723522,0.18349728,0.14189169,0.22534057,0.06447337,0.0026212386,0.052545983,-0.17935029,0.009159932,-0.4854037,0.16760728,-0.022789517,0.2662608,0.09185108,0.07598506,-0.11905575,-0.17842652,0.026885925,0.10963184,-0.037810728,0.022211825,0.06009718,0.07745931,0.0988718,-0.08941518,-0.12753096,-0.2594013,-0.02779153,-0.16103338,-0.028332066,0.062452786,0.37767002,-0.07086981,-0.07869462,0.0029944857,0.014778067,0.10570777,-0.17396209,-0.008580122,0.16804321,0.05728229,-0.01321234,0.19572446,0.2321885,0.311404,-0.023120793,0.024834868,-0.116659135,0.059558194,-0.1093968,0.0004335817,0.0036804697,0.040354997,0.07847811,0.056003336,-0.10360979,-0.14528818,-0.017747523,0.10166744,0.08996752,0.01978805,0.10841298,0.02097092,0.05404961,-0.20503174,0.008204246,-0.07797859,0.10789053,-0.09439958,0.23738219,0.22953662,0.06449615,-0.011270355,-0.27200672,-0.16564031,-0.121981345,0.17014305,0.16999069,0.023689998,-0.039390262,0.11816468,-0.026370235,-0.29622987,-0.072511874,-0.1142884,0.11932592,-0.07868262,0.15902738,-0.068072766,0.0013541926,-0.26166385,-0.2441068,0.006370563,0.027939897,0.119614854,0.012277983,0.092214,-0.021095531,0.086343706,0.03899588,-0.24384618,-0.013726106,0.03953533,-0.054931436,0.1635369,-0.027727496,0.35648918,0.016313469,0.042755373,-0.0031804694,0.046175625
-0.083595686,0.055375922,-0.011865553,-0.0099853035,-0.016261365,0.10903953,-0.35607404,-0.11356673,-0.04227335,-0.0015044073,0.13715005,0.055038728,0.029837392,0.05792146,-0.058272783,0.015199642,0.05744879,-0.017653888,-0.18106647,-0.0052207382,0.036837775,-0.13804258,-0.008934833,0.06462597,0.027950183,-0.05170054,-0.025378691,0.034138076,0.17975761,-0.09571283,0.025784502,0.10443088,-0.023821479,0.034175966,-0.09495006,-0.18240203,-0.0404686,0.10287708,-0.003325945,-0.038246233,-0.0767559,0.018803699,-0.028978894,0.103543356,0.0029578716,0.12961756,-0.05252735,0.21685885,0.1680985,-0.028796095,-0.044687975,-0.07872271,-0.020622242,-0.087989986,0.07180173,0.006262044,-0.015840089,0.1459331,0.006479942,-0.035448074,-0.010056035,-0.08047851,0.074012466,0.19641729,-0.024788516,-0.016875146,0.069750994,-0.16697355,0.16233985,0.048321307,0.13963272,0.13872507,-0.01679867,0.13715056,-0.039409764,0.08663413,0.023306988,0.024454713,0.013908913,0.07724802,-0.21308847,0.040118575,0.038154114,0.044174142,-0.048641358,0.028013412,-0.26437303,-0.010328472,-0.0059857033,-0.046049118,-0.0075597577,0.06753352,-0.07199087,-0.21064006,-0.001294728,0.15882282,0.028568445,-0.035365306,-0.0014015133,0.10793659,-0.21701936,-0.17472263,0.03821904,0.019975038,-0.07262346,-0.12382715,-0.029138474,-0.08655105,-0.13615777,0.018718168,-0.055860057,-0.06007101,0.053306516,-0.18132538,0.018093295,-0.1812004,-0.06430515,0.007034212,0.08736486,-0.12877026,0.028078297,0.0026611662,-0.029643442,-0.098837316,0.008396389,0.17297556,0.015110277,0.20146847,-0.066803,-0.07658325,0.037766807,0.15347731,0.013057399,0.09166127,-0.27356112,0.019159742,0.033317916,-0.00414557,-0.080745846,0.08527357,0.04320642,-0.2907367,-0.21175173,0.03797229,0.067682765,-0.15710732,-0.14567639,-0.0406476,-0.12136154,-0.062586814,0.08089067,-0.028813193,-0.01851998,-0.053801615,0.2565379,-0.08279342,0.045013946,-0.03208035,0.1931252,-0.013485694,0.18244572,-0.203035,0.1851383,-0.052780397,0.18432474,-0.169794,-0.14359294,0.033757526,0.04960318,-0.025260134,-0.035069324,-0.19484046,0.28840336,-0.09191997,0.0018448551,0.043460123,0.061930515,0.014097054,-0.020648794,0.05225685,0.051291827,-0.00551127,-0.12123037,-0.0018955164,0.18182008,-0.03002003,0.051766217,-0.027031831,-0.1236837,-0.027773207,-0.029827325,0.027298814,0.081143886,0.07344033,0.06028393,-0.07680128,-0.070066385,0.005794205,0.13461389,0.051093694,0.007944129,-0.023880398,0.02770314,-0.044630688,0.043977413,-0.26542443,0.08211649,0.05463282,-0.0358144,-0.16631098,-0.089299336,-0.033548135,0.11393799,-0.020164756,-0.038642384,0.08767545,-0.03171395,-0.026009133,0.013657448,0.13807786,0.09981514,0.034281004,-0.06163112,-0.19562504,0.15534107,-0.033818245,-0.35266718,-0.24899533,-0.16161661,0.07187574,-0.0022164728,0.11877811,0.13713795,-0.012883401,0.023072615,0.1729669,0.16081685,0.11360905,-0.18547185,-0.019285748,-0.06758111,0.05254428,-0.11868897,-0.041232493,-0.06571945,0.0022248211,0.058741283,-0.009208708,0.014447362,0.03079444
0.115288585,0.06985181,0.018250812,0.03646281,0.052878156,0.08512005,-0.26624444,-0.15902957,-0.043672115,-0.10212364,0.018935543,-0.16890201,0.24154802,0.0201681,-0.07909618,0.10393409,-0.074298054,-0.016147025,-0.064173125,0.022024792,0.07515758,-0.02225346,0.00034106235,0.12555823,0.14987977,0.022480872,-0.090761855,0.04785977,0.12498735,-0.21222803,0.000957475,-0.0646581,0.24460396,-0.01177074,0.10926216,-0.22702888,0.046205204,0.13233627,0.05269038,-0.03877779,0.017223284,-0.007143245,0.0034386795,0.10740357,0.19046238,0.0003432818,-0.04197239,0.21587527,0.08109668,-0.0050368714,0.07594527,-0.01758269,0.12252674,-0.088095106,0.061205942,0.036998197,0.036089048,0.11258238,-0.06305045,0.06895875,-0.0026304258,0.023605121,-0.071737826,0.068300284,0.021460274,0.17204343,0.03106962,-0.13425896,0.049493767,-0.004253897,-0.07689014,0.25465718,-0.4035265,0.103412904,0.061969772,-0.12497096,-0.033424772,-0.013247929,0.020284146,0.03981151,-0.13259017,0.0020058241,0.03849528,0.021146422,-0.033275604,-0.022768976,-0.07786385,-0.03015409,0.014986502,0.020622699,-0.0700702,0.04796619,-0.056360744,-0.2023648,0.012932815,0.048550036,0.0139843365,0.006530174,0.10923783,0.1352713,-0.16157416,-0.22244166,0.1665531,-0.005819671,-0.01658007,-0.0351392,0.004568473,-0.04028378,-0.15271099,0.0031438489,-0.012603192,-0.07067316,-0.035400085,0.05712049,-0.013142477,-0.06535608,-0.03347297,0.041174144,-0.109751895,-0.08314806,0.022149282,-0.004952039,0.017654372,0.086378,0.1455602,-0.063758515,-0.00283681,0.035259694,0.2932938,-0.26893285,-0.1745074,-0.046866406,-0.010000912,0.1352172,-0.26771307,0.049928986,0.050237715,-0.009975861,0.11841262,-0.003498548,0.02598415,-0.34173957,-0.21391803,-0.0142936725,0.058378983,-0.046641737,-0.23136303,-0.043902714,-0.025322685,0.012129075,0.040008355,-0.021808384,-0.02367398,-0.0646634,0.19562723,0.1827031,0.02750256,-0.004458638,-0.07561506,-0.0063343295,0.1481942,-0.14881098,0.13471365,-0.15640156,0.29515064,-0.14619432,0.036149222,-0.057478312,0.0026016226,-0.035543676,0.03686031,-0.07319731,0.13844702,-0.05969829,0.013603555,-0.053695906,-0.10178006,-0.09765044,0.020894,-0.15865697,0.03801278,-0.048600968,-0.022403514,0.18749703,0.15856603,-0.030849993,0.04338746,-0.023563953,-0.051133,0.04067385,0.15935233,0.041515157,0.06656216,0.05973177,0.040485848,-0.0977742,-0.03843861,0.077319086,0.16946536,0.14583829,0.025796602,-0.007936383,0.018447377,-0.09069161,-0.0010190394,-0.26493403,0.14980142,-0.07860498,0.048897117,-0.033933803,0.07233673,0.16196413,0.12369218,-0.11149643,-0.04353648,-0.027797356,0.15210165,-0.10070349,0.01933079,0.14633521,-0.024957873,0.020289034,-0.022249099,-0.0797824,0.2939387,-0.17236976,-0.2686464,0.058339864,0.10831446,0.09320993,-0.09465772,0.017931532,-0.07191747,0.14655949,0.01056027,0.21069247,0.0736041,-0.13021101,-0.005081156,0.10681546,-0.01695558,0.029129526,-0.15143704,0.10007916,-0.32052517,0.056015518,0.034788676,-0.043129526,-0.007705275,0.03204815
0.1080964,0.026776366,0.009379718,-0.15184024,-0.24468414,-0.010878328,-0.26105016,-0.07826959,-0.25164318,-0.2640985,-0.22493806,0.033252116,0.115689546,-0.0006343543,0.018433694,0.22587726,0.10079523,-0.005494164,-0.16737077,-0.0019278775,0.020813007,-0.1614627,-0.13897672,0.16595261,0.08716044,-0.1609641,-0.15418507,-0.16731979,0.14406088,-0.24198925,-0.06137271,0.16794826,0.037062094,0.09966901,0.22892943,-0.3170751,0.11412512,0.035986137,-0.18682115,0.035093736,0.049868263,0.111915946,-0.04166999,0.09349439,-0.24807146,-0.0049938415,0.08242813,0.025972208,0.07300002,-0.0350041,-0.17700025,-0.052358817,-0.009480324,-0.14299774,-0.045722492,-0.019410472,0.050274033,0.06285324,0.027340055,0.090322405,-0.081684835,-0.20560141,-0.39649174,0.1289583,-0.10289717,0.114921525,-0.014136845,0.013301856,-0.09885876,0.045699865,0.1079233,0.12830867,-0.2410687,-0.12067543,-0.042489342,-0.15207075,-0.16241656,-0.015876265,0.06486159,0.07395155,0.065429434,-0.06613795,0.021490747,0.011436647,0.020303681,0.09966374,-0.17413473,-0.028826756,-0.0386998,-0.038565822,0.0668878,-0.060163166,0.0045506214,-0.34390742,-0.06050157,0.27417675,0.0036462185,-0.018072927,-0.006836159,0.21601328,-0.040533986,0.04714877,0.054379743,0.076055296,0.26595435,0.2446274,-0.03856607,0.021438474,-0.35231003,-0.018938549,0.008546197,-0.078815304,0.25889522,0.12943983,0.012328644,-0.26779118,0.047907427,-0.02999107,-0.03287862,-0.21280266,0.044579137,-0.024802074,-0.048650358,0.06387047,-0.23345496,-0.1924773,-0.033831272,0.1328874,0.06750228,-0.013123272,0.008035221,0.16460553,0.04709223,0.023905141,-0.1907082,-0.10923055,0.13418718,0.019076692,-0.14300667,0.009622843,-0.041729316,-0.42803892,-0.22460453,0.18650442,-0.057062123,-0.036371246,0.2276924,0.05207889,-0.09591354,-0.0067411033,-0.03171006,0.09718415,-0.021730889,-0.028709361,-0.038685672,0.2923919,0.004137342,0.08459182,-0.12354085,-0.0027067317,-0.020210661,0.052518036,0.21480148,-0.19571961,-0.10153343,0.103052154,0.03739059,0.20503344,0.013627552,-0.052298058,0.09629695,-0.315551,0.074770026,0.028319655,0.0218732,-0.051017947,-0.18140964,-0.004616326,0.19527562,0.21415725,-0.033578444,-0.04484793,0.15947138,-0.022763163,0.032720514,0.23223925,0.058321215,0.066023655,0.20631327,0.08371745,0.19143929,0.044302195,-0.008832925,0.0314387,-0.033210184,-0.048715148,0.022316104,-0.08115104,-0.12804909,-0.0037228444,0.06377337,0.070347905,-0.07563124,-0.15731546,-0.008407238,-0.14213513,-0.01587157,0.2128935,-0.017580131,-0.14660653,0.14556165,-0.054985035,-0.2465609,-0.21200727,0.17524843,-0.025070988,0.18068975,0.040322043,-0.041535515,-0.36137477,-0.0057675363,-0.17576674,0.025379967,-0.04874801,0.06262379,-0.07401662,0.0983499,0.18922482,0.13080697,-0.03845149,-0.2789396,0.065875515,0.32019868,-0.20883445,-0.017726297,0.14206895,-0.25350335,0.20198286,-0.041388836,-0.22342318,0.0070921783,-0.015016456,-0.119988695,-0.22133456,-0.14464636,0.025873682,-0.027982555,0.3627673,-0.034298513,-0.046529595
0.052365914,0.072295986,-0.00038485986,0.027120654,-0.2229417,0.16311954,-0.33923241,0.13648039,0.04345103,0.023851197,0.005729752,-0.042876184,0.09713356,-0.032143336,0.019756183,-0.15950498,-0.0031588739,0.011990431,0.043942533,0.02405487,0.08893575,-0.2787777,0.08694713,0.106072664,-0.0673633,-0.041568063,0.09633814,0.07609511,0.07227306,-0.026031278,0.049480762,0.019383298,0.24948083,-0.0026657756,0.0603888,-0.2333982,-0.108531445,0.097612165,-0.025998037,0.0072430046,0.04402783,0.0022906878,-0.006947114,-0.13207763,0.15766527,-0.028615074,0.035072137,-0.30227357,0.02234086,0.055309903,-0.0030821806,-0.04134779,0.14110391,0.01544587,-0.006720845,0.013720404,-0.05947956,0.18697855,0.037696216,0.15736869,0.0116411075,-0.096179314,-0.31563964,-0.16664971,-0.053568035,-0.078144446,-0.036315028,-0.16183436,-0.06413619,0.042076156,-0.10115109,0.07955567,0.029066542,0.02880089,0.018902326,-0.042772144,0.01801687,-0.03203563,-0.038482282,-0.024222454,-0.122674234,0.043201007,-0.00030671043,-0.02149012,-0.019385656,-0.08916809,-0.09456314,-0.013099342,0.008183645,0.076856,0.13205206,-0.004601009,0.017718475,0.072222635,0.028293125,-0.010764239,-0.0014445449,0.015300998,-0.09301869,0.0019671675,-0.21354875,-0.08581742,0.14209387,0.0041731116,-0.025611904,-0.052722283,0.004870498,-0.09813584,-0.28148687,-0.027416674,0.03584529,-0.15515171,0.035848796,0.1931268,-0.027460784,-0.078811936,0.017437324,-0.008367122,0.0074375016,-0.15603997,-0.009276589,-0.018689582,0.035042323,-0.06826099,-0.20608914,0.012234494,-0.009202071,-0.14719439,0.0533885,-0.18724866,-0.15366966,-0.1107081,0.022673713,0.11019169,-0.30866462,-0.034259338,0.052982002,0.03046314,-0.043619245,-0.011490738,-0.10378718,0.14475611,0.059900142,0.34861284,-0.014194512,0.21185668,-0.012391785,0.0071327295,-0.05090231,-0.12375416,-0.0041109677,0.0059508896,0.0527994,0.0376072,-0.19689912,-0.04387315,-0.03078166,-0.0048460932,-0.015813038,-0.02588836,0.029736921,0.07864194,0.35453886,-0.18016067,-0.2603262,-0.23151949,-0.025534758,0.0044174157,-0.052222673,0.03955296,0.10041257,0.03924273,-0.13092221,0.009559947,0.0081414245,0.074763745,0.091451645,0.024674041,0.11350604,-0.23854733,-0.0046578585,0.13253684,0.02836707,0.10816321,-0.08671876,-0.06571681,-0.06711246,-0.0034171164,0.118160374,-0.00739616,0.06533073,-0.016075578,-0.061644316,-0.053140257,-0.013400787,-0.12493581,0.02379498,0.1744928,0.0020091452,-0.005243322,-0.056538064,0.0030189825,0.11633043,-0.1998812,-0.018579697,-0.23959626,0.06154124,-0.111086026,0.13987666,0.2022047,0.024600875,0.11289938,-0.06968002,-0.019451996,0.016521053,-0.07324778,-0.016528308,-0.1457029,-0.011271882,-0.05926176,-0.031886976,-0.3504534,0.042737767,-0.08550784,-0.058763396,0.0029749684,0.18864083,0.005819836,-0.049528077,-0.15894395,-0.0684096,0.058257677,-0.15168968,0.05958774,-0.026228895,0.09630891,0.07063838,0.11150982,0.0997148,0.04411234,0.022403423,-0.024665756,-0.079383016,0.06825152,-0.2767202,0.17063175,-0.026028182,-0.06267287,-0.01763313,0.0061545293
0.22739917,0.14977941,0.013063974,0.008064958,0.25534716,0.15128462,0.061428484,0.041567944,-0.10673687,-0.1306202,-0.09181532,0.012234231,-0.056064546,-0.07747712,0.019303018,0.27314842,0.12206453,0.04866418,-0.23254235,0.037043463,-0.13507637,0.009351257,0.010337923,0.1875429,0.02867364,-0.071924105,0.20801866,-0.24084044,-0.115177654,0.11636735,-0.08335136,-0.12672848,-0.067977004,0.087693036,0.07605431,-0.15235732,-0.06240258,0.16410781,0.042753834,0.0155496355,0.43261197,0.06676742,0.015251354,0.0593434,0.13250428,0.2529872,-0.14111514,0.06660233,-0.036734816,0.001003655,-0.25225523,-0.11172126,0.067157485,-0.21104279,-0.033358328,0.04719647,-0.039175816,0.031554442,-0.06617197,-0.05213564,0.0007541971,0.025689451,-0.13359226,0.3265686,-0.029952021,0.0021073078,-0.047684375,-0.17396459,-0.023950111,-0.16146353,0.02842972,0.05764915,-0.37432832,0.043445136,0.02087728,-0.27156493,-0.053289708,-0.01390901,-0.010238697,0.181604,0.074933894,-0.09905571,-0.038227614,-0.056461323,-0.016278382,0.03145853,-0.03444943,0.029455908,0.041049935,-0.0073698643,0.1487894,-0.004099747,0.052399185,-0.37759063,0.03885525,0.24273485,0.002649776,0.038634483,0.05449043,-0.025252074,0.061216533,-0.010823971,-0.09602753,-0.016019871,0.2935519,-0.09194965,0.019372772,-0.08367697,0.033902843,-0.04650377,0.04981958,0.08328996,-0.0379257,0.2780892,-0.02557744,-0.17972894,0.03768319,-0.012029586,-0.15408361,-0.15086465,-0.029422766,0.025064465,0.046451762,0.07395164,-0.006626466,-0.23547319,-0.040501162,-0.015244709,0.1703618,0.3914787,-0.549729,-0.108298436,0.033843424,-0.055319294,0.21799418,-0.15670295,-0.03303364,0.03814059,-0.33022538,0.114229456,-0.0949583,0.1934675,-0.13126034,0.26050416,-0.034273993,0.026112964,0.16878483,0.02387047,0.13672785,-0.02862464,-0.044748593,0.0291959,0.13868578,0.18134885,-0.22973579,-0.0879334,-0.032559138,0.20556907,-0.14988111,-0.03533618,0.12285653,-0.025288617,0.03227768,-0.14524202,-0.035090506,-0.17904875,0.023811625,0.1389362,-0.028835258,-0.014730587,0.25255173,-0.13018836,-0.062588125,0.04059929,-0.011157422,0.00042204204,-0.112703,0.06266475,0.14976372,-0.09791015,-0.012058685,-0.039814334,0.17682748,0.31997186,0.17860971,-0.018203598,-0.0064247623,-0.02228635,0.10626085,0.06818801,0.14138752,-0.0057602087,0.06100873,0.08009809,-0.07469924,-0.24004321,0.053868007,0.29512262,0.1490554,0.1688214,0.054269977,0.014785765,0.0539689,-0.18619567,-0.0432332,-0.13991116,0.24069273,-0.22826058,0.23493905,0.04983695,0.18582146,0.0915788,-0.24416097,-0.124498084,0.118836276,-0.12353196,0.21719056,0.23097354,0.013703116,0.13278934,-0.2569427,-0.11950768,0.049278628,-0.09006153,-0.13623537,-0.13801168,-0.12338169,-0.10150943,0.105995215,-0.11471417,0.13948257,-0.022349792,0.19840458,0.013877009,0.027888441,-0.13929439,-0.11128505,0.48267642,-0.021514982,0.16489881,0.05345647,-0.031421985,0.033490043,-0.03581824,-0.09464534,0.08970229,-0.041475322,0.17048502,-0.028787173,0.015470306
