0,1,2,3,4,5,6,7,8,9,10,11,12,13,14,15,16,17,18,19,20,21,22,23,24,25,26,27,28,29,30,31,32,33,34,35,36,37,38,39,40,41,42,43,44,45,46,47,48,49,50,51,52,53,54,55,56,57,58,59,60,61,62,63,64,65,66,67,68,69,70,71,72,73,74,75,76,77,78,79,80,81,82,83,84,85,86,87,88,89,90,91,92,93,94,95,96,97,98,99,100,101,102,103,104,105,106,107,108,109,110,111,112,113,114,115,116,117,118,119,120,121,122,123,124,125,126,127,128,129,130,131,132,133,134,135,136,137,138,139,140,141,142,143,144,145,146,147,148,149,150,151,152,153,154,155,156,157,158,159,160,161,162,163,164,165,166,167,168,169,170,171,172,173,174,175,176,177,178,179,180,181,182,183,184,185,186,187,188,189,190,191,192,193,194,195,196,197,198,199,200,201,202,203,204,205,206,207,208,209,210,211,212,213,214,215,216,217,218,219,220,221,222,223,224,225,226,227,228,229,230,231,232,233,234,235,236,237,238,239,240,241,242,243,244,245,246,247,248,249
0.042492382,0.026792876,0.05093143,0.058263466,0.07300889,0.07700708,0.021209182,0.024351476,-0.1256311,-0.050982565,0.056633715,0.059143808,-0.045356933,-0.063685276,-0.07265074,-0.06982038,0.14215559,0.03621048,0.017970761,-0.121205054,-0.10240815,-0.070725285,0.052449472,-0.11010574,-0.104020566,0.114036985,0.0053124717,-0.03315145,-0.12877259,-0.10956901,0.0722874,-0.057385717,-0.08773623,-0.04794706,0.07059982,0.10867062,-0.04469937,0.07787696,0.053969286,-0.102171816,0.11135843,0.044528905,-0.023464177,-0.07934499,0.03922974,-0.10217351,-0.028506372,0.048858646,0.12767528,0.06846234,-0.11649258,-0.024540214,0.030164773,0.10801881,-0.1252064,0.036392625,0.10124263,0.08252474,0.036214605,-0.029233117,0.109752916,-0.10632409,-0.09643644,-0.13328773,-0.07854983,0.11046188,-0.086184345,0.13162452,-0.087298654,0.11655634,-0.06004251,0.083496444,-0.068118945,0.06924207,-0.060705956,0.116390094,-0.08561727,-0.046406362,0.032292604,-0.09048508,-0.119189724,-0.07238294,0.06451001,0.05921953,0.07604957,0.050116915,-0.046750985,0.07463387,-0.10237812,-0.08238207,-0.054858916,-0.11303272,-0.12120002,0.06436714,0.028039783,0.11188515,0.027193325,0.081993274,0.06854848,-0.07134574,0.069162324,0.060870763,0.1043051,0.10368021,-0.07517857,-0.05163689,0.033606723,0.09831198,0.076777,0.12152803,-0.08482755,-0.054575436,-0.0810192,-0.084177054,-0.07855005,0.10804663,0.04805122,0.06275306,0.04982775,0.057208993,0.03240317,0.055734992,-0.09052752,-0.11850979,0.07994651,0.07224686,-0.10383912,0.023992859,0.12093156,-0.040585127,-0.11845021,-0.027861526,-0.116907634,-0.09296987,-0.04397669,-0.12657423,0.0446044,0.020303188,0.06494055,0.038016092,0.06471057,-0.09715855,0.13801372,0.08690611,-0.10990614,-0.082111776,-0.095473476,0.118278325,-0.055587303,0.13905218,0.0775835,-0.08809514,-0.085300334,-0.09491216,0.09654557,0.090835586,-0.15238483,0.06149601,-0.12372879,-0.027803618,-0.10155663,0.0605411,-0.10427164,0.03850155,-0.081187434,-0.03827104,-0.10086353,-0.096093155,-0.033948053,0.06260104,0.10523147,-0.091594465,-0.086394824,0.07176848,-0.023207504,0.046121053,-0.04505939,0.04133632,0.057767425,0.104719914,-0.06699054,0.04470202,-0.06535908,0.07547815,0.11427294,-0.10006374,-0.042165976,-0.06017736,0.04911537,-0.0147573445,0.09128761,0.0764565,-0.06597896,-0.06015976,-0.07258793,0.1325138,0.17016663,0.043638803,-0.024282048,0.07788176,0.07702322,0.09286512,0.09244996,-0.028363105,-0.08920539,0.10282818,-0.044017404,-0.15782504,-0.013065926,0.13685106,0.05379258,0.06150446,0.08827596,-0.03887813,0.046419118,-0.11604381,-0.11382189,0.058058135,0.111542106,-0.038815226,-0.105351254,-0.07627679,-0.12392485,0.049504243,0.026211679,-0.07345053,-0.09751924,-0.11529556,-0.10036198,-0.10004427,-0.116081566,0.10480569,0.12003574,0.043895803,0.071522474,0.07004636,-0.087368116,-0.048108384,0.056377523,-0.08576148,-0.11088041,-0.093741186,0.06934678,0.0705928,0.07717882,-0.12684412,0.11776304,0.11162711,-0.022897692,0.092309564
0.1041482,0.04298506,0.074163176,0.07976607,0.028893584,0.11256488,0.078393854,0.11151574,-0.077318095,-0.0815352,0.069270946,0.051692605,-0.109704256,-0.02055827,-0.0925723,-0.08557021,0.10274212,0.12028055,0.049686804,-0.100614816,-0.02739057,-0.08534675,0.07516348,-0.08795305,-0.10256259,0.0987106,0.005543383,-0.051535573,-0.14902757,-0.10929102,0.03665203,-0.09016322,-0.108154066,-0.09841812,0.061644524,0.122545555,-0.09523825,0.019627564,0.09420929,-0.08886876,0.12412092,0.031217687,-0.06726732,-0.12827756,0.031160107,-0.117423415,-0.04294221,0.029180123,0.04310437,0.057680756,-0.11651136,-0.04952531,0.09545123,0.14487682,-0.13877103,0.03783155,0.05982859,0.08324647,0.094919935,-0.047492865,0.06460555,-0.12613924,-0.07578631,-0.08297144,-0.09713563,0.0723549,-0.07777194,0.12244191,-0.014174613,0.10230604,-0.09734757,0.057816017,-0.04288509,0.0776713,-0.12935838,0.11762462,-0.03145839,-0.07078311,0.05967671,-0.11300279,-0.061886072,-0.062276524,0.04623109,0.084180735,0.042271364,0.041791588,-0.07817381,0.09635733,-0.054564968,-0.1060825,-0.06608341,-0.031109218,-0.048323844,0.060671866,0.030866317,0.042832926,0.04381112,0.03235562,0.08842668,-0.02093271,0.1328841,0.12809247,0.09132548,0.043122984,-0.10105818,-0.04865517,0.09901346,0.05036588,0.0782797,0.10275507,-0.04980085,-0.072516225,-0.027781697,-0.051911797,-0.06624544,0.08073713,0.10426498,0.055772904,0.058367774,0.041011788,0.121969074,0.07056666,-0.05942265,-0.09834424,0.10645793,0.11259044,-0.11603791,0.038949177,0.11501437,-0.035089955,-0.076343685,-0.07905797,-0.12743026,-0.03781908,-0.058490787,-0.10887514,0.065794855,0.12539496,0.08934197,0.06565203,0.023875605,-0.057300266,0.14204441,0.024698252,-0.120446146,-0.13315524,-0.05089739,0.10793209,-0.090940036,0.10735123,0.070923366,-0.033317324,-0.07444306,-0.085023604,0.13185984,0.027513264,-0.15900575,0.05705492,-0.056422517,-0.11562869,-0.13741437,0.07097946,-0.10636922,0.08282153,-0.11367277,-0.035543483,-0.11885756,-0.075751245,-0.10779419,0.08316388,0.09895856,-0.063750915,-0.08930801,0.12049952,-0.040519144,0.03118358,-0.13692723,0.094840854,0.10104688,0.082565784,-0.01922248,0.033970572,-0.061052956,0.081287555,0.09855209,-0.024388226,-0.06509277,-0.08599035,0.097707175,0.025902055,0.093113385,0.13824084,-0.104075804,-0.12717263,-0.08943281,0.1002588,0.09675966,0.06559318,-0.0940516,0.06894263,0.13907835,0.099165946,0.06644288,-0.0931942,-0.07706624,0.022596814,-0.087101795,-0.11894802,0.0107739,0.19086346,0.016104793,0.045275286,0.03566819,-0.06056517,0.047962647,-0.026063146,-0.13507341,0.01907122,0.060833406,-0.029479347,-0.06551718,-0.041948467,-0.17432654,0.12011289,0.10037387,-0.13457617,-0.04656086,-0.07043483,-0.08538966,-0.08032962,-0.026176775,0.06263735,0.07404748,0.048031125,0.098160125,0.08487421,-0.09657084,-0.0415058,0.033293765,-0.032953896,-0.12420554,-0.11476503,0.047233663,0.093505085,0.087892994,-0.06016953,0.09570702,0.13136716,-0.0027319845,0.09631393
0.11048826,0.07273284,0.11394552,0.108057275,0.08893912,0.083019376,0.043447252,0.020907428,-0.13195503,-0.10058915,0.11287741,0.05318357,-0.10282754,-0.038163647,-0.08083293,-0.10102955,0.13065815,0.017968433,0.0675605,-0.1306023,-0.07926283,-0.042381853,0.053798232,-0.08205425,-0.11192547,0.12215775,0.030079596,-0.11596037,-0.09741917,-0.10381157,0.073673986,-0.08283752,-0.092651464,-0.10354709,0.04558071,0.05650428,-0.107291035,0.078585654,0.06674927,-0.08340462,0.07607259,0.11248548,-0.10938807,-0.1302743,0.08129071,-0.09636219,-0.06539062,0.0783336,0.039694775,0.060629122,-0.07723627,-0.053530082,0.10674927,0.059405785,-0.07062372,0.11950762,0.08397628,0.023424221,0.034432974,-0.09066097,0.11388872,-0.11039241,-0.021634081,-0.08012298,-0.08665375,0.08935263,-0.09884856,0.054153286,-0.051556762,0.06759023,-0.10689202,0.058025736,-0.08785699,0.11998344,-0.093026884,0.06203845,-0.049377814,-0.031783298,0.059798893,-0.09529813,-0.0318707,-0.11743943,0.08475173,0.110818066,0.047221225,0.0559636,-0.04099888,0.10813557,-0.020729741,-0.102131255,-0.072190896,-0.03955113,-0.092430666,0.08358131,0.10551498,0.04758391,0.06991855,0.07980286,0.07958824,-0.11474539,0.16129906,0.11195971,0.030674813,0.03566399,-0.07367122,-0.059119206,0.08914089,0.10648009,0.10668553,0.11124275,-0.09679189,-0.05865524,-0.1101707,-0.031405423,-0.07192362,0.10064831,0.061422717,0.050350104,0.09701732,0.10783106,0.058408696,0.039679915,-0.056767624,-0.09704301,0.100154966,0.1282377,-0.059216663,0.040775463,0.029174652,-0.05211765,-0.03052285,-0.05729811,-0.08102115,-0.042500347,-0.039192643,-0.11903681,0.057293065,0.06919381,0.07503517,0.07355131,0.04857208,-0.03993458,0.12536986,0.069336206,-0.061649006,-0.09035388,-0.10821822,0.08506806,-0.034012266,0.086808726,0.101084486,-0.09893517,-0.11282976,-0.059110872,0.12771867,0.045759406,-0.13639788,0.07123636,-0.043495893,-0.047768205,-0.049242545,0.07614441,-0.112765506,0.047738835,-0.06801183,-0.08959833,-0.061921097,-0.06784917,-0.054463454,0.030855812,0.14548586,-0.09640099,-0.07798015,0.042702023,-0.03953059,0.012232862,-0.12360133,0.07199784,0.06677101,0.04925384,-0.022066975,0.04432087,-0.08242472,0.034128074,0.11164718,-0.046056226,-0.021331716,-0.025173621,0.08780466,0.02606226,0.064242005,0.048921105,-0.12010103,-0.13358241,-0.06405141,0.09245286,0.06335702,0.05798917,-0.05739795,0.03134273,0.13872106,0.12271207,0.07111796,-0.07474689,-0.01824124,0.073989905,-0.08651626,-0.086466014,-0.06011849,0.13738419,0.049801957,0.030447647,0.07472418,-0.13209996,0.05707061,-0.04428786,-0.08479093,0.051539518,0.08138308,-0.085979834,-0.081248984,-0.116255134,-0.12635316,0.044275966,0.11016882,-0.07244389,-0.030131843,-0.10084797,-0.059253015,-0.0934988,-0.11058081,0.03325744,0.055403925,0.10910665,0.052641563,-0.004938191,-0.04947906,-0.09296674,0.101805024,-0.07576985,-0.049347173,-0.1028765,0.07462165,0.099039584,0.083949976,-0.04210373,0.074959114,0.102344535,-0.014581322,0.085862845
0.09821825,0.054822497,0.08003366,0.07857215,0.05283979,0.12540624,0.056714498,0.09402699,-0.063625194,-0.07174748,0.060264237,0.092850775,-0.12444978,-0.063440785,-0.07784564,-0.060011614,0.04343587,0.11446926,0.10869348,-0.1101439,-0.106874436,-0.09145488,0.09906833,-0.068079814,-0.10075858,0.08924542,-0.04956624,-0.11273718,-0.11560026,-0.09048478,0.09848143,-0.10544422,-0.03228182,-0.09821387,0.108059235,0.08739663,-0.054826047,0.027061515,0.0799282,-0.056416564,0.036546603,0.03569981,-0.051766984,-0.077390805,0.053803444,-0.11089592,-0.088709705,0.06842939,0.12981106,0.11445824,-0.10547453,-0.092531085,0.111041754,0.09947323,-0.045728885,0.06719532,0.12317261,0.061393265,0.053265475,-0.036616195,0.10659252,-0.05636429,-0.04705321,-0.0518779,-0.049749244,0.062355097,-0.078564964,0.1209845,-0.1013148,0.07279107,-0.022884037,0.10976685,-0.065606594,0.110018544,-0.05501606,0.12391696,-0.054163333,-0.0800782,0.04874084,-0.0556819,-0.030471904,-0.05732863,0.032725103,0.10702446,0.03395624,0.034539606,-0.15731649,0.052604295,-0.083870806,-0.14538126,-0.13507049,-0.09774056,-0.027767504,0.06030617,0.10278263,0.064902306,0.059287515,0.09248614,0.082942076,-0.09699333,0.093554236,0.06248598,0.033091616,0.06008601,-0.085694954,-0.027477367,0.12007328,0.11660093,0.07234142,0.12197006,-0.044978853,-0.052093606,-0.12283015,-0.07682348,-0.08861181,0.1499199,0.043011934,0.089577794,0.13379069,0.07665044,0.11898682,0.10407155,-0.06429813,-0.074341945,0.061152723,0.07419349,-0.0929566,0.11295253,0.11054932,-0.0697587,-0.10897717,-0.05543865,-0.13189411,-0.12393582,-0.05874286,-0.12425183,0.09236953,0.08539604,0.09243084,0.10326308,0.10249463,-0.060449686,0.10989418,0.020694546,-0.11078611,-0.11737655,-0.094246425,0.081991486,-0.0834025,0.121985324,0.03376867,-0.058193106,-0.09313083,-0.10304871,0.13960084,0.067007914,-0.114568055,0.03898354,-0.15265872,-0.05825952,-0.07389327,0.07717368,-0.02886436,0.10154616,-0.10411038,-0.08010692,-0.11002782,-0.053952556,-0.09745962,0.07443918,0.093116134,-0.0799612,-0.09024585,0.041238725,-0.105814904,0.026684921,-0.07851179,0.08776939,0.10596597,0.06557287,-0.09412581,0.04982391,-0.059276376,0.12368273,0.10588972,-0.040421207,-0.11154652,-0.032290876,0.029985784,-0.012815502,0.092877164,0.040164463,-0.041694976,-0.10280112,-0.06168031,0.10194974,0.07929024,0.029827677,-0.044746973,0.098624974,0.11286642,0.0876928,0.06523784,-0.06633036,-0.09600785,0.09713162,-0.1146945,-0.12519859,0.024524914,0.17399752,0.04605746,0.06797109,0.047175657,-0.05463674,0.031078909,-0.05851313,-0.070805356,0.019739632,0.03419466,-0.04450082,-0.10174601,-0.11482053,-0.12750469,0.043574587,0.040387973,-0.124506466,-0.045057155,-0.074247,-0.101922266,-0.051334903,-0.05211637,0.101777874,0.059208423,0.07792289,0.064697415,0.035275023,-0.08958849,-0.11807619,0.059711847,-0.117034696,-0.09010984,-0.080158725,0.04112566,0.06989473,0.02230434,-0.09851964,0.12241782,0.122955896,-0.02979986,0.09541646
0.14642327,0.067075424,0.05154336,0.0848393,0.020504655,0.09681189,0.08133396,0.036996767,-0.059915554,-0.0887016,0.1327788,0.06351834,-0.116604045,-0.059410412,-0.105988495,-0.027328795,0.053799212,0.025236022,0.053885195,-0.08799368,-0.0053495145,-0.086172536,0.12501374,-0.065905996,-0.06739233,0.10340282,-0.0049148095,-0.096275896,-0.10777387,-0.10104001,0.108127676,-0.04466311,-0.05103981,-0.07580314,0.07109062,0.09374545,-0.06588082,0.08585269,0.03257671,-0.08992117,0.1139323,0.12813589,-0.07168981,-0.113378905,0.07114161,-0.094075434,-0.028715003,0.11880005,0.08255218,0.10641711,-0.09726545,-0.11367229,0.1264792,0.079201974,-0.079535104,0.10064965,0.044807326,0.044427145,0.025496263,-0.058048908,0.09343338,-0.11204317,-0.037368525,-0.08217262,-0.062239822,0.02882472,-0.08391124,0.099720985,-0.078247026,0.10855128,-0.10863588,0.069712244,-0.088972434,0.013451144,-0.08130571,0.12651403,-0.115568064,-0.059103075,0.044772584,-0.09837468,-0.0583035,-0.066132076,0.031548653,0.049014073,0.1082837,0.070794836,-0.14962819,0.038210265,-0.031718425,-0.13952245,-0.039905462,-0.04805988,-0.064538084,0.08407892,0.1138755,0.029371329,0.07699748,0.10926486,0.10364874,-0.11524421,0.18132028,0.14487085,0.1082158,0.050904945,-0.15024449,-0.104248025,0.08176705,0.11800471,0.05796396,0.074090466,-0.04103755,-0.07342703,-0.055379186,-0.05994398,-0.11848522,0.044458468,0.056194194,0.0442906,0.078921914,0.030429328,0.051362634,0.071897075,-0.07378692,-0.115725055,0.10824781,0.10038101,-0.05720751,0.11577793,0.032845397,-0.04808963,-0.10248984,-0.0967366,-0.024601148,-0.043969974,-0.079562366,-0.05725664,0.024541056,0.10990723,0.1104489,0.033998955,0.07602043,-0.09705928,0.057431318,0.06998643,-0.051932424,-0.15839742,-0.06483837,0.09455644,-0.07637842,0.11336485,0.027149126,-0.10210087,-0.06413549,-0.066027306,0.022744702,0.0940959,-0.09065406,0.10257476,-0.097452044,-0.112600766,-0.037627593,0.097063825,-0.10260604,0.031002589,-0.034553654,-0.11308575,-0.061959222,-0.0612373,-0.04271456,0.053384446,0.050828956,-0.0796871,-0.06597741,0.046478808,-0.06132406,0.03720434,-0.056283325,0.08548265,0.068332896,0.051657826,-0.0809184,0.032201514,-0.06957404,0.10510224,0.08638277,-0.06491003,-0.038074072,-0.028769853,0.06188364,0.01577261,0.119025044,0.047658835,-0.07354098,-0.056146078,-0.10208087,0.14340785,0.06986803,0.09641096,-0.110727705,0.02469864,0.13307399,0.031966414,0.029419111,-0.056358304,-0.13310611,0.05940269,-0.088925086,-0.14670597,-0.03481646,0.13840042,0.02895772,0.06734974,0.10470517,-0.029916065,0.08383914,-0.107042454,-0.03543092,0.07445202,0.07993112,-0.061208475,-0.073298514,-0.06425458,-0.11526478,0.11811729,0.063084535,-0.072465934,-0.10371192,-0.07997056,-0.08309396,-0.079238854,-0.08212712,0.06940205,0.12520626,0.09246511,0.12249427,0.010729025,-0.056281112,-0.024830943,0.034808774,-0.070462026,-0.14003661,-0.06446903,0.07484564,0.05579773,0.10800254,-0.12436962,0.05573217,0.060283538,-0.008249718,0.12834099
0.107906766,0.04267402,0.035395276,0.07050034,0.11261694,0.07215987,0.115407705,0.1115528,-0.123551585,-0.026306761,0.10373694,0.12231896,-0.04852238,-0.070499115,-0.05124975,-0.07396776,0.07906337,0.08612406,0.07910584,-0.13651703,-0.07704448,-0.08224011,0.110066265,-0.1063407,-0.043886416,0.111257024,0.02632436,-0.10399409,-0.09028518,-0.06446425,0.09207437,-0.071574815,-0.075676516,-0.05807991,0.083173916,0.04459798,-0.107316636,0.052696597,0.08421103,-0.067193754,0.05383883,0.05729161,-0.104418494,-0.08158433,0.06479108,-0.02345067,-0.028183926,0.08247087,0.12153205,0.120545074,-0.07225319,-0.10001207,0.046868496,0.1346671,-0.10216408,0.05116145,0.10908671,0.10601708,0.07696353,-0.06976302,0.061046407,-0.05156628,-0.083580725,-0.08992009,-0.068428226,0.0698149,-0.06464319,0.094682634,-0.06409656,0.11349253,-0.12751724,0.13184898,-0.017454479,0.093670085,-0.10915379,0.06277877,-0.067931324,-0.08155959,0.08103576,-0.11345292,-0.036173165,-0.045383167,0.12669058,0.0368066,0.0449794,0.049648736,-0.076682515,0.11696746,-0.03930264,-0.10818578,-0.1251141,-0.08113213,-0.0984228,0.036428824,0.08779621,0.08907741,0.07238684,0.08991765,0.07528973,-0.07346027,0.11421382,0.12808089,0.09170161,0.06264709,-0.14219926,-0.041301187,0.110767454,0.0755892,0.10414439,0.07955888,-0.079054266,-0.07821253,-0.074114524,-0.123258606,-0.08264139,0.1233003,0.09073758,0.068749815,0.0651947,0.044184115,0.04875713,0.07625493,-0.046843354,-0.12916464,0.048679598,0.09795187,-0.1129102,0.05968655,0.097207546,-0.13483141,-0.08171704,-0.056744743,-0.123386964,-0.120692715,-0.08661498,-0.074305065,0.101265706,0.10265336,0.054810166,0.055746388,0.04818846,-0.110700175,0.08208172,0.115716144,-0.04369607,-0.15040639,-0.09830438,0.04066794,-0.04039994,0.13114832,0.05787629,-0.10888854,-0.08007993,-0.09446204,0.04753307,0.023896363,-0.09471738,0.07158777,-0.07674063,-0.09911484,-0.07095765,0.062242877,-0.10521356,0.032266792,-0.12467194,-0.08662195,-0.06634434,-0.07595862,-0.090159185,0.115112826,0.114778,-0.063345134,-0.09296439,0.13494901,-0.034908924,0.05288846,-0.06521327,0.1131758,0.05075168,0.065957844,-0.099861294,0.054801352,-0.08578955,0.06921182,0.06974162,-0.028610757,-0.06564836,-0.063369095,0.067794934,-0.027900148,0.11848762,0.115968585,-0.06858053,-0.08486664,-0.10390728,0.08271694,0.12625888,0.037228674,-0.03700304,0.08392737,0.141887,0.0645209,0.023719905,-0.044720892,-0.070086055,-0.00063672033,-0.11229937,-0.12489066,0.013840641,0.027757648,0.060384344,0.12122845,0.0895928,-0.074274145,0.046489976,-0.040533412,-0.08769449,0.10693874,0.08253364,-0.10383934,-0.062224913,-0.0680614,-0.15659727,0.06455571,0.07472936,-0.11927568,-0.02734748,-0.07219955,-0.113595985,-0.0461008,-0.10705547,0.019985672,0.10111143,0.042118736,0.08466215,0.015683696,-0.12642723,-0.07306151,0.11142714,-0.09996923,0.0001617883,-0.04212655,0.09806976,0.05330031,0.096576,-0.13366969,0.051785912,0.109953344,-0.02044996,0.05544066
0.06938131,0.06372806,0.101630054,0.09745768,0.10846135,0.040904086,0.06561669,0.107015714,-0.06049675,-0.045190923,0.08584835,0.11989805,-0.11711913,-0.068829164,-0.13043424,-0.10331808,0.09269712,0.040171206,0.05586922,-0.046557322,-0.1143849,-0.116490096,0.12193269,-0.025525255,-0.09810021,0.074757956,-0.06123726,-0.079805076,-0.12607187,-0.09773675,0.038081337,-0.048976734,-0.112491995,-0.05556801,0.08196836,0.08445419,-0.1074672,0.10955368,0.032490492,-0.04534903,0.10632657,0.079980366,-0.021067655,-0.11054415,0.10108509,-0.113479644,-0.093540505,0.024874032,0.08560515,0.115979485,-0.050507158,-0.04316888,0.105730444,0.049186714,-0.04830791,0.062347505,0.092113286,0.053273153,0.11536557,-0.03321222,0.08238671,-0.09364178,-0.07902729,-0.043889917,-0.121897,0.111574985,-0.045392003,0.051091556,-0.08174946,0.08859582,-0.074944176,0.125313,-0.097652,0.11020302,-0.05245272,0.06623855,-0.12136512,-0.051045973,0.096156634,-0.024001125,-0.06575483,-0.063384295,0.09991792,0.09255104,0.017355394,0.10402415,-0.10621541,0.087319076,-0.02204279,-0.14391513,-0.06402289,-0.086727165,-0.11669771,0.064567335,0.091539204,0.05690293,0.023795899,0.06208854,0.121421576,-0.061175298,0.14898224,0.06778072,0.08708469,0.03657822,-0.12026464,-0.06598269,0.09835281,0.09403105,0.042997528,0.06510517,-0.07352336,-0.10933044,-0.020375421,-0.047313415,-0.10233225,0.11882375,0.07930387,0.03805754,0.043654256,0.053028114,0.07794122,0.042943545,-0.057792243,-0.083069384,0.05676088,0.10698119,-0.08826112,0.10991856,0.09815055,-0.05841023,-0.14159709,-0.10772148,-0.076956354,-0.039670423,-0.058712743,-0.066257045,0.08014214,0.07735823,0.07461206,0.113243744,0.08266311,-0.025884714,0.06408677,0.083466135,-0.060179878,-0.11347966,-0.088659346,0.07385096,-0.047638834,0.109295815,0.030409575,-0.058019817,-0.12421923,-0.047269087,0.1456175,0.07842826,-0.12609544,0.028143683,-0.044489596,-0.0888247,-0.05570598,0.080066375,-0.1190251,0.03214203,-0.024365501,-0.059683185,-0.03543411,-0.12736516,-0.07531499,0.10197733,0.090523444,-0.026016118,-0.08480639,0.035286993,-0.079453945,0.02173776,-0.03820515,0.050431382,0.10416997,0.06297935,-0.08569708,0.11078302,-0.11810003,0.075987525,0.11009558,-0.050425872,-0.026199883,-0.06769362,0.11560703,0.017352698,0.11233795,0.13474195,-0.055360496,-0.09723656,-0.056312516,0.09856007,0.13808633,0.06372987,-0.036574285,0.058470152,0.122137144,0.10016298,0.017188752,-0.058296654,-0.12519157,0.008636415,-0.09807367,-0.08660269,0.03385399,0.11292979,0.087607294,0.08407402,0.041784573,-0.11581114,0.10898781,-0.09694195,-0.057885475,0.037273455,0.051649783,-0.076999635,-0.08955454,-0.11569153,-0.046285853,0.050872933,0.016504487,-0.040864956,-0.10123688,-0.08416024,-0.08229261,-0.067989625,-0.045729976,0.02245907,0.108160295,0.030828206,0.04900592,0.056150857,-0.124277025,-0.061285123,0.06866357,-0.11035644,-0.051593713,-0.12878345,0.03238008,0.09891492,0.08182591,-0.045829944,0.093724415,0.0579103,-0.02981142,0.050880875
0.10477386,0.019608362,0.11352042,0.12414644,0.10622916,0.0965755,0.08963464,0.081190206,-0.039547034,-0.022377895,0.10793713,0.06599826,-0.09829151,-0.0739545,-0.10000703,-0.07827062,0.13024469,0.076869115,0.053688712,-0.076165564,-0.0975271,-0.045201696,0.0846257,-0.05579173,-0.049378037,0.116732895,-0.032709416,-0.09537583,-0.13130938,-0.061111275,0.0860336,-0.0746459,-0.053680822,-0.11571496,0.07143885,0.072582334,-0.04725198,0.09019115,0.022556378,-0.070994996,0.108126074,0.07039675,-0.088589475,-0.1156559,0.07746954,-0.08115302,-0.03633525,0.07846481,0.10265049,0.076199785,-0.027330374,-0.07253719,0.106042214,0.08554733,-0.13491867,0.029575335,0.11311964,0.06175059,0.04371994,-0.100775585,0.085963935,-0.11437181,-0.09809398,-0.10463174,-0.07797313,0.07310147,-0.09458811,0.12006129,-0.06905066,0.060171895,-0.05356453,0.121491484,-0.025387723,0.12430329,-0.099019215,0.06044537,-0.09609641,-0.07882426,0.04337539,-0.054465383,-0.05732482,-0.13792327,0.10160522,0.07279424,0.06981409,0.06663134,-0.09589067,0.10104845,-0.060292527,-0.12960617,-0.1229197,-0.10964914,-0.10087983,0.06901414,0.025812654,0.086256966,0.03824768,0.059341896,0.055290487,-0.042657536,0.076928236,0.15002735,0.101398356,0.022705166,-0.11763568,-0.09356662,0.053378265,0.084958404,0.059318528,0.023713585,-0.11708555,-0.039216854,-0.06822867,-0.04863107,-0.024909167,0.062829524,0.07527794,0.08996854,0.07961328,0.112311445,0.12256554,0.104408406,-0.10543721,-0.119795434,0.048753787,0.090709664,-0.035768956,0.05509952,0.12466803,-0.06183111,-0.04404837,-0.053792477,-0.10268359,-0.09356933,-0.068404205,-0.14985098,0.035085183,0.057884384,0.02198928,0.07031534,0.10611,-0.027968265,0.13538358,0.07527545,-0.12665841,-0.08265229,-0.054755744,0.12425835,-0.1167912,0.119704396,0.04021181,-0.027441872,-0.13671084,-0.01689239,0.10591784,0.04174767,-0.11678359,0.029087115,-0.09360186,-0.10339576,-0.056528952,0.07007248,-0.115677975,0.034419272,-0.083939984,-0.121824354,-0.11307539,-0.1389862,-0.11767803,0.10794338,0.15255386,-0.079743035,-0.025187235,0.07018683,-0.11715558,-0.0006117288,-0.11723052,0.08764103,0.1135287,0.090337306,-0.059898954,0.08393649,-0.03697556,0.03187896,0.1287757,-0.105681226,-0.10705412,-0.041557048,0.029870838,-0.026968474,0.100842506,0.096892565,-0.08190601,-0.10142737,-0.025042338,0.08305724,0.056996077,0.035524834,-0.028070789,0.04429088,0.09449057,0.053935006,0.053373277,-0.06481311,-0.08138054,0.011246144,-0.066323474,-0.10485226,0.018763235,0.13177262,0.08826427,0.05571952,0.032353036,-0.031665172,0.028817955,-0.070516616,-0.064063996,0.07009423,0.02979027,-0.06703921,-0.084955886,-0.11324722,-0.08841174,0.066036835,0.09446908,-0.07161542,-0.047053646,-0.11817795,-0.08581159,-0.10451756,-0.086752124,0.010502227,0.059621163,0.054467216,0.08101414,0.055596255,-0.08255434,-0.057453807,0.111430645,-0.07266751,-0.029176997,-0.12966645,0.08671419,0.07339093,0.05555982,-0.07337787,0.06121839,0.081916444,0.01396109,0.041324306
0.06408837,0.054238003,0.14448436,0.060385253,0.06931602,0.07695515,0.0299793,0.08994904,-0.030422268,-0.016516935,0.05965485,0.10417296,-0.09672531,-0.03052869,-0.108019724,-0.050490208,0.089453205,0.032636102,0.059942648,-0.04515794,-0.07576641,-0.09405887,0.10391013,-0.09105462,-0.0835347,0.109681845,-0.011760309,-0.085700564,-0.14523,-0.047318574,0.029311452,-0.027956411,-0.092873506,-0.07296555,0.02214526,0.11580988,-0.019402921,0.06929377,0.11173215,-0.02527898,0.07717433,0.109194845,-0.039391592,-0.09384098,0.06588773,-0.022755278,-0.03211176,0.030284623,0.04934444,0.05869377,-0.092418805,-0.11907454,0.049153514,0.084661424,-0.06987046,0.052163053,0.09531686,0.090141684,0.111056484,-0.103306204,0.121964455,-0.088990696,-0.06461739,-0.03955371,-0.038158312,0.11875248,-0.09472881,0.110884756,-0.057611864,0.024816047,-0.06435588,0.10516041,-0.09542937,0.11660792,-0.066210434,0.07032013,-0.026422953,-0.07656766,0.08618524,-0.10262377,-0.08799953,-0.11855852,0.07374714,0.028243626,0.0878547,0.029759545,-0.10632921,0.104593284,-0.087680936,-0.15134186,-0.08532541,-0.043914665,-0.08351752,0.06270671,0.032506783,0.105426066,0.095589735,0.08478144,0.113083124,-0.030346913,0.058133375,0.09445603,0.08414683,0.037426453,-0.12340236,-0.09100546,0.08224542,0.053997725,0.07176147,0.13283573,-0.094186746,-0.1088037,-0.09535697,-0.033836,-0.06672339,0.1118417,0.03295307,0.07311162,0.07820827,0.05918798,0.115162514,0.07736114,-0.07026214,-0.06902121,0.07874505,0.050909065,-0.06469421,0.09679729,0.02033529,-0.088715784,-0.0722916,-0.09529257,-0.05175563,-0.085213274,-0.07058079,-0.12269426,0.0806492,0.060408644,0.036937173,0.094452865,0.01576047,-0.075749695,0.11942634,0.03845864,-0.057000015,-0.13003738,-0.01603158,0.10707953,-0.030901706,0.0770771,0.1048365,-0.03522951,-0.062474933,-0.08364477,0.095063634,0.017233672,-0.0917263,0.109291725,-0.070669,-0.11570292,-0.06964537,0.067269914,-0.12318872,0.082443886,-0.120076716,-0.05055645,-0.085102804,-0.106335014,-0.11068507,0.018050637,0.15918468,-0.10223975,-0.0798447,0.112267494,-0.08118056,0.042317986,-0.11398494,0.103415675,0.11430166,0.076086015,-0.10077429,0.11117043,-0.07181428,0.06840035,0.10998756,-0.03845613,-0.017321829,-0.027657378,0.11633674,-0.0032928744,0.018733855,0.06304976,-0.08629093,-0.07229414,-0.061964057,0.10751784,0.060557377,0.055788785,-0.08430785,0.09792802,0.09495868,0.08685877,0.06906252,-0.07431845,-0.01660582,0.08096446,-0.022664556,-0.089022696,0.03628859,0.13551565,0.089554474,0.08613642,0.08103442,-0.07621961,0.022803046,-0.1182687,-0.09370132,0.07185128,0.10213969,-0.07021686,-0.1072124,-0.068077095,-0.12553045,0.07402444,0.028773537,-0.13193318,-0.039058946,-0.10545885,-0.10963513,-0.0395305,-0.054507148,0.011506456,0.039382663,0.1112889,0.08164503,0.043802094,-0.033773307,-0.061670657,0.058273092,-0.09543436,-0.117043875,-0.044739112,0.033705477,0.1169931,0.016446944,-0.07437328,0.040393464,0.08782233,0.031963255,0.12761194
0.11482199,0.07986282,0.08887537,0.09405657,0.06638401,0.06309801,0.08221795,0.085410856,-0.060368728,-0.042324297,0.101766415,0.030143999,-0.088399306,-0.08119047,-0.056881666,-0.07091248,0.10475601,0.03960263,0.0590564,-0.09016491,-0.06690605,-0.09520091,0.081924565,-0.048991397,-0.043074857,0.067132905,0.0028778086,-0.10048456,-0.112287454,-0.110182844,0.03347766,-0.06116794,-0.08068509,-0.089118876,0.05277542,0.06474353,-0.042427275,0.09567373,0.08970279,-0.11867378,0.08529397,0.049218677,-0.096735895,-0.12779176,0.08399423,-0.10991254,-0.11000928,0.06402272,0.09712451,0.078644164,-0.0479566,-0.09139183,0.0468634,0.1063462,-0.07720725,0.06338767,0.0580731,0.03032891,0.04296834,-0.086398706,0.095086426,-0.10190034,-0.12037173,-0.083938606,-0.067318246,0.041329224,-0.112596884,0.0562576,-0.08671228,0.037191562,-0.11347403,0.12601267,-0.103774786,0.082319506,-0.10185174,0.054341044,-0.07444111,-0.10728448,0.041364197,-0.05895297,-0.051570486,-0.12438071,0.09076972,0.07974364,0.039085437,0.12456263,-0.10114791,0.07524583,-0.019721378,-0.05748616,-0.101061374,-0.0973947,-0.05075399,0.075835094,0.114010416,0.047971673,0.09366444,0.117420755,0.038119018,-0.078596234,0.12164276,0.106143765,0.06997044,0.09942747,-0.14541762,-0.08837198,0.05750611,0.08789152,0.11122565,0.14184916,-0.02722271,-0.061625224,-0.09646599,-0.055998657,-0.029281998,0.0428425,0.10888576,0.096686885,0.053243093,0.026068516,0.09174184,0.03848662,-0.07169164,-0.061483223,0.06647962,0.12749499,-0.07613316,0.037496876,0.03968928,-0.12798704,-0.05131254,-0.105781764,-0.06942462,-0.13272847,-0.057887357,-0.10436626,0.06995447,0.103796184,0.109886,0.08734163,0.059661124,-0.05969288,0.1016853,0.07536235,-0.03128007,-0.13214605,-0.09694529,0.08047184,-0.05733487,0.106659845,0.075046,-0.028020434,-0.0853336,-0.07116769,0.13082662,0.076389186,-0.079962015,0.07727545,-0.102338985,-0.054351833,-0.10493312,0.088056944,-0.030226968,0.054262638,-0.08298056,-0.08319398,-0.052515555,-0.129187,-0.10515074,0.034682408,0.09545927,-0.02643791,-0.054041278,0.08884946,-0.044337366,0.022239115,-0.09112681,0.13009173,0.08755549,0.096132584,-0.102001525,0.030109633,-0.025803385,0.07283612,0.08120717,-0.059086695,-0.092071384,-0.06871414,0.11927722,0.051300377,0.111964464,0.13033938,-0.08624879,-0.13960347,-0.11725106,0.057080787,0.11255787,0.04582917,-0.088612966,0.025930488,0.15770803,0.07773261,0.026388278,-0.1105441,-0.09543894,0.027874002,-0.04167402,-0.049549356,0.00015383995,0.1349444,0.11678117,0.103603706,0.0903164,-0.07490315,0.12477836,-0.066044755,-0.04266317,0.08156451,0.10024242,-0.07212793,-0.05523098,-0.040261194,-0.14322501,0.055299282,0.09523476,-0.08607883,-0.06176971,-0.08402652,-0.054835655,-0.09843834,-0.11449836,0.084589794,0.036041684,0.072192594,0.033265237,0.031804606,-0.04926222,-0.066897176,0.075838506,-0.081473224,-0.03576481,-0.08761047,0.12010609,0.095693454,0.020106407,-0.07171013,0.04022985,0.10922623,0.024508633,0.057338633
0.13863257,0.10064093,0.13612033,0.115285575,0.09398119,0.12004357,0.069688775,0.07089274,-0.059032973,-0.037404984,0.053105105,0.05513845,-0.12349058,-0.07112306,-0.14700529,-0.123205036,0.12070451,0.082763895,0.03654559,-0.13648114,-0.12552148,-0.06200256,0.1262973,-0.119055055,-0.101195805,0.088512905,-0.06056577,-0.046298053,-0.060550034,-0.057955585,0.053611152,-0.07806172,-0.056905057,-0.045934383,0.039390244,0.09875916,-0.030401655,0.10472285,0.08687806,-0.08184011,0.06911851,0.097480305,-0.10014626,-0.10822277,0.059672367,-0.112512164,-0.059401818,0.092801355,0.1365077,0.070388556,-0.090717204,-0.06094871,0.068635955,0.111769535,-0.1357223,0.044479184,0.06027124,0.040870767,0.1185401,-0.030764427,0.1046931,-0.10092325,-0.08269361,-0.10725191,-0.064007245,0.12608665,-0.071525514,0.12401287,-0.089826114,0.058201276,-0.044369664,0.13125853,-0.055880293,0.08838545,-0.10534488,0.06643226,-0.046088338,-0.10679087,0.053369887,-0.09929506,-0.038748607,-0.14401732,0.088641986,0.04062948,0.071279354,0.051349115,-0.09271817,0.0848622,-0.11633643,-0.17724948,-0.07747671,-0.0453351,-0.067391366,0.10990347,0.09777791,0.1169081,0.07514249,0.03408895,0.09699853,-0.12007313,0.09169553,0.0690343,0.038410317,0.05738402,-0.10450199,-0.116002835,0.06466862,0.07463587,0.08061564,0.056037016,-0.047058783,-0.1124888,-0.06423561,-0.08870692,-0.06269862,0.114581734,0.12340675,0.05359134,0.08631952,0.07046358,0.034938,0.026030183,-0.048587352,-0.085278176,0.09607597,0.049846172,-0.10605476,0.04711682,0.070729055,-0.12330119,-0.143119,-0.0892868,-0.06795849,-0.050202273,-0.07084986,-0.10908337,0.06907279,0.12543555,0.0708977,0.03911643,0.040087253,-0.031759784,0.10197289,0.0476275,-0.108028516,-0.08453515,-0.079215415,0.030694889,-0.0966536,0.065690465,0.047956254,-0.08222771,-0.11126289,-0.10052093,0.12452988,0.11604591,-0.110210404,0.04916738,-0.071556784,-0.099769525,-0.05877651,0.0670034,-0.031956766,0.034118608,-0.08498157,-0.08639695,-0.1168871,-0.12735583,-0.06400353,0.08772319,0.074085325,-0.025257174,-0.04019826,0.059533652,-0.08639889,0.026303442,-0.08699894,0.10178974,0.06425533,0.08837107,-0.018808315,0.03754563,-0.080560446,0.12181427,0.038563695,-0.02759768,-0.07746522,-0.092507385,0.094629034,-0.043809097,0.12517652,0.07672636,-0.13088404,-0.09379264,-0.06707848,0.15350819,0.15774134,0.053561386,-0.07522063,0.11245595,0.100997776,0.06290104,0.023657817,-0.10192803,-0.07127865,0.014966698,-0.108717166,-0.12152899,-0.050781302,0.15456943,0.030221967,0.13773054,0.051293023,-0.0767948,0.088917576,-0.07891609,-0.06802768,0.1088639,0.08512791,-0.032192193,-0.07305296,-0.067808874,-0.19368802,0.10604065,0.103339374,-0.091667876,-0.07380899,-0.10386336,-0.11227368,-0.093177386,-0.060607746,0.04656823,0.084727,0.05834586,0.030096527,0.04833221,-0.09383644,-0.06956368,0.036893085,-0.06931629,-0.05573501,-0.09803922,0.03720339,0.047435764,0.10690982,-0.080066346,0.07014039,0.07821829,-0.005340184,0.04903042
0.12050456,0.03498373,0.081740044,0.06534945,0.027553773,0.122957766,0.106247716,0.08018694,-0.0782606,-0.039794136,0.08102139,0.11671303,-0.08295284,-0.11228922,-0.08960762,-0.09131063,0.07063436,0.08937276,0.10831223,-0.06653277,-0.1257335,-0.13989086,0.0753449,-0.07124928,-0.039655615,0.07304008,0.011510208,-0.061450835,-0.07716883,-0.12042258,0.026538296,-0.13665491,-0.12408283,-0.04692816,0.10325153,0.06784357,-0.04175574,0.04768002,0.079873666,-0.107396066,0.095271476,0.09952231,-0.022303507,-0.12905297,0.050302092,-0.035325937,-0.061416946,0.10401583,0.040467873,0.07339122,-0.10432641,-0.058556236,0.12743448,0.13492142,-0.0862421,0.03564607,0.14044645,0.09654115,0.112352036,-0.0664687,0.09851508,-0.1417732,-0.07661697,-0.060925543,-0.054929476,0.07432625,-0.06364238,0.052640427,-0.05271938,0.06526539,-0.090832256,0.13349004,-0.06606679,0.063126765,-0.07934434,0.086962596,-0.07826042,-0.060699664,0.07574376,-0.07521247,-0.091448806,-0.057059027,0.09272685,0.10368928,0.022417814,0.03457412,-0.1497283,0.055735175,-0.09725883,-0.118583046,-0.038302857,-0.11609473,-0.094719835,0.029934179,0.07693676,0.020381065,0.13015488,0.08438492,0.04992411,-0.12119068,0.107420534,0.109509036,0.055658672,0.0845204,-0.0919134,-0.037726186,0.076995105,0.051425938,0.02244807,0.12204479,-0.05974427,-0.06695455,-0.0712777,-0.0971385,-0.10092014,0.1210139,0.037508868,0.10674551,0.13592061,0.047966193,0.038500518,0.1168321,-0.11573656,-0.03331372,0.11237625,0.05542207,-0.109778665,0.07846158,0.05232208,-0.058784474,-0.15466818,-0.08407428,-0.11847678,-0.073372796,-0.05727678,-0.14511997,0.07219414,0.10281168,0.04683732,0.11555514,0.12331391,-0.113216765,0.10959354,0.119141616,-0.07627415,-0.14184093,-0.10985367,0.104713544,-0.08798552,0.14681973,0.05078375,-0.04167679,-0.1662671,-0.061392035,0.12518787,0.10245364,-0.17298783,0.044474095,-0.09328888,-0.13420548,-0.11485111,0.058872037,-0.03639283,0.067211054,-0.113040045,-0.11182078,-0.0453338,-0.118338615,-0.10661817,0.08836949,0.08623706,-0.053973768,-0.10006957,0.108305514,-0.097022995,0.07703964,-0.10324903,0.08759314,0.026038777,0.04341663,-0.055847332,0.069966204,-0.09660316,0.06491312,0.12496014,-0.033470098,-0.06197812,-0.040301055,0.09117391,-0.052401416,0.110879354,0.11039525,-0.03649218,-0.0750792,-0.050850153,0.049153257,0.11181374,0.09456134,-0.08742387,0.07022431,0.14047618,0.040399157,0.031178804,-0.060289342,-0.07921947,0.014931984,-0.060454775,-0.093880005,0.0032786548,0.13444646,0.05704813,0.097466625,0.09955143,-0.06851272,0.06933895,-0.1088468,-0.07888265,0.023867786,0.032977223,-0.026412476,-0.09920506,-0.027637832,-0.1628207,0.05746167,0.08423428,-0.09086556,-0.075138286,-0.08194392,-0.04486997,-0.085710585,-0.071401946,0.11424694,0.08318299,0.05169429,0.016431935,0.053325217,-0.03746218,-0.13224678,0.08696656,-0.06544437,-0.13633977,-0.0882051,0.031527296,0.10361537,0.024702696,-0.08517522,0.1256955,0.09840358,-0.006516074,0.1071878
0.082105786,0.07898877,0.11768813,0.08700759,0.026616849,0.09759485,0.07961912,0.09533598,-0.09940979,-0.030927435,0.06481855,0.043127686,-0.09765906,-0.0712132,-0.094691396,-0.04825203,0.08916762,0.104962006,0.04124248,-0.062168244,-0.11232731,-0.055209346,0.09733999,-0.04962589,-0.085212365,0.15936753,-0.064304724,-0.07052422,-0.056197967,-0.059565015,0.10257221,-0.10518642,-0.07573616,-0.12178766,0.1229417,0.08207126,-0.08826612,0.038190335,0.11694861,-0.09201766,0.050296362,0.10331982,-0.11295066,-0.06975714,0.026762355,-0.08758543,-0.05060011,0.040204242,0.12646744,0.05063147,-0.032101892,-0.054466963,0.12662558,0.074876115,-0.072313346,0.07101412,0.09166356,0.02667752,0.024536273,-0.05531544,0.14060654,-0.06782115,-0.0987401,-0.12840693,-0.049317602,0.037889306,-0.032745723,0.069938846,-0.09585794,0.041893132,-0.01857146,0.066499636,-0.05004507,0.09737569,-0.09638065,0.08653303,-0.072058156,-0.031659633,0.06579114,-0.06496023,-0.08625126,-0.068525836,0.088235,0.043518532,0.09906119,0.06493877,-0.059812374,0.06405505,-0.02002145,-0.16547589,-0.061720718,-0.035171878,-0.117159404,0.09498887,0.059180096,0.01856209,0.029757954,0.08327117,0.13850011,-0.04649582,0.066273995,0.1093455,0.019354524,0.099955656,-0.09942626,-0.06273867,0.07823578,0.055991862,0.10895756,0.0857631,-0.05962343,-0.022583479,-0.07100984,-0.058041334,-0.06548444,0.123429924,0.08455621,0.02893644,0.123593606,0.07190029,0.10994141,0.10684059,-0.025005912,-0.10082644,0.059591174,0.1368002,-0.05191004,0.041911565,0.057930816,-0.064033225,-0.044440806,-0.040735763,-0.0991165,-0.078336604,-0.049711756,-0.066730626,0.09960827,0.096084304,0.051019795,0.04595748,0.050951622,-0.07221537,0.124463096,0.07380312,-0.09390125,-0.08034146,-0.03190111,0.1295684,-0.111054264,0.076800585,0.08349991,-0.09975712,-0.07369935,-0.09151627,0.14722288,0.08617543,-0.13967937,0.048354425,-0.132153,-0.07590532,-0.12609322,0.115760066,-0.0992276,0.0401871,-0.07467321,-0.09990406,-0.030368209,-0.09047497,-0.03644171,0.094809264,0.06666047,-0.036849223,-0.1120278,0.08348475,-0.11145301,0.03778763,-0.13475621,0.032473944,0.043009326,0.09141369,-0.042539455,0.02357973,-0.123475894,0.04829179,0.06514643,-0.10316265,-0.047293752,-0.09610783,0.1204433,-0.042449847,0.08058276,0.07111929,-0.06040182,-0.08558504,-0.119715646,0.13906346,0.095961474,0.10736196,-0.04796978,0.114563935,0.13822894,0.08465836,0.055923957,-0.14078167,-0.13510443,0.09216611,-0.02289976,-0.09299895,-0.051580865,0.16618602,0.07511894,0.07331422,0.047565598,-0.094495155,0.090042405,-0.07639545,-0.08404075,0.046130754,0.05207086,-0.10026281,-0.114297375,-0.044294078,-0.08653971,0.067245655,0.040776752,-0.11818692,-0.060195398,-0.0684266,-0.12239632,-0.07648348,-0.052248508,0.10365364,0.04202257,0.06353601,0.03437254,0.03616641,-0.07017392,-0.06175354,0.103035286,-0.108350776,-0.09872072,-0.075918436,0.0442015,0.10347921,0.027594691,-0.13324511,0.058897153,0.08491286,-0.03814768,0.093662746
0.12407559,0.02706754,0.060632166,0.0873374,0.07271359,0.053558618,0.027758667,0.031297714,-0.08577237,-0.06851958,0.1283594,0.10966363,-0.093271546,-0.0690064,-0.09039062,-0.042316984,0.12826438,0.0777338,0.07433581,-0.121165454,-0.102512814,-0.11030618,0.036977593,-0.07839722,-0.051449403,0.14015687,-0.029123025,-0.036420826,-0.12263238,-0.112699375,0.044331633,-0.043183245,-0.13771017,-0.08836426,0.124446034,0.047070224,-0.06027621,0.025594255,0.0881123,-0.02661408,0.044867426,0.11398917,-0.06984309,-0.12499067,0.0864767,-0.060803067,-0.029212486,0.08947834,0.08276651,0.029470623,-0.08659132,-0.07009519,0.10882662,0.09019892,-0.11574157,0.03054214,0.11986942,0.08770654,0.06807502,-0.08304909,0.06530105,-0.11159298,-0.07065354,-0.13580985,-0.03875473,0.074596226,-0.0403047,0.14474958,-0.06711632,0.11208039,-0.07533828,0.12248384,-0.046861608,0.05897698,-0.05241362,0.10823994,-0.05967612,-0.10575173,0.056786347,-0.11614708,-0.10191565,-0.121662185,0.045530386,0.035850354,0.041751165,0.035491526,-0.101761244,0.041313566,-0.06442723,-0.098919325,-0.12166691,-0.11763417,-0.059377268,0.100411616,0.018752076,0.026055852,0.12269659,0.0692512,0.06662822,-0.117500946,0.15210389,0.08630942,0.027567867,0.056729894,-0.16392834,-0.099447355,0.11717222,0.100584626,0.09316419,0.0636207,-0.107901804,-0.070330344,-0.11517526,-0.022841837,-0.01950956,0.07308748,0.12183235,0.039186127,0.12382198,0.10943089,0.05718562,0.06995022,-0.07634175,-0.071020246,0.11728348,0.07267612,-0.06719561,0.042969923,0.04850482,-0.10500022,-0.13781914,-0.07282163,-0.078302875,-0.1241365,-0.035778385,-0.07640743,0.06377131,0.04854673,0.017129734,0.055397794,0.12065357,-0.05901062,0.1019949,0.05550773,-0.122133076,-0.13151166,-0.015256878,0.08188871,-0.12581289,0.062290594,0.06960721,-0.10963541,-0.14616847,-0.041151423,0.07294006,0.08037872,-0.11184643,0.04648324,-0.10398534,-0.13505605,-0.15863831,0.07863672,-0.073745854,0.09456721,-0.06734427,-0.12179477,-0.115404785,-0.063093156,-0.10949263,0.06904808,0.10148891,-0.06620351,-0.013053283,0.09554522,-0.05264245,0.0857222,-0.08423162,0.07169812,0.115353,0.108968556,-0.066788726,0.053705443,-0.11861004,0.08621349,0.11990952,-0.029134575,-0.0415894,-0.064358905,0.06643557,-0.01881233,0.10482143,0.070033215,-0.100150876,-0.06917204,-0.022115648,0.10219677,0.15467373,0.0563408,-0.068688065,0.021631537,0.092530504,0.108301416,0.028461326,-0.07795212,-0.13956872,0.10768634,-0.02954223,-0.15335087,-0.00075900933,0.19866005,0.03560603,0.086925425,0.024959669,-0.15790924,0.041319016,-0.1007565,-0.10307854,0.086679414,0.07869641,-0.07256776,-0.09851267,-0.06408463,-0.14792323,0.046259865,0.079643525,-0.09318345,-0.049363136,-0.12538986,-0.09321799,-0.10414779,-0.07607239,0.067777574,0.11625403,0.023026407,0.11293939,0.02251953,-0.09376685,-0.04549552,0.0400726,-0.11919797,-0.09231881,-0.085014574,0.08687491,0.04920315,0.10745298,-0.12829626,0.061010655,0.09220232,0.0067837248,0.12234629
0.07002921,0.07768347,0.0737519,0.11306505,0.06612444,0.0673205,0.050404217,0.0364578,-0.10845832,-0.019611625,0.15494089,0.12261004,-0.055806693,-0.0941249,-0.11801351,-0.06309606,0.07809602,0.11318619,0.11991204,-0.10983517,-0.10223547,-0.053760853,0.13125804,-0.07630313,-0.08100757,0.15180014,-0.039119154,-0.14862299,-0.076038115,-0.068603516,0.0951791,-0.07025755,-0.12974508,-0.079907954,0.03620667,0.06469608,-0.12779053,0.11822835,0.08717131,-0.075766124,0.09081923,0.069533646,-0.037522625,-0.087687425,0.0557441,-0.07731635,-0.020228922,0.12233993,0.07954493,0.07680982,-0.09040452,-0.07045013,0.10571084,0.09135372,-0.14023016,0.09447384,0.058321394,0.11730782,0.033392172,-0.1009919,0.065173596,-0.108636506,-0.07729406,-0.07235259,-0.11447692,0.13170536,-0.044068027,0.16300094,-0.09059164,0.095531896,-0.066957384,0.04255562,-0.099924594,0.033173986,-0.08871291,0.06136401,-0.06755698,-0.049394574,0.04322866,-0.05542389,-0.043173287,-0.070263244,0.04776029,0.0960351,0.053867575,0.1483017,-0.14349605,0.13061792,-0.033085424,-0.111750044,-0.058234744,-0.10498709,-0.090354316,0.105442226,0.030913716,0.042265777,0.037272666,0.071017504,0.03510124,-0.06496968,0.13002491,0.11142294,0.027467124,0.106572926,-0.11604486,-0.050107345,0.11336004,0.109294206,0.023766706,0.097392716,-0.031360455,-0.09077947,-0.03785349,-0.095533624,-0.038392346,0.08601454,0.047345158,0.09339403,0.040040217,0.047597654,0.043827478,0.08055644,-0.10339193,-0.10405869,0.089964636,0.060769834,-0.031146275,0.08991771,0.0496438,-0.1370512,-0.0965267,-0.07303079,-0.036261626,-0.08485714,-0.06255014,-0.075056516,0.058237456,0.085291676,0.110525824,0.12773076,0.06482956,-0.122817606,0.08444249,0.0650069,-0.044880956,-0.14694671,-0.084749304,0.09281718,-0.07386129,0.15286449,0.06053891,-0.063569404,-0.11947821,-0.079256676,0.044204477,0.11283137,-0.15443306,0.06348575,-0.10827765,-0.0670362,-0.12663908,0.056215193,-0.1264021,0.03572336,-0.08432812,-0.05864487,-0.09258758,-0.106860824,-0.08340194,0.11030146,0.13381276,-0.06028929,-0.047971778,0.105077215,-0.108044796,0.06983172,-0.09637328,0.10896696,0.028202804,0.059682667,-0.051957242,0.103344105,-0.07516115,0.10539918,0.09065011,-0.06501916,-0.047007352,-0.047086116,0.114528574,0.05458322,0.14289306,0.07802484,-0.09244854,-0.059028696,-0.08894801,0.109948404,0.12242612,0.10537201,-0.061713688,0.052582372,0.12841663,0.103554,0.06079936,-0.1337968,-0.030061048,0.033142727,-0.10522464,-0.10377635,-0.03359399,0.08882364,0.054850876,0.09270471,0.065676786,-0.08467542,0.103476584,-0.053533487,-0.08948772,0.10500996,0.06790856,-0.060150344,-0.05659856,-0.09691568,-0.05997861,0.11809291,0.067716084,-0.08322475,-0.07041252,-0.12586324,-0.1149414,-0.10782332,-0.048921946,0.07890362,0.110627644,0.11162267,0.033587575,0.001958499,-0.041006703,-0.117018394,0.078215316,-0.11650445,-0.08210775,-0.11903419,0.10604166,0.11911122,0.052076746,-0.08455807,0.12182287,0.11040183,0.024170522,0.045000456
0.05600096,0.04264633,0.04055749,0.0369784,0.112788625,0.09091087,0.05925804,0.08104593,-0.053725727,-0.04874342,0.11502663,0.09429613,-0.03490861,-0.048559595,-0.14043218,-0.05969088,0.056222867,0.06731798,0.059071887,-0.05635715,-0.10370729,-0.13146512,0.07235654,-0.07308419,-0.04923728,0.12945382,-0.016541269,-0.06517304,-0.13552791,-0.10884164,0.054544687,-0.09597532,-0.050458334,-0.06324573,0.08411252,0.09821419,-0.043056827,0.10259041,0.028195683,-0.0892126,0.12935147,0.046782125,-0.04162051,-0.1474736,0.06389519,-0.058396026,-0.053355645,0.10813313,0.087157145,0.028529868,-0.040234007,-0.07812177,0.11504859,0.12805536,-0.04356983,0.037288353,0.08603502,0.034799434,0.024122689,-0.01724302,0.11020571,-0.16448879,-0.012777939,-0.12792188,-0.042458028,0.040573478,-0.050318263,0.1017296,-0.11132321,0.047978792,-0.041334994,0.075804904,-0.07261217,0.10452657,-0.124738306,0.062002566,-0.0623345,-0.07916988,0.082139626,-0.08408904,-0.114180535,-0.13339563,0.04131318,0.015052042,0.035771396,0.046387363,-0.118563734,0.034204926,-0.03986817,-0.13174418,-0.047496974,-0.093484946,-0.115318365,0.13331282,0.09874065,0.10850382,0.07347258,0.0739972,0.05203426,-0.04085333,0.11866404,0.10727852,0.09975394,0.048163265,-0.06710466,-0.031729165,0.04947723,0.04497549,0.09363688,0.15992627,-0.036457334,-0.052464776,-0.08613657,-0.044229876,-0.11076671,0.09121076,0.059384868,0.078908816,0.10493602,0.08176224,0.054955196,0.07379198,-0.04802699,-0.061260704,0.109411374,0.1180693,-0.061317913,0.10997507,0.0761854,-0.02930008,-0.0652244,-0.08947067,-0.071441434,-0.0565228,-0.09800687,-0.061597783,0.029980663,0.11145329,0.022425193,0.09367853,0.11817858,-0.050330695,0.1474173,0.02333533,-0.12777425,-0.16848397,-0.011342473,0.05217164,-0.031870842,0.14721814,0.04783022,-0.08982837,-0.15302446,-0.03647172,0.11351092,0.02995935,-0.1688181,0.023532446,-0.08819574,-0.09505446,-0.15324515,0.10718162,-0.0711085,0.09462111,-0.09261752,-0.097724766,-0.08430665,-0.06475682,-0.1076713,0.049453285,0.10961378,-0.07171182,-0.09410294,0.098509796,-0.11205773,0.056806337,-0.1264849,0.09152775,0.09712408,0.018191047,-0.07469711,0.06084041,-0.041739855,0.06302587,0.04235465,-0.090420246,-0.07900956,-0.06549873,0.03703197,0.009625258,0.10132737,0.12381677,-0.109825656,-0.1041027,-0.030275857,0.10106373,0.09216513,0.10357657,-0.07227724,0.057999298,0.17940576,0.08063298,0.08812143,-0.07084161,-0.034669764,0.067565344,-0.04036849,-0.065984584,-0.009665339,0.11022173,0.08384121,0.080221035,0.103844084,-0.10774385,0.11239839,-0.05195018,-0.073929064,0.08793396,0.0514794,-0.095824786,-0.117943764,-0.04400424,-0.11257728,0.13108312,0.02958762,-0.0389484,-0.052654758,-0.120883465,-0.039984114,-0.013790846,-0.05259982,0.118457235,0.068183646,0.07028344,0.063498616,0.007704685,-0.061793353,-0.08950434,0.041152053,-0.045024,-0.092464276,-0.087250836,0.018981477,0.06897935,0.019942543,-0.04436622,0.11522079,0.11646088,-0.05003777,0.08660953
0.14030764,0.05568446,0.09257757,0.07302504,0.061588325,0.07601032,0.106783316,0.04426349,-0.12870927,-0.10220026,0.07736393,0.09500769,-0.06849127,-0.08137034,-0.050866324,-0.105855905,0.1262835,0.03055428,0.079291835,-0.12644131,-0.08124306,-0.07809247,0.032174323,-0.106833056,-0.09489124,0.08210594,0.006883385,-0.08527056,-0.04478482,-0.07689394,0.06941512,-0.05320587,-0.016736621,-0.087505974,0.08027105,0.065821,-0.114874855,0.049640335,0.039563548,-0.10588366,0.10248167,0.09836746,-0.09153496,-0.029192964,0.05301405,-0.06926845,-0.1157409,0.100180045,0.03388189,0.110506974,-0.016698807,-0.10636653,0.07743332,0.114393234,-0.14051364,0.109152704,0.13161169,0.05999026,0.06924448,-0.10755429,0.054227814,-0.104086936,-0.03434644,-0.09750088,-0.09171429,0.07809822,-0.101555526,0.07567354,-0.02896471,0.12882224,-0.09176917,0.04040689,-0.112008005,0.07317992,-0.11688336,0.044567138,-0.03349859,-0.051886126,0.06866993,-0.069547445,-0.124070846,-0.10552687,0.045594428,0.029545164,0.0636,0.031187765,-0.12089666,0.105223194,-0.056322016,-0.10362471,-0.052461267,-0.07440142,-0.054471504,0.11025044,0.07447286,0.058183752,0.063448295,0.043724157,0.0993933,-0.11006154,0.082554534,0.11185876,0.08564369,0.08439613,-0.09995318,-0.066403784,0.11886946,0.07765493,0.09485723,0.106447406,-0.09742177,-0.107114755,-0.12842578,-0.07589257,-0.07456339,0.07094096,0.060369708,0.07418862,0.10476048,0.12153064,0.069282755,0.12177082,-0.119394295,-0.06819723,0.049201872,0.06319267,-0.09300073,0.036036726,0.04994245,-0.10651839,-0.06006439,-0.11838554,-0.04515086,-0.058622897,-0.02750089,-0.060359906,0.035603665,0.08584287,0.093778856,0.08961962,0.084058225,-0.053782705,0.11124706,0.10079349,-0.038757022,-0.14065929,-0.04932898,0.050634973,-0.112010896,0.057682227,0.094131336,-0.03242408,-0.110606186,-0.037179075,0.04765952,0.060280163,-0.08936744,0.06749654,-0.07027431,-0.11681132,-0.08842644,0.107206285,-0.11130029,0.05037386,-0.0669309,-0.12314398,-0.087244906,-0.073051356,-0.12421449,0.10059008,0.10971224,-0.071210265,-0.10975328,0.025519114,-0.11769219,0.03417091,-0.09173755,0.10980151,0.11589844,0.07620427,-0.07606258,0.075202584,-0.08757694,0.07306951,0.11420763,-0.036041174,-0.020926163,-0.08622774,0.10663697,0.006436454,0.05496151,0.051065173,-0.09201665,-0.13945372,-0.083074346,0.052123804,0.1108245,0.046652615,-0.0892427,0.09471069,0.10388472,0.100104555,0.07967509,-0.10921084,-0.0949383,0.007220955,-0.06981053,-0.052535288,0.031567723,0.18425643,0.04276104,0.04347519,0.052206315,-0.035604555,0.08086372,-0.08143376,-0.07575587,0.046509594,0.07176324,-0.09160129,-0.12864932,-0.09712761,-0.14763717,0.03843346,0.11418234,-0.05754818,-0.044030853,-0.08149155,-0.031441737,-0.08576856,-0.08879212,0.058103673,0.079855725,0.098999284,0.1161473,0.01915161,-0.058726158,-0.13626212,0.07576284,-0.044955336,-0.084423296,-0.07177686,0.09499221,0.085211165,0.06972971,-0.109664224,0.06575321,0.111228146,-0.04776266,0.07537811
0.10369209,0.025565162,0.09922622,0.08062797,0.08835379,0.031963624,0.048323464,0.050208095,-0.12780854,-0.033116914,0.14429699,0.11366272,-0.08046694,-0.04150573,-0.079649314,-0.07055404,0.096351884,0.09933362,0.043031845,-0.1412601,-0.12745649,-0.0584782,0.092775725,-0.104669414,-0.03678138,0.15507482,0.020286882,-0.05079476,-0.097165674,-0.06870779,0.07669732,-0.11582979,-0.035119392,-0.119608805,0.09834449,0.042020928,-0.12555538,0.06715468,0.039098717,-0.05996991,0.13315621,0.09751869,-0.017978199,-0.102290444,0.022909967,-0.070628315,-0.028250862,0.031644076,0.11177747,0.094038844,-0.038132846,-0.07031367,0.08535641,0.04412157,-0.044385932,0.06584199,0.058132302,0.06968946,0.08632975,-0.037388735,0.11371089,-0.16267939,-0.1221083,-0.104407564,-0.07478439,0.11225785,-0.042784344,0.07300426,-0.026936453,0.08117029,-0.100582235,0.12029888,-0.070721254,0.07887157,-0.11726334,0.052271143,-0.07819821,-0.06512284,0.10831105,-0.03870748,-0.045863766,-0.06683872,0.033432208,0.019141397,0.04198025,0.12601456,-0.0753716,0.08893131,-0.03419088,-0.1647165,-0.08114913,-0.08260985,-0.12220809,0.105745696,0.08320034,0.051180262,0.10201265,0.041653987,0.0531457,-0.08329671,0.09372945,0.16146974,0.084267035,0.08648436,-0.07104194,-0.12450726,0.10288855,0.08230651,0.08413484,0.11926158,-0.09458825,-0.06756202,-0.04782924,-0.042149335,-0.048183925,0.10040294,0.11263788,0.107759476,0.06021203,0.098762974,0.069740675,0.07056885,-0.109690145,-0.08780714,0.061029196,0.12551902,-0.06589716,0.11634979,0.053637683,-0.130132,-0.09167121,-0.064390056,-0.11189648,-0.088793464,-0.037277397,-0.10321803,0.023090446,0.063658,0.039861754,0.099039815,0.043411132,-0.10828953,0.065173,0.09329861,-0.0649894,-0.11850925,-0.09614465,0.08272552,-0.05325053,0.14419027,0.031163534,-0.040462974,-0.13143103,-0.110874176,0.10587571,0.058835853,-0.11024114,0.03738138,-0.11323044,-0.09456943,-0.07367915,0.04377559,-0.04264476,0.041489985,-0.074234895,-0.04872337,-0.08873765,-0.04411834,-0.12096393,0.078039415,0.10888161,-0.11342035,-0.09200835,0.082437485,-0.040088672,0.055737454,-0.04894993,0.06435218,0.031027772,0.034379326,-0.049620338,0.09556237,-0.10243467,0.09905413,0.12482571,-0.047246095,-0.081713594,-0.106372,0.06603168,-0.022419604,0.07941529,0.06639549,-0.041372344,-0.14467067,-0.060147688,0.103993505,0.11113745,0.06585479,-0.08712268,0.04073552,0.1608058,0.073133096,0.021434994,-0.07940416,-0.11081077,0.04669085,-0.027311338,-0.087782845,-0.076099314,0.14312163,0.053815607,0.0829565,0.11836088,-0.11540157,0.11312225,-0.041621443,-0.102595486,0.065465644,0.03893201,-0.09202071,-0.14488024,-0.055973854,-0.1114425,0.038991373,0.111364804,-0.081079446,-0.035154495,-0.053757243,-0.089420244,-0.06444408,-0.11321432,0.100459814,0.12881015,0.0631435,0.11245565,0.068147756,-0.053434566,-0.12184368,0.075909674,-0.11646468,-0.07906594,-0.1341765,0.060708035,0.10620064,0.021463519,-0.079072386,0.14386775,0.05994917,-0.024595981,0.11235382
0.104327545,0.06756805,0.12357694,0.033023246,0.029368285,0.10306685,0.07729963,0.06911166,-0.036045827,-0.102375865,0.10258411,0.10295218,-0.1011997,-0.059484277,-0.10783599,-0.06205426,0.059406143,0.021846676,0.0874798,-0.11990058,-0.052430823,-0.037976712,0.05663605,-0.10816334,-0.05002991,0.06521238,-0.036294173,-0.09517451,-0.059680074,-0.13635345,0.07062257,-0.03245996,-0.07947961,-0.13604943,0.038906407,0.085935324,-0.08872039,0.055469338,0.055209227,-0.034988593,0.05390855,0.052538175,-0.05363881,-0.060785633,0.067534775,-0.097784534,-0.08213101,0.08897638,0.11278596,0.10144348,-0.075918324,-0.09244303,0.030912671,0.082570605,-0.09344614,0.040328033,0.12461396,0.07739827,0.07166126,-0.09405727,0.090878576,-0.065641016,-0.06318715,-0.07767636,-0.07178029,0.031584073,-0.05904391,0.09017013,-0.08845548,0.091687545,-0.08750677,0.100818396,-0.07535749,0.108848296,-0.021504013,0.10028571,-0.03997548,-0.049696166,0.093350366,-0.09984283,-0.049092047,-0.050328597,0.051774196,0.032794487,0.044104256,0.023325454,-0.14419828,0.09470582,-0.09772716,-0.12931702,-0.11556118,-0.102951296,-0.09143519,0.08100235,0.042744208,0.10485829,0.12381308,0.051592316,0.080826394,-0.06058571,0.15596518,0.05095207,0.09573859,0.033511493,-0.1294561,-0.034444865,0.10650184,0.11048292,0.043385312,0.06452664,-0.047177836,-0.07264061,-0.092348464,-0.030701347,-0.10331311,0.078080796,0.05280276,0.10088514,0.12960155,0.03424208,0.079282485,0.107441016,-0.11496037,-0.04779729,0.07198127,0.05807519,-0.054764427,0.050346643,0.05152573,-0.12199281,-0.111328974,-0.11498271,-0.11967474,-0.06337375,-0.033170458,-0.11459686,0.07297277,0.066878274,0.06337686,0.07867389,0.11231807,-0.09362401,0.061337423,0.085496746,-0.09717278,-0.11655444,-0.036895495,0.13110095,-0.12642448,0.0917354,0.06592538,-0.09676261,-0.10218601,-0.089573555,0.031854704,0.06486942,-0.086381376,0.10507141,-0.05129222,-0.10683609,-0.09320195,0.07047511,-0.1038234,0.070745856,-0.05053027,-0.10496971,-0.034844268,-0.059379738,-0.096393585,0.08273478,0.09105328,-0.10753931,-0.11452264,0.109687574,-0.123659045,0.061081808,-0.119142696,0.07780667,0.045271486,0.074373566,-0.110454015,0.11848055,-0.061448533,0.034621824,0.069739,-0.08857953,-0.09914118,-0.04091936,0.08206349,-0.040873982,0.04199313,0.04591431,-0.056438807,-0.0687592,-0.03196346,0.11628497,0.12202765,0.05105103,-0.029674659,0.07504796,0.1612029,0.034608465,0.105593294,-0.096572705,-0.11007198,-0.0046359957,-0.084362924,-0.10555554,-0.05892146,0.09444642,0.029716082,0.12513395,0.09233214,-0.042125598,0.11774611,-0.06283423,-0.057526834,0.098856844,-0.020560823,-0.11853248,-0.103330426,-0.037639275,-0.12022309,0.10968598,0.08375122,-0.07098404,-0.049617246,-0.056250762,-0.100505605,-0.04240025,-0.108674034,0.07615857,0.11203567,0.07179227,0.030074604,0.028196093,-0.10259015,-0.11659233,0.04123855,-0.074623644,-0.074909754,-0.06633369,0.069708854,0.09394644,0.07412173,-0.078800805,0.119155444,0.0683077,0.025878621,0.08426401
0.13248535,0.0696465,0.10690318,0.027272705,0.059309434,0.12387287,0.040008433,0.06831603,-0.086843885,-0.03201065,0.1514734,0.04569994,-0.10795615,-0.0716646,-0.1254421,-0.063965924,0.059891228,0.08545841,0.024208654,-0.076310046,-0.0783992,-0.062257398,0.083307154,-0.09258554,-0.10235162,0.12529258,-0.005918767,-0.058244403,-0.12081075,-0.060210787,0.072935484,-0.07274029,-0.03483786,-0.10201706,0.037385486,0.0793078,-0.095944755,0.104921356,0.088573605,-0.106224075,0.14103617,0.074553445,-0.049014613,-0.12169436,0.037384238,-0.032918572,-0.045034163,0.09019587,0.046516284,0.080023214,-0.10826894,-0.075248815,0.07291999,0.052404907,-0.124972925,0.050176475,0.12951499,0.10179676,0.07536715,-0.029017264,0.08749223,-0.118024506,-0.10468527,-0.10777382,-0.09786229,0.040953014,-0.042001057,0.14905825,-0.051749423,0.07576485,-0.118599094,0.118137576,-0.11350273,0.03734914,-0.1051126,0.13571069,-0.09108212,-0.024900826,0.049460102,-0.08222604,-0.037878063,-0.095076345,0.05880168,0.08068944,0.077345826,0.10825438,-0.099857934,0.10472559,-0.05260929,-0.14843212,-0.123321325,-0.06207034,-0.11514653,0.13962783,0.090646446,0.08957472,0.053313415,0.09943615,0.07233007,-0.05741904,0.15195636,0.15777306,0.082098484,0.10631026,-0.16202281,-0.04495879,0.054787688,0.094474,0.08676769,0.10755129,-0.107077315,-0.0496305,-0.023970228,-0.079094544,-0.0439446,0.053532124,0.0599319,0.024098407,0.05594987,0.074710004,0.08898181,0.042723916,-0.10850522,-0.036410235,0.039784808,0.13745703,-0.066536084,0.03679776,0.054681394,-0.070594415,-0.05752078,-0.062812336,-0.09066075,-0.066798694,-0.023683963,-0.10684391,0.05245117,0.0523494,0.06295446,0.05721182,0.09560046,-0.10853102,0.06586872,0.045512248,-0.04288268,-0.18404709,-0.012654459,0.10567387,-0.094955586,0.1391915,0.013612963,-0.042833555,-0.15327416,-0.11332174,0.114965014,0.04785787,-0.18901846,0.092315786,-0.10804549,-0.06801472,-0.15196377,0.07825736,-0.05634587,0.10932739,-0.06109352,-0.026004229,-0.091884576,-0.08285092,-0.11176051,0.07523059,0.18584998,-0.026555076,-0.07524867,0.06518297,-0.10277011,0.054444604,-0.076737456,0.090903684,0.07237832,0.07379634,-0.044715427,0.054436814,-0.064750664,0.08321845,0.06458971,-0.104332864,-0.033240788,-0.06386516,0.12230891,0.023668353,0.038029645,0.10119686,-0.09144749,-0.15613201,-0.1177065,0.12823579,0.15758331,0.06745758,-0.113611594,0.082749315,0.13149467,0.07604082,0.07861831,-0.07757845,-0.10053962,0.10083444,-0.09252873,-0.11553382,0.014827006,0.13503936,0.028591467,0.12460095,0.09630712,-0.086184576,0.080858395,-0.048384763,-0.055749346,0.039189998,0.10899752,-0.061029617,-0.10549109,-0.10066732,-0.15649852,0.12871553,0.103650205,-0.10081751,-0.05337825,-0.09323631,-0.07829313,-0.08867222,-0.109930605,0.09860401,0.078826666,0.034727883,0.088858545,0.08477847,-0.029528828,-0.12816535,0.107882015,-0.07833593,-0.15788907,-0.08676364,0.025661465,0.069213256,0.06887199,-0.080238424,0.10597212,0.045166653,0.0094054565,0.07015598
0.13778038,0.06568376,0.0834054,0.06572655,0.096794434,0.013410546,0.098945476,0.040382903,-0.11030166,-0.05729358,0.13566959,0.12214978,-0.09552175,-0.10727695,-0.02742871,-0.11899319,0.064393304,0.087216854,0.029838935,-0.061506163,-0.03164832,-0.06296879,0.08141333,-0.06242242,-0.044170298,0.09495835,-0.050429147,-0.07779606,-0.13024619,-0.04560128,0.08751464,-0.08229905,-0.056636095,-0.07529028,0.11087651,0.06690187,-0.08411119,0.053842757,0.07364961,-0.046646543,0.08868538,0.06514878,-0.09110735,-0.0464614,0.0543354,-0.1182494,-0.05638978,0.04570166,0.06058958,0.08049319,-0.07173174,-0.13102493,0.09325875,0.1345881,-0.15038823,0.027969826,0.070801705,0.021826591,0.0695639,-0.03413659,0.051386673,-0.10007471,-0.11756228,-0.1030114,-0.106832944,0.09197731,-0.05966738,0.10189349,-0.021287223,0.11604846,-0.088070445,0.15038365,-0.06253352,0.065792255,-0.111593895,0.122446485,-0.026725018,-0.039984975,0.053537905,-0.041200276,-0.051976934,-0.0796037,0.11761162,0.017602999,0.10681311,0.12706141,-0.06846062,0.100149274,-0.098619804,-0.100356184,-0.088588566,-0.062272944,-0.039499506,0.09941618,0.05133627,0.02832925,0.13685866,0.084986836,0.054719828,-0.07173125,0.16117586,0.13309787,0.029571913,0.06940759,-0.09772394,-0.115705006,0.040693596,0.030582987,0.098706454,0.11428193,-0.02981841,-0.10508497,-0.03673771,-0.040209897,-0.071162425,0.08261418,0.12795433,0.06348866,0.13809535,0.11237788,0.03285278,0.10726662,-0.11083972,-0.041731536,0.07487105,0.14914878,-0.087248266,0.11488964,0.10692775,-0.110967904,-0.021101931,-0.07308207,-0.07004372,-0.09713518,-0.0911952,-0.062675975,0.034973938,0.07525509,0.059791736,0.091513306,0.10092107,-0.081923746,0.13282908,0.09315084,-0.11960805,-0.06216752,-0.08345747,0.08002736,-0.08607773,0.06897894,0.098895185,-0.08712263,-0.11749409,-0.03543143,0.07124598,0.10668242,-0.19277687,0.061944667,-0.0740313,-0.080734335,-0.12986088,0.04582265,-0.042482056,0.10381559,-0.025671165,-0.10582104,-0.053108573,-0.045190476,-0.09968245,0.061499216,0.10113871,-0.08335034,-0.06858317,0.04757741,-0.07863075,-0.01140068,-0.052894067,0.064529695,0.05004727,0.023166222,-0.07679567,0.07055454,-0.12518235,0.10344561,0.05988631,-0.06738316,-0.09323285,-0.027653672,0.11989865,-0.02607159,0.10935925,0.08989505,-0.12696105,-0.1398697,-0.038815137,0.109781705,0.07871584,0.060316257,-0.028951678,0.07423367,0.12617798,0.035708353,0.10660842,-0.07071315,-0.114868924,0.052727878,-0.07978806,-0.071331166,-0.04663896,0.108427405,0.030592224,0.109743744,0.06509923,-0.08228226,0.03876483,-0.086685374,-0.027698724,0.013532583,0.061462563,-0.067040265,-0.07676482,-0.088903904,-0.096917875,0.08171242,0.042648446,-0.08522488,-0.0913914,-0.104394995,-0.026587335,-0.048696157,-0.08942577,0.07769641,0.113252856,0.016069843,0.038730178,0.060254604,-0.042134542,-0.098017804,0.050945096,-0.021479921,-0.07182714,-0.065728866,0.053114634,0.056264907,0.100503884,-0.070832044,0.056543518,0.11064281,-0.008706391,0.03268477
0.06294858,0.06511042,0.09739835,0.14186218,0.06484899,0.09104018,0.035399944,0.05744218,-0.08535025,-0.10036687,0.07550809,0.08403762,-0.09092982,-0.10807061,-0.08137231,-0.08559279,0.05164124,0.10921788,0.07456127,-0.11375232,-0.03350764,-0.10149173,0.10774407,-0.090589486,-0.082056284,0.12490581,-0.023765137,-0.071237974,-0.056158364,-0.14035264,0.08414364,-0.10696886,-0.045799587,-0.11105111,0.024723377,0.098003544,-0.06551909,0.063640706,0.05698471,-0.103140645,0.08364719,0.11062299,-0.10412074,-0.105489515,0.03082557,-0.06899348,-0.0545979,0.08223244,0.11021305,0.09790818,-0.086805895,-0.044322964,0.06912747,0.04363208,-0.04764695,0.07067005,0.067589715,0.11100865,0.10973136,-0.048831962,0.08303469,-0.09392403,-0.07581965,-0.08374423,-0.046483506,0.08442739,-0.103642546,0.05786101,-0.03001254,0.13262118,-0.09466434,0.12729509,-0.050307184,0.056376733,-0.09136088,0.06256877,-0.043168798,-0.108875714,0.11812284,-0.11979332,-0.09589398,-0.041274875,0.060345892,0.036834154,0.098610185,0.07191591,-0.11611435,0.097686134,-0.0705962,-0.10226802,-0.13348442,-0.099451646,-0.04191492,0.07995537,0.03877866,0.03882587,0.05112291,0.101157665,0.038183212,-0.033336423,0.17017648,0.07300758,0.079721995,0.116969734,-0.09952999,-0.042242914,0.04570706,0.07423085,0.08848753,0.06999083,-0.118162885,-0.035367668,-0.12951572,-0.028230527,-0.071375765,0.044872627,0.12139257,0.105292484,0.08697433,0.04195854,0.044354532,0.08408366,-0.10954538,-0.04347248,0.08724569,0.118548505,-0.07290594,0.038813666,0.12656373,-0.08209187,-0.11002212,-0.04883011,-0.046564817,-0.06619216,-0.021155313,-0.118897684,0.10528054,0.04095878,0.024179306,0.08373488,0.044620458,-0.05470787,0.09012692,0.0717,-0.03945093,-0.14208387,-0.1130314,0.12698233,-0.07329193,0.0687279,0.072285414,-0.09339914,-0.0742255,-0.09082984,0.128227,0.10383292,-0.1307808,0.027517496,-0.06394177,-0.122673705,-0.059623852,0.056186717,-0.08136114,0.097789794,-0.13089041,-0.053955015,-0.08044618,-0.10673865,-0.06969044,0.03494349,0.091611534,-0.059146013,-0.04126354,0.09463769,-0.12239654,0.024983544,-0.084959395,0.05888056,0.04397951,0.04974341,-0.07323431,0.06781544,-0.100986876,0.05756103,0.08446207,-0.084926315,-0.12116494,-0.101815216,0.056600664,0.035269763,0.035764623,0.09410225,-0.05050383,-0.1027782,-0.114224166,0.11835434,0.12169649,0.0919285,-0.074113026,0.100652024,0.09442992,0.05446972,0.105151795,-0.038207583,-0.06317963,0.07288112,-0.10203805,-0.072211236,0.0053567947,0.15123588,0.112543486,0.065133244,0.037198544,-0.124463774,0.10412379,-0.055772606,-0.09600976,0.08925999,0.102657795,-0.11986027,-0.10780306,-0.061182197,-0.097869344,0.065835856,0.078849785,-0.07279647,-0.05211529,-0.10072468,-0.055131186,-0.11334695,-0.09620632,0.013365917,0.0863864,0.110647045,0.068286344,0.07796461,-0.06289448,-0.03882422,0.103283,-0.07267619,-0.043266773,-0.14141658,0.03466858,0.055729736,0.0815987,-0.055439398,0.15090227,0.11816664,-0.03244688,0.048063558
0.124705665,0.08024887,0.07572639,0.047901243,0.061301526,0.09246384,0.068176135,0.072539404,-0.041575376,-0.021769173,0.12548058,0.021527201,-0.056321643,-0.08115374,-0.10403128,-0.07945346,0.15280405,0.057559416,0.0988665,-0.12779689,-0.11125332,-0.049411356,0.049678333,-0.034468677,-0.062145393,0.09383011,-0.041762594,-0.10345853,-0.05996862,-0.07692934,0.082639515,-0.12081444,-0.037356034,-0.12050349,0.04105967,0.08026702,-0.11316814,0.090138055,0.043519337,-0.02992205,0.09624608,0.06757448,-0.08822197,-0.10571419,0.10898119,-0.12668923,-0.09783291,0.10093981,0.08087935,0.06611332,-0.075615995,-0.10260965,0.047161568,0.11596533,-0.12931587,0.12933028,0.12359596,0.07148891,0.07457868,-0.09471761,0.07636906,-0.1673594,-0.12201538,-0.13461089,-0.055915564,0.04805532,-0.09297841,0.14863065,-0.09355177,0.042354673,-0.039296106,0.055961,-0.082835175,0.061715905,-0.05601235,0.12937197,-0.0977286,-0.06265808,0.09373533,-0.059429098,-0.09388969,-0.08677193,0.053762477,0.0759943,0.08343662,0.07355521,-0.044662755,0.10171814,-0.10384362,-0.12329253,-0.04475599,-0.04120544,-0.0903775,0.10387143,0.055409666,0.0575122,0.070285335,0.038894784,0.02697377,-0.100957006,0.08989292,0.064865306,0.05464378,0.11066191,-0.063800745,-0.024352256,0.09556306,0.09767059,0.09153931,0.13431366,-0.031730767,-0.029603431,-0.115862474,-0.07351615,-0.03003639,0.048046008,0.12173178,0.09668942,0.12946634,0.077570245,0.05591864,0.087522715,-0.06480978,-0.12127953,0.11315997,0.1361791,-0.11554243,0.04026874,0.03727125,-0.05071407,-0.05342588,-0.07015236,-0.078456365,-0.09976675,-0.061292373,-0.055549428,0.0895211,0.108725764,0.043432187,0.090046085,0.029502716,-0.0629371,0.13441648,0.036794677,-0.11014633,-0.11341861,-0.03867233,0.032766473,-0.12570442,0.13122536,0.04656371,-0.048638057,-0.10036157,-0.10326442,0.04884535,0.098046154,-0.17979902,0.02613283,-0.10076101,-0.065324135,-0.08725855,0.09816078,-0.10198292,0.058710765,-0.06245406,-0.1149308,-0.1064304,-0.07435272,-0.04727171,0.05139739,0.11649165,-0.04013566,-0.060428917,0.06993404,-0.06321211,0.033086132,-0.083019026,0.09600494,0.12132551,0.046936825,-0.10247506,0.11430126,-0.08329154,0.030985953,0.06377854,-0.08914802,-0.1104702,-0.11821446,0.11162276,0.01665962,0.100070246,0.07701244,-0.12510239,-0.08265974,-0.07560198,0.12708315,0.059574265,0.11482542,-0.041291855,0.057417378,0.16177405,0.05713443,0.111037634,-0.14056315,-0.10910431,0.0900083,-0.09524277,-0.09995059,0.029269034,0.051703397,0.03594656,0.11750578,0.029311122,-0.08477409,0.07472663,-0.051244818,-0.05116241,0.05898941,0.07168315,-0.03730638,-0.0855679,-0.07550839,-0.13203923,0.1099314,0.0766182,-0.110499114,-0.10325875,-0.08343633,-0.047912493,-0.058240015,-0.11039156,0.051697288,0.09128425,0.066890724,0.026452709,0.03317157,-0.089335814,-0.085427105,0.030841045,-0.1186223,-0.10829709,-0.1039746,0.04957777,0.114415176,0.081244305,-0.13041255,0.07558764,0.09427254,-0.032491527,0.055931844
0.04809768,0.06797628,0.11019179,0.08044479,0.12620072,0.13525978,0.09445716,0.104969665,-0.090505004,-0.04845455,0.06594946,0.09905758,-0.07221091,-0.11617195,-0.112657554,-0.057646442,0.11478055,0.1337925,0.11627552,-0.12101796,-0.052867137,-0.11253128,0.13512795,-0.05564562,-0.07810995,0.1634102,0.021727566,-0.045493186,-0.09503143,-0.11748001,0.042291943,-0.10757175,-0.113798924,-0.1049671,0.08860867,0.08362724,-0.06822421,0.075577654,0.045422964,-0.11092191,0.119353645,0.06070257,-0.030485949,-0.16069672,0.088932194,-0.07280096,-0.067426026,0.044924226,0.12261203,0.08554693,-0.04694455,-0.09246531,0.10204603,0.09359724,-0.13433981,0.03764583,0.06692628,0.121923305,0.069859475,-0.088150516,0.11182799,-0.1259772,-0.04367123,-0.05866033,-0.04510742,0.049555227,-0.119089395,0.075926855,-0.04587374,0.04004798,-0.051123712,0.08027107,-0.0628039,0.04192002,-0.11125034,0.090561375,-0.069734946,-0.05623549,0.030897621,-0.0957733,-0.05141835,-0.13839187,0.10737675,0.09157282,0.04897452,0.12981266,-0.07940029,0.12943524,-0.02630093,-0.08199653,-0.14547022,-0.051644903,-0.052404266,0.04581117,0.051251587,0.04011369,0.13681436,0.08788515,0.083966024,-0.04080024,0.0806227,0.079336435,0.07310848,0.123562455,-0.13430437,-0.06715952,0.112006776,0.10775864,0.04884584,0.049468137,-0.082445115,-0.09514412,-0.09731265,-0.115886465,-0.08830186,0.14055061,0.065267876,0.07527232,0.08414975,0.08460949,0.102724485,0.02531849,-0.1077871,-0.10132401,0.09725009,0.13138267,-0.07415629,0.07624619,0.09907117,-0.06961008,-0.06089374,-0.04123009,-0.046116985,-0.090183266,-0.034201115,-0.0933373,0.09005147,0.119979516,0.08288066,0.0504617,0.13062418,-0.04287224,0.14802928,0.03862186,-0.09710973,-0.07433914,-0.023936292,0.110892855,-0.12249967,0.12116832,0.11267025,-0.04298889,-0.059572257,-0.04613401,0.11333393,0.04436708,-0.14538448,0.07730123,-0.063760564,-0.09996603,-0.0928795,0.037529822,-0.112599395,0.077067085,-0.08598913,-0.078529686,-0.12308173,-0.05595912,-0.11779832,0.08408475,0.17320846,-0.061739467,-0.10907626,0.04762079,-0.10090294,-0.0114490595,-0.10972641,0.044719655,0.11632958,0.039221767,-0.058892783,0.07034318,-0.04090512,0.052381236,0.04759173,-0.057060078,-0.09574202,-0.042368703,0.054890424,0.01303063,0.05113333,0.047530524,-0.07860793,-0.05915403,-0.048471745,0.07239023,0.12837508,0.05968235,-0.0842984,0.060963836,0.0643391,0.10301268,0.10633349,-0.13006239,-0.081759766,0.032019813,-0.107187554,-0.12730145,-0.0034489331,0.098302186,0.045223877,0.074975304,0.04113651,-0.040767282,0.043591168,-0.031170445,-0.05181963,0.08224719,0.04780717,-0.04236484,-0.1378971,-0.09508738,-0.055618394,0.06321195,0.08961364,-0.10968097,-0.035678446,-0.13239339,-0.076100804,-0.07616713,-0.13282382,-0.0018461721,0.1067368,0.03201909,0.06654193,-0.0007712653,-0.0876816,-0.08815341,0.023669843,-0.07324127,-0.104085736,-0.09894306,0.103945464,0.11758231,0.08316475,-0.06176353,0.10240958,0.060539763,-0.015307198,0.06388642
0.29475367,0.23072311,0.24188647,0.249903,0.2088212,0.27695963,0.23029824,0.21430287,-0.24068797,-0.22859067,0.29597884,0.20282374,-0.2491063,-0.20311372,-0.21085872,-0.23183134,0.31387943,0.26637125,0.23641224,-0.2452308,-0.26156205,-0.22824314,0.22177057,-0.23849209,-0.21806243,0.27952516,-0.08838201,-0.25218076,-0.2630247,-0.26387346,0.21638605,-0.27801654,-0.2692257,-0.25695214,0.216804,0.25585517,-0.21357968,0.23403983,0.23098251,-0.23240615,0.26501822,0.2486099,-0.21775326,-0.3012237,0.23794195,-0.24942963,-0.19848014,0.22380379,0.22367798,0.2490959,-0.22343983,-0.26665145,0.27802634,0.22946769,-0.2478525,0.24999103,0.24341916,0.22661377,0.19639231,-0.22700764,0.28219974,-0.32027388,-0.20966826,-0.24438913,-0.2395878,0.22747947,-0.23661159,0.26730648,-0.21013114,0.27793667,-0.26061627,0.25890622,-0.21527267,0.23532493,-0.25843614,0.23754324,-0.24729247,-0.2338596,0.2576667,-0.25476438,-0.23189199,-0.24756269,0.2524968,0.24181,0.22879565,0.26765838,-0.3330354,0.21116301,-0.20631583,-0.37156758,-0.2249692,-0.23460764,-0.22636357,0.19798347,0.2520498,0.22209829,0.26860937,0.24099721,0.21244816,-0.24453177,0.3818742,0.33481103,0.20837696,0.2101848,-0.3005943,-0.22671491,0.20618013,0.21438238,0.24307418,0.22435433,-0.2568279,-0.20939268,-0.24016689,-0.23739928,-0.2348219,0.22937497,0.27276832,0.21585062,0.26656657,0.21702835,0.25917208,0.2149089,-0.24886017,-0.20713149,0.20609856,0.25190854,-0.26465917,0.23161381,0.2541323,-0.23483345,-0.30479482,-0.22984321,-0.20319661,-0.25412998,-0.21142098,-0.22789754,0.21688454,0.25295997,0.21478207,0.20857506,0.25685102,-0.24959499,0.2947888,0.20251119,-0.2475643,-0.33596703,-0.19742039,0.26479632,-0.22344115,0.25531924,0.20599084,-0.24530305,-0.35271284,-0.20110518,0.20077446,0.22719094,-0.37932605,0.2064576,-0.30282867,-0.2926538,-0.28157452,0.25135282,-0.24973886,0.2243003,-0.20736806,-0.20828815,-0.21581878,-0.2823099,-0.2121323,0.22789676,0.45999008,-0.23716892,-0.21268637,0.2648329,-0.20902665,0.13631642,-0.25458667,0.23605233,0.2263372,0.20672192,-0.20751613,0.26649863,-0.21144824,0.22296198,0.2225362,-0.2390494,-0.21122639,-0.23732294,0.1949786,-0.020014312,0.25069517,0.24926,-0.2749969,-0.28094795,-0.23192416,0.3164731,0.30044374,0.25225917,-0.21584511,0.23946501,0.32950535,0.24980746,0.21448536,-0.22259858,-0.2642751,0.10465547,-0.2105274,-0.3213675,-0.0075524575,0.4779976,0.22303452,0.23517115,0.22220209,-0.27422294,0.23624706,-0.257151,-0.26198193,0.22001415,0.20051754,-0.21678583,-0.289273,-0.19506058,-0.37521487,0.2941985,0.2168651,-0.29468384,-0.23256786,-0.22947481,-0.2535573,-0.22413471,-0.21786946,0.20399931,0.24856208,0.21407408,0.22362939,0.07524797,-0.232217,-0.25609353,0.21080266,-0.22894186,-0.28086463,-0.29756865,0.22156306,0.24775058,0.20976545,-0.25996813,0.28945982,0.274602,-0.045876134,0.22864947
0.039307587,0.09550655,0.060387973,0.059491068,0.112580724,0.027491208,0.072937265,0.11155804,-0.04457668,-0.10458819,0.116285175,0.119065076,-0.10807375,-0.07236192,-0.13126394,-0.10195508,0.112509534,0.072094776,0.05661653,-0.108397186,-0.052823544,-0.10725597,0.06280131,-0.057413526,-0.03657409,0.06530158,0.0058218385,-0.044670798,-0.08047886,-0.08008943,0.0622186,-0.1170358,-0.11149115,-0.0548974,0.035173412,0.11674438,-0.031441092,0.039584853,0.06528257,-0.114612035,0.07691394,0.10900438,-0.08570362,-0.09171577,0.023746334,-0.10474137,-0.07976039,0.08456827,0.07170678,0.06295951,-0.09976259,-0.086347975,0.052128986,0.10532059,-0.056908812,0.07699631,0.09996981,0.08467703,0.10473833,-0.06877662,0.086547695,-0.099481195,-0.09086136,-0.11309665,-0.12564117,0.11905121,-0.09007519,0.09615019,-0.09360145,0.10485399,-0.061433677,0.11544521,-0.050493065,0.10674893,-0.07719865,0.08011734,-0.054522887,-0.046236366,0.06939824,-0.10473874,-0.09331053,-0.065747246,0.116137214,0.08497174,0.097936146,0.052478448,-0.07421023,0.04951353,-0.10586898,-0.10597929,-0.04498437,-0.08025097,-0.047869667,0.1286726,0.041611187,0.11333619,0.031209225,0.040232677,0.04126846,-0.086484134,0.1148615,0.12479969,0.09098578,0.040308155,-0.14243035,-0.049590345,0.10384669,0.05564302,0.113787815,0.11660801,-0.06220441,-0.07383929,-0.02981224,-0.10626253,-0.032061446,0.061220273,0.09374097,0.10765545,0.051820796,0.07359294,0.037050284,0.056516007,-0.06836781,-0.09602147,0.055498764,0.13489048,-0.02397432,0.118456304,0.09950559,-0.10768552,-0.06585857,-0.087353215,-0.028003624,-0.07998435,-0.03467988,-0.073240355,0.03391962,0.09437398,0.074966885,0.047709525,0.119262084,-0.021180492,0.09617411,0.10523106,-0.12717031,-0.06381149,-0.11597531,0.045294266,-0.045849666,0.065364525,0.06605,-0.082509026,-0.071044445,-0.10159964,0.05644895,0.046496782,-0.14243746,0.11379714,-0.118236445,-0.09650853,-0.10983796,0.036377657,-0.055550884,0.1006263,-0.08495486,-0.11909443,-0.026520493,-0.08417014,-0.08025724,0.055905044,0.14341266,-0.08414545,-0.0653491,0.069474705,-0.09187416,0.06533574,-0.03666348,0.11662197,0.09922673,0.07526986,-0.039868005,0.10762062,-0.0582894,0.05985452,0.086332284,-0.027249083,-0.0944554,-0.052857716,0.10285268,0.034664225,0.06850345,0.057708845,-0.06940779,-0.06268923,-0.04082649,0.050493773,0.11716136,0.029483933,-0.033636335,0.0829753,0.12218376,0.11089016,0.10122775,-0.055176076,-0.082690425,0.09516694,-0.030041875,-0.08895446,-0.01995969,0.17071676,0.03476774,0.123981506,0.107651316,-0.038911093,0.048911728,-0.023623565,-0.0837623,0.07288297,0.058625665,-0.093928866,-0.12465424,-0.06848401,-0.043550733,0.05427593,0.11580782,-0.030865738,-0.018356666,-0.104965426,-0.039442856,-0.1128621,-0.04876266,0.088803455,0.0771668,0.11097592,0.028936254,0.0060801785,-0.12210163,-0.05736517,0.07076303,-0.07831229,-0.08993873,-0.03148892,0.09128897,0.093922734,0.114517204,-0.09454988,0.082842946,0.058977228,-0.05960754,0.04902041
0.07955242,0.05314629,0.062561385,0.088278666,0.05620338,0.07896054,0.059974834,0.1051959,-0.13458894,-0.03264063,0.0693459,0.087120906,-0.04994236,-0.09469198,-0.10910914,-0.059924394,0.13622226,0.08377533,0.044703506,-0.06639746,-0.09198178,-0.09625125,0.07236376,-0.019457247,-0.05317371,0.067477174,-0.03752482,-0.055668846,-0.061348002,-0.12086687,0.028620878,-0.09768468,-0.08535473,-0.075696625,0.028740585,0.06800504,-0.037603837,0.071497366,0.114691675,-0.04518899,0.07276642,0.057453826,-0.0712741,-0.066153415,0.05410636,-0.078516394,-0.033118434,0.114846624,0.07593357,0.106380776,-0.08645425,-0.06686435,0.088205986,0.12629123,-0.06571485,0.0684692,0.06751648,0.075961344,0.070833765,-0.036310308,0.12322139,-0.16595887,-0.09398451,-0.059235845,-0.11752375,0.045178235,-0.041727886,0.09790158,-0.0433716,0.033794753,-0.11363233,0.13362783,-0.03405802,0.041725487,-0.023391886,0.10392746,-0.06367318,-0.116135255,0.025483254,-0.09914882,-0.09470836,-0.12928785,0.06737182,0.022205453,0.052647974,0.11186127,-0.042590033,0.053625394,-0.038341682,-0.08532371,-0.1332892,-0.110838845,-0.11580036,0.08318331,0.12463599,0.06691058,0.036191765,0.06550748,0.11917822,-0.045529254,0.109459765,0.08796818,0.09733396,0.05430799,-0.110947,-0.120577075,0.124670275,0.08346692,0.035936303,0.093339905,-0.033886753,-0.076305814,-0.08469863,-0.1206426,-0.06332264,0.10204177,0.05455633,0.07127058,0.055771276,0.074239224,0.11005501,0.07225859,-0.04590418,-0.12278397,0.03516729,0.12970568,-0.09412023,0.06902843,0.036274035,-0.059410773,-0.048422832,-0.057916015,-0.086414784,-0.114564784,-0.07075227,-0.1220883,0.07912701,0.08943395,0.112102725,0.061790463,0.083126605,-0.08362446,0.07939972,0.03413753,-0.06491821,-0.0573705,-0.11514385,0.07651164,-0.12350069,0.06977847,0.032549586,-0.031216392,-0.102824785,-0.11103392,0.111496024,0.042092122,-0.15654714,0.09909717,-0.096689716,-0.06509997,-0.13197158,0.04492584,-0.062080152,0.06956125,-0.11138173,-0.06869396,-0.055832032,-0.060407676,-0.09726977,0.030902233,0.088253595,-0.06908237,-0.062703565,0.023679042,-0.05970207,0.019175641,-0.0343653,0.03153794,0.11182975,0.068038374,-0.07373983,0.05534441,-0.09832115,0.04613996,0.06095531,-0.09343748,-0.09716663,-0.02454283,0.09576064,0.0378293,0.072540455,0.075063035,-0.07533751,-0.06694675,-0.075078,0.12824924,0.13822535,0.0426602,-0.10184305,0.10642495,0.14670713,0.11671701,0.0607672,-0.038249448,-0.097448215,0.091414265,-0.0907378,-0.06488898,-0.061469696,0.15614761,0.09263697,0.08219134,0.06742188,-0.019502692,0.058027778,-0.09677849,-0.08404872,0.10256895,0.05273201,-0.10281283,-0.099542156,-0.082022466,-0.12432859,0.08043688,0.021895899,-0.1145672,-0.043391842,-0.06368455,-0.103283376,-0.04312127,-0.048794497,0.011493375,0.12939245,0.11693582,0.026817668,0.019064775,-0.11725737,-0.116380796,0.08161108,-0.07875231,-0.055590708,-0.08357382,0.03632758,0.044964235,0.08356791,-0.13420856,0.088937625,0.075939886,-0.032889955,0.11848439
0.12098648,0.09482407,0.110373914,0.08857928,0.07747569,0.024928065,0.064063296,0.05982067,-0.040185284,-0.041690458,0.12802051,0.060552668,-0.092091046,-0.061942667,-0.026082693,-0.12591827,0.072968975,0.09963826,0.035005007,-0.13073003,-0.003936903,-0.09410363,0.08507426,-0.0189216,-0.093374915,0.12075053,-0.03967667,-0.06319366,-0.12860054,-0.08891854,0.025644492,-0.07036383,-0.07253269,-0.070018895,0.085824914,0.09589264,-0.10644431,0.053348675,0.09233227,-0.06413294,0.021169975,0.0732605,-0.069402605,-0.10568285,0.036625765,-0.08997928,-0.09054126,0.106907785,0.06933268,0.03294255,-0.06715112,-0.084042765,0.13081619,0.050015066,-0.12807927,0.03323464,0.052728616,0.044018533,0.058476064,-0.10839643,0.042022444,-0.1338837,-0.022757208,-0.042049196,-0.12001313,0.10167302,-0.03082358,0.04592052,-0.051201828,0.045180514,-0.09652619,0.11703169,-0.02388561,0.07983763,-0.09151139,0.12323591,-0.11450918,-0.103317484,0.10507053,-0.05980543,-0.11932988,-0.07498073,0.050077833,0.0862639,0.056559265,0.057560254,-0.15169488,0.119622,-0.050699603,-0.09441831,-0.12862493,-0.06487551,-0.07106646,0.09047567,0.05777729,0.02383239,0.0745325,0.0515291,0.11749763,-0.043262057,0.13535275,0.113441795,0.10487136,0.11773658,-0.12692186,-0.112817094,0.045166224,0.098243,0.10348873,0.072102994,-0.02610229,-0.053884905,-0.0539082,-0.059885003,-0.06313853,0.052679405,0.07434753,0.09277405,0.09393888,0.10436435,0.08510064,0.091509104,-0.08034007,-0.114536874,0.03882582,0.047018975,-0.06378098,0.045901407,0.056561463,-0.046756458,-0.058973864,-0.029184576,-0.11005419,-0.08468386,-0.046287462,-0.102213845,0.054139495,0.031314667,0.023581468,0.101442516,0.07165859,-0.024637671,0.1082708,0.07975919,-0.08887913,-0.090456486,-0.06912302,0.110696636,-0.11477347,0.114537954,0.02057642,-0.030876655,-0.10348616,-0.028240792,0.08976944,0.11305101,-0.12368934,0.0936519,-0.050300017,-0.08077968,-0.10928736,0.09631312,-0.05151836,0.08743846,-0.049685642,-0.11943793,-0.10122535,-0.12015805,-0.10271076,0.07715969,0.1305567,-0.07670887,-0.09865715,0.04110919,-0.09648021,0.048311442,-0.11072072,0.086233154,0.0723993,0.08147451,-0.09842347,0.06723307,-0.0642326,0.111417346,0.10028353,-0.101336844,-0.055843193,-0.034456726,0.079082474,-0.029644333,0.07679422,0.05482833,-0.026983907,-0.092946425,-0.021070005,0.08430667,0.10362861,0.087899,-0.042076223,0.08554942,0.1196659,0.039680492,0.07348002,-0.033337608,-0.079322636,0.045765914,-0.09701771,-0.06835488,-0.024276529,0.1594999,0.11036294,0.06513434,0.0912607,-0.06644241,0.055785745,-0.05861323,-0.11651504,0.062227122,0.031442665,-0.059747495,-0.08249762,-0.08083239,-0.110077105,0.07632124,0.073998615,-0.051177308,-0.040066905,-0.08408827,-0.06172994,-0.047460336,-0.036297813,0.084730074,0.034560904,0.11040301,0.03572177,0.020498395,-0.08651166,-0.10628442,0.11414214,-0.042191822,-0.060844474,-0.101832725,0.10661948,0.119224034,0.10926917,-0.112855844,0.14494582,0.04975144,0.014111877,0.06959781
