0,1,2,3,4,5,6,7,8,9,10,11,12,13,14,15,16,17,18,19,20,21,22,23,24,25,26,27,28,29,30,31,32,33,34,35,36,37,38,39,40,41,42,43,44,45,46,47,48,49,50,51,52,53,54,55,56,57,58,59,60,61,62,63,64,65,66,67,68,69,70,71,72,73,74,75,76,77,78,79,80,81,82,83,84,85,86,87,88,89,90,91,92,93,94,95,96,97,98,99,100,101,102,103,104,105,106,107,108,109,110,111,112,113,114,115,116,117,118,119,120,121,122,123,124,125,126,127,128,129,130,131,132,133,134,135,136,137,138,139,140,141,142,143,144,145,146,147,148,149,150,151,152,153,154,155,156,157,158,159,160,161,162,163,164,165,166,167,168,169,170,171,172,173,174,175,176,177,178,179,180,181,182,183,184,185,186,187,188,189,190,191,192,193,194,195,196,197,198,199,200,201,202,203,204,205,206,207,208,209,210,211,212,213,214,215,216,217,218,219,220,221,222,223,224,225,226,227,228,229,230,231,232,233,234,235,236,237,238,239,240,241,242,243,244,245,246,247,248,249
-0.11703138,-0.17960961,-0.0689297,0.20511954,-0.062416185,0.027648823,-0.20922433,-0.1371296,-0.090794854,0.017672295,-0.122183725,-0.06424646,0.09038173,-0.12670608,0.03916217,-0.13066463,-0.008648993,-0.10145954,-0.08698956,0.17128149,-0.107108906,0.036875136,0.024536546,0.1620422,-0.11129906,0.011520282,0.15627271,-0.26050258,-0.07409347,-0.0384463,0.043758813,-0.10888986,-0.020102583,0.032043815,-0.24658674,-0.1309412,0.17821223,-0.056695912,-0.1312109,0.16581447,-0.062271815,0.0868453,0.17791371,-0.058434654,0.120327555,0.12832007,-0.16095175,0.12587446,0.038128845,-0.05605326,-0.034750503,-0.07461646,0.23236802,0.04808545,-0.08561454,-0.07558347,0.16678919,0.012681043,0.112927556,-0.043559078,-0.1258874,-0.038353253,0.1689854,0.0735576,0.15994789,-0.047644544,0.038576603,-0.16459168,0.029590035,-0.19472244,0.16780683,0.07023289,-0.1199539,-0.13155232,-0.22387964,0.13317065,-0.13555235,-0.065833695,-0.11767589,-0.04748745,-0.014272181,0.2442703,0.072467245,0.14089757,0.036518477,-0.0024706633,0.2346259,-0.14679134,-0.17544107,0.11812644,0.06653472,-0.11309108,-0.0751236,-0.038764562,0.06758084,-0.027288139,-0.14761963,0.17407276,-0.105967715,0.031044133,-0.17205319,0.019076986,-0.18422765,-0.16339198,0.22229733,-0.035761904,0.112656035,0.026908997,0.17257272,-0.19614094,-0.011716453,0.04766309,0.12856425,-0.056093864,-0.07162745,0.062064573,0.25414425,0.09594474,0.02468427,-0.12040428,-0.14246094,-0.026534837,0.0035947142,0.19818877,-0.00791499,-0.16351858,0.09349288,-0.11575206,-0.100223005,0.16242278,-0.10193225,0.13396497,-0.015425383,-0.0464841,0.20836887,-0.08316183,-0.10051516,-0.051258657,-0.10428582,-0.14973143,0.012292186,0.13830584,-0.11421383,-0.009279213,-0.16721795,0.17070918,0.1905456,-0.13149884,0.031571314,0.086194165,0.15928204,0.10630241,-0.16221857,0.029280556,-0.005427649,0.106204554,0.011904044,-0.10621638,-0.106977776,-0.07170038,0.014950518,0.19155595,-0.050980207,-0.15295282,0.008550165,-0.04537612,-0.19544366,0.12449155,-0.15202521,0.20678736,-0.0807101,0.0004831644,-0.14381352,-0.17161216,-0.059230007,-0.0037559087,-0.0067823157,-0.08467524,0.060682725,0.16230145,0.07172383,0.14377804,-0.009054958,-0.10830793,0.082092494,-0.02180439,0.09240009,0.1851581,0.012091025,0.16893703,-0.08014325,-0.05418016,-0.051836032,0.17322482,-0.10893193,-0.029295307,-0.0064541525,-0.09995119,-0.06356498,-0.09496192,0.09478053,-0.07562911,0.07472605,-0.087691925,0.088269986,0.050078463,0.1453939,-0.18216938,-0.06472961,-0.068793535,0.155615,0.1602204,0.14784285,0.119849235,0.1990148,0.11076922,0.10713202,-0.0054562953,0.19505094,0.12240098,0.21491937,-0.13152692,0.256999,-0.2852156,-0.15646914,0.05994963,-0.11585293,-0.08786172,-0.1168734,0.16355099,0.17985143,0.07523252,-0.028881358,-0.09845001,0.07105683,0.15447803,-0.06271978,-0.18054552,0.0037671034,-0.14243905,-0.1895993,0.052938666,-0.08172396,-0.08284822,-0.15441065,0.115616165,0.09454448,0.2126434,-0.0059610885,0.30402085
-0.045412723,-0.09839771,-0.016426645,0.11300239,-0.13316818,0.006239483,-0.15555641,-0.15243545,-0.051165413,-0.04102671,-0.096401036,-0.043462466,0.11566084,-0.16312824,-0.015146922,-0.12627591,0.014879987,-0.14901353,-0.010960155,0.13617705,-0.06212208,0.017575655,-0.080021895,0.11435507,-0.02015374,-0.01400829,0.17194562,-0.22467595,-0.07644136,-0.053637277,-0.09703506,-0.083875336,0.048298746,-0.016322736,-0.08691581,-0.09819509,0.09662953,-0.08594082,-0.12917578,0.12267323,-0.12288532,0.031236732,0.05866103,-0.19126534,0.07937585,0.12084401,-0.013042009,0.064533144,-0.086231425,-0.06318238,-0.03895101,-0.123277366,0.10055838,-0.041961912,-0.057103302,-0.029199893,0.085770704,-0.034424353,0.13342789,-0.06925533,-0.077743106,0.013306028,0.06992668,0.024936015,0.13494372,-0.10547385,0.013252569,-0.13255088,0.034303904,-0.18789595,-0.0013453745,0.0027106092,-0.13363619,-0.13939992,-0.09470571,0.16912098,-0.14598043,-0.08273719,-0.103601076,0.012924776,-0.032987315,0.20164046,0.11331253,0.084267296,-0.009517049,0.09542891,0.08424888,-0.12662758,-0.13817272,0.1062683,0.022337487,-0.030213647,-0.05219676,-0.055519447,0.091935456,0.04932345,-0.13248083,0.049894825,-0.048976813,0.027751733,-0.1213405,-0.095378555,-0.061925493,-0.1048587,0.21758476,-0.019058999,0.112242155,0.03588963,0.04172385,-0.07539678,0.081381895,-0.0315448,0.10696944,-0.15100531,-0.02123977,0.0013677917,0.16706292,0.04401496,-0.026885385,-0.042065997,-0.05159963,-0.120752744,0.00072553946,0.06504452,-0.06871777,-0.13955612,0.11255374,-0.049160887,-0.08184566,0.20151082,-0.09945762,0.018467037,0.04485891,-0.075357616,0.09026645,-0.006520952,-0.11723487,0.0027458041,-0.12681079,-0.007990634,-0.09371028,0.09036366,-0.011470664,-0.019498335,-0.18632711,0.049517643,0.10496126,-0.16440137,0.012257478,0.06652623,0.065715246,0.027344896,-0.047848284,0.0056482726,-0.046783995,0.0859739,-0.023733279,-0.036691785,-0.1134267,-0.06887342,0.046184722,0.026669316,-0.11057839,-0.114836305,0.011085363,0.023155158,-0.06510329,0.056798577,-0.02868658,0.14648879,-0.097720936,0.047274314,-0.061433017,-0.17567867,-0.011643624,0.018312812,0.08066587,-0.05978893,0.15412262,0.0840651,0.07976526,0.034857653,-0.06393993,-0.21930712,0.03634429,-0.029911118,0.114799686,0.07796316,-0.026337042,0.1873238,-0.13641866,-0.13357158,-0.088469364,0.09205781,-0.00428028,-0.039715704,-0.14351834,-0.08886471,-0.0022646312,-0.08185657,0.035451308,-0.105165064,0.06811918,-0.09570375,0.028997386,-0.032176804,0.14039105,-0.095806964,-0.0026609972,0.0006261981,0.08602641,0.04626874,0.0814858,0.115837395,0.13228418,0.11808808,0.16781604,0.078754626,0.18733719,0.050224874,0.18392055,-0.07758104,0.23408389,-0.1161787,-0.04217256,0.12393074,-0.07705158,-0.08520243,-0.022910867,0.14627759,0.0504934,0.110259205,0.06174093,-0.06460915,0.121297665,0.13232109,-0.08830205,-0.121374466,0.034047168,-0.1355659,-0.10035286,0.13702986,-0.08756184,-0.058528323,-0.06260438,0.14916486,0.19691083,0.1711547,-0.017088369,0.1519092
-0.06780071,-0.059042558,-0.07347426,0.17378294,-0.101852395,0.0116519155,-0.23983817,-0.08640163,-0.14078014,-0.014403785,-0.034644794,-0.03764385,0.23717147,-0.13718672,0.07499974,-0.07662014,0.041424334,-0.03429261,-0.009835445,0.07961617,-0.07253902,0.025237845,0.00337191,0.13783123,-0.08703869,0.050101534,0.11998762,-0.14286822,-0.033138458,-0.09232374,-0.063254796,-0.041590586,0.032070953,0.0012394779,-0.18323213,-0.15066291,0.036027487,-0.0609416,-0.043714397,0.06482383,-0.01896602,-0.043166604,0.057899278,-0.1014202,0.023998199,0.1351069,-0.094961755,0.15306431,-0.006689942,-0.12021759,-0.049385905,-0.13702503,0.16827081,-0.024682868,-0.10225753,0.0036311815,0.07641522,0.00061276107,0.108554944,-0.0071491483,-0.06961235,-0.058477227,0.023795012,0.07872304,0.052911643,-0.0861466,-0.017834608,-0.11595483,0.07886641,-0.19494501,0.096213944,0.075151704,-0.113987416,-0.12322104,-0.12219443,0.08009982,-0.07231921,-0.08846203,-0.13686067,-0.00013439407,-0.05047339,0.3108952,0.07770054,0.097385444,0.016613517,0.04951076,0.12725663,-0.1394089,-0.058913834,0.14716142,0.008085022,-0.08355703,-0.06727852,0.0373938,0.07174532,0.016217323,-0.14086151,0.09257058,-0.06487751,0.02910952,-0.07915672,-0.037861492,-0.24072288,-0.19550774,0.25818563,-0.023465816,0.09614579,-0.0061557246,0.040403187,-0.09020673,0.004950163,-0.024711143,0.07840359,-0.034650266,-0.041304488,0.029313749,0.13196997,-0.0025277652,-0.06965227,-0.1638324,-0.011482381,-0.032827318,-0.01995658,0.16486779,-0.058088,-0.042332824,0.13498826,-0.14641795,0.016457161,0.14552686,-0.089789964,0.049886636,0.064546466,-0.06416945,0.06603989,-0.101025365,-0.020792307,-0.05192179,-0.05783858,-0.05494668,-0.0024537407,0.15020455,-0.06488804,0.007232457,-0.026337441,0.090424284,0.2854288,-0.08390261,0.09533766,0.11970333,0.05912074,0.0041333344,-0.053297825,-0.051741518,-0.014431807,0.06372,-0.067948654,-0.037957564,-0.050842185,-0.12695348,0.007577939,0.017490296,-0.0631359,-0.0437844,-0.027737504,0.002870058,-0.07977142,0.06391303,-0.0826398,0.15253824,-0.01877738,0.018055413,-0.13690478,-0.1511489,-0.011326516,0.061713964,0.035530124,-0.13381302,0.0792935,0.11005352,0.021567687,0.10555026,-0.06889877,-0.06812227,0.06674542,0.026940344,-0.00024293925,0.09557989,-0.052014597,0.1455513,-0.07630647,-0.054198734,-0.019631626,-0.0022237613,-0.022237837,0.0020997222,-0.027182156,-0.036067236,-0.049035423,-0.07703635,0.020983802,-0.09073786,0.07770024,-0.020527713,0.09709981,0.046984375,0.08569912,-0.073011585,-0.0063165585,-0.08737897,-0.04367997,0.044873502,0.22669971,0.03411991,0.08255399,0.06964577,0.09888664,0.02102512,0.15961741,0.015956385,0.16512401,-0.08004275,0.1846419,-0.17907363,-0.12127459,0.124774195,-0.10255019,-0.16891684,0.013028481,0.04582447,0.11546208,0.0019466071,0.07725248,-0.009200096,0.18939249,0.120666094,-0.012216042,-0.1712622,0.08055679,-0.18375814,-0.08431262,0.075586386,-0.11092855,-0.10824554,-0.08492803,0.09776777,0.068647675,0.20052193,-0.03180797,0.25307304
0.016473448,-0.011892355,0.0036176709,0.119390786,-0.09559461,-0.05067418,-0.16065122,-0.07360308,-0.08223211,-0.002685335,-0.056148782,-0.011491181,0.19485131,-0.24286883,0.083372585,-0.11907715,0.024398793,-0.17947666,-0.06104068,0.13445613,0.012608482,-0.020055769,-0.03623355,0.088380955,0.0222217,0.02382919,0.1720796,-0.1642616,-0.050910592,-0.12290266,-0.025931826,-0.12001897,-0.08299969,0.00966716,0.0024591319,-0.13855503,0.087352335,-0.044181887,-0.13696322,0.15590335,-0.076484434,0.0626857,0.012814712,-0.13245018,0.06313193,0.04814968,-0.048796862,0.12176639,0.0027514936,-0.07024534,-0.07498053,-0.10704083,0.21234651,0.017116826,-0.095282964,-0.029605638,0.068590306,0.026113661,0.17531177,-0.04814389,-0.06753619,-0.08688158,0.067714214,0.05171827,0.13016756,-0.028199747,-0.06749015,-0.17680573,0.07580866,-0.27264252,-0.02107708,0.044290245,-0.15013805,-0.107298695,-0.10450877,0.1772011,-0.08412055,-0.047141675,-0.1124958,-0.009925915,0.013683399,0.11663764,0.17357066,0.007083168,0.044868756,0.011231942,0.2018721,-0.00843212,-0.064167656,0.17018446,0.053219013,-0.06625672,-0.031833097,0.030130757,0.0777509,0.035901867,-0.08860736,0.101371676,-0.051695626,-0.049574263,-0.04253915,0.01172231,0.0051210932,-0.22350052,0.15804785,-0.07298055,0.112325884,0.06734162,0.0035203593,-0.1210102,0.06845704,0.041039146,0.09012842,0.036143877,-0.0932775,0.055389237,0.18295357,-0.015864981,-0.032409016,-0.04171207,-0.07170315,-0.12088687,-0.0002060232,0.13450038,-0.051045496,-0.25405577,0.015735492,-0.028734997,0.018993093,0.03887695,-0.05367353,0.085282266,-0.02984389,0.014002757,0.10588246,0.021898905,-0.14128241,-0.06474167,-0.24419168,-0.030461969,0.000118200674,0.08801923,-0.044684242,0.0022717845,-0.27721584,0.15723327,0.046802208,-0.07861651,0.025822781,0.056267243,0.07446802,0.005273892,-0.008140842,0.021752868,-0.00976395,0.1382554,-0.03120823,-0.026517136,-0.12623931,-0.07422193,-0.0066397763,0.0056004752,-0.06969541,-0.055750422,0.0058874474,-0.08736926,-0.077451006,0.06547932,0.044379346,0.12321329,-0.16480319,0.045575596,-0.13548991,-0.13244475,-0.00167122,0.059348833,0.05662841,-0.0905443,0.035987347,0.08816365,0.10386681,0.10868436,0.0003360681,-0.2783941,-0.006321263,0.04948386,0.23499845,0.2201924,0.010048398,0.24994397,-0.093662106,-0.0745932,-0.01636578,0.077598326,-0.017302508,-0.017600683,-0.07604631,-0.0033910526,-0.06351542,-0.00026493432,0.0068437657,-0.1770915,0.07766639,-0.01830841,0.08609663,0.0028404274,0.24676526,-0.1182677,-0.041975066,-0.037974875,0.1004104,0.048218384,0.05176599,0.10552022,0.12823059,0.22666836,0.22304665,0.021231469,0.14455633,0.010544041,0.17129625,-0.06497956,0.2250789,-0.070480816,-0.04943815,0.076098755,-0.08872289,-0.2505018,-0.015506377,0.1371875,0.0013853515,0.096110396,0.004456274,-0.054017764,0.14529227,0.025245434,-0.058587413,-0.08162797,-0.015859595,-0.20959625,-0.056610256,0.06033868,0.010469624,-0.011240486,-0.003733939,0.10833334,0.24132565,0.22189774,-0.07330487,0.2199078
-0.01984795,-0.042179152,-0.054387223,0.14229187,-0.12846026,0.013307216,-0.20543903,-0.14415862,-0.09655263,0.06429304,-0.104988344,0.0039546746,0.2607015,-0.13485888,0.059054315,-0.10447053,-0.013260208,-0.1672595,-0.030397557,0.1343257,-0.024162352,0.09661636,0.018931953,0.24257712,-0.054002296,-0.08947787,0.088146865,-0.0876731,-0.05681924,-0.079921916,0.02984678,-0.0826028,-0.045585793,0.035647582,-0.19366354,-0.12150719,0.078186,-0.10931212,-0.12067269,0.14372297,-0.029266406,-0.00091799686,0.10662139,-0.070015386,0.12338107,0.08536723,-0.14135034,0.108418435,0.082195565,-0.042878274,-0.053442184,-0.095321104,0.14005516,-0.0074429647,-0.13147292,-0.03782066,0.15551282,0.07182106,0.14185138,-0.096438915,-0.06523754,-0.0399526,0.06146369,0.059291746,0.076915674,-0.04347283,-0.023206327,-0.16810714,0.047414925,-0.15669999,0.08351736,0.050444547,-0.15469456,-0.1575737,-0.17196512,0.11230985,-0.04450406,-0.08945993,-0.16353202,-0.07320424,0.021437582,0.20681882,0.16916542,0.11648976,0.057322394,0.050308727,0.16055231,-0.03991601,-0.1339227,0.11192951,0.009842368,-0.06471075,-0.036320437,-0.018438702,0.12621146,0.0010853923,-0.04031375,0.12502822,-0.059989963,-0.0055236337,-0.06864134,0.00011722997,-0.2026561,-0.23558754,0.124199554,-0.04042271,0.06294207,-0.018684894,0.06846587,-0.17011085,0.004118861,-0.020676332,0.1452365,-0.0331792,-0.002917856,0.03719437,0.1176375,0.08537266,-0.025891963,-0.1529374,-0.07172208,-0.11364927,-0.07658542,0.18481717,-0.025891365,-0.18544617,0.024477217,-0.014410718,-0.051638298,0.13325262,-0.10196469,0.056483857,0.02169073,-0.06963952,0.12166334,-0.04343282,-0.076475,-0.017552165,-0.063087024,-0.024917733,-0.037678428,0.06602819,-0.06794788,0.031440984,-0.14296614,0.13301703,0.14060983,-0.0627823,0.04422978,0.010966936,0.11495545,0.068398915,-0.03111597,-0.012318159,0.0069621042,0.13944308,-0.018733384,-0.024806123,-0.08648426,-0.1886588,0.046195228,0.05395295,-0.022123782,-0.08928522,0.05415776,-0.060952496,-0.15986036,0.113065064,-0.13805713,0.18354218,-0.06762818,0.0058995173,-0.09806514,-0.10420206,-0.027976051,-0.010141645,0.047872555,-0.1817329,0.03310595,0.12550217,0.08009431,0.103316315,-0.0057105483,-0.14799063,0.088138185,0.031523377,0.11800828,0.1180281,0.0037537178,0.15911557,-0.0752468,-0.029099321,-0.00781684,0.14046304,-0.08756319,0.032500695,-0.01107287,-0.054443855,-0.10620547,-0.07239268,0.0867756,-0.11138293,0.046408176,-0.12596351,0.03783307,0.010469576,0.17358908,-0.10513136,-0.0028653876,-0.021306213,0.078423284,0.1167986,0.1670906,0.13711496,0.0896958,0.114345804,0.17322133,0.044616126,0.16896768,0.05830545,0.12172617,-0.09422858,0.16652155,-0.19037327,-0.07295378,0.09759148,-0.041116934,-0.19954976,-0.087958306,0.052516736,0.08647405,0.092325814,0.0540909,-0.04007895,0.17642817,0.21112227,-0.031600527,-0.1125835,0.037758812,-0.18666387,-0.06775622,0.04412012,-0.074595265,-0.077504925,-0.076179735,0.06451645,0.09277545,0.21405564,-0.06787057,0.22043799
-0.10543478,-0.0619032,-0.09145595,0.10324768,-0.14872675,-0.014796023,-0.119001076,-0.114756554,-0.2055467,-0.06902299,-0.06300957,-0.02188975,0.23902611,-0.27667478,0.050709255,-0.041506533,0.038616017,-0.09584657,-0.029602591,0.24370134,-0.036580835,0.026432324,-0.018962596,0.12083903,-0.019336104,0.050643966,0.2376915,-0.20934625,-0.036090206,-0.12502703,-0.0023772125,-0.13833071,-0.0066732382,0.03392598,-0.12129782,-0.107920684,0.12867467,-0.047460616,-0.08491599,0.1752462,-0.14197351,-0.004128479,0.05292804,-0.0958333,-0.013477733,0.055550523,-0.07974321,0.12370292,-0.051614825,-0.14285754,-0.04832617,-0.09477331,0.35595495,-0.063855775,-0.101001576,-0.105292685,0.06498718,-0.046972133,0.10082378,-0.007338436,-0.017769426,-0.07082279,0.055745736,-0.04190859,0.12021414,-0.11977502,-0.037079312,-0.149994,0.018806411,-0.22018756,-0.014775479,0.18011932,-0.06768704,-0.12435712,-0.1475153,0.24341275,-0.092645936,-0.13724661,-0.12635681,-0.05615806,-0.09509677,0.084622405,0.10444183,-0.015974445,0.04184664,0.110504985,0.1713775,-0.018298276,-0.13395894,0.19560628,0.00505148,-0.02096681,-0.052446514,0.047678072,0.07150731,0.06657253,-0.0997598,0.06080766,0.004154944,0.05367042,-0.01285754,-0.021915985,-0.03598939,-0.3254936,0.21377246,-0.08537878,0.09404193,0.06739923,-0.017882032,-0.16212179,0.058390286,-0.053623497,0.093651816,-0.07122233,-0.019187227,0.03266302,0.28751886,0.0076503768,-0.056985024,-0.040314432,-0.037586864,-0.06497522,-0.06688894,0.11071994,-0.048535142,-0.19204128,0.05706054,-0.13715614,-0.03475073,0.13880306,-0.0068195807,-0.039274685,0.093450025,-0.03407794,0.022445198,-0.052631695,-0.08489448,-0.04055956,-0.15279877,-0.026978932,0.008173342,0.0821519,-0.0796902,-0.089894295,-0.13318308,0.06168095,0.17096312,-0.07033517,0.055315357,0.08869538,0.0820194,-0.039783858,-0.013222842,0.03799539,-0.02573191,0.059663303,0.02769083,0.041153412,-0.112295575,-0.11979944,-0.017163528,-0.02144107,-0.12690547,-0.010689717,-0.067898385,0.0059671025,-0.06636203,0.05359927,-0.18764888,0.06608145,-0.15134914,0.026091736,-0.089504816,-0.08852865,-0.085898295,0.052312728,0.03512576,-0.09667602,0.106586725,0.06102022,0.021437833,0.10570864,-0.019303761,-0.109642595,0.015369902,0.047357555,0.1475469,0.12335043,-0.019442825,0.27008042,-0.10702633,-0.16794126,-0.08537697,0.010749195,0.052940268,-0.011311406,-0.11277821,-0.055360503,-0.036907163,0.026883883,-0.00092975504,-0.27763957,0.06706577,-0.05862565,0.14637439,0.019873267,0.230346,-0.07925597,-0.032970995,-0.0375249,0.073343195,0.12349819,0.1960123,0.15839258,0.17346528,0.20130235,0.066983566,0.06936118,0.10961067,-0.04631359,0.1985238,-0.047878202,0.2654699,-0.08186803,-0.0063391603,0.13842005,-0.06277233,-0.23044366,0.033737384,0.06276254,0.08248634,0.02887246,0.0721202,0.027427815,0.09997616,0.09156955,-0.061568197,-0.07648322,-0.056727592,-0.20332417,-0.08949579,0.111523315,-0.124727055,-0.06868512,-0.06495156,0.1381174,0.28537685,0.27802393,-0.0023584997,0.31008366
-0.042748783,-0.032811936,-0.0722487,0.11479847,-0.095706165,0.03201593,-0.17846316,-0.106830105,-0.060817197,0.030086674,-0.06443137,-0.015070299,0.18961078,-0.073405884,0.067105316,-0.101092525,0.055524092,-0.15039681,-0.046395652,0.13135158,-0.08327819,0.07737078,-0.0787472,0.0939953,-0.04080099,-0.053015053,0.13991985,-0.17964521,-0.033935435,-0.12144608,-0.031877186,-0.086062856,0.018048245,0.042195905,-0.041338716,-0.12651818,0.08506126,-0.004897806,-0.04235811,0.10034939,-0.03583717,0.060034126,0.09145211,-0.07120717,0.044567153,0.13111736,-0.12569101,0.13318388,0.03765068,-0.027218278,-0.08696892,-0.08062385,0.15976663,-0.033848535,-0.13826008,-0.03420745,0.055349655,0.027503015,0.19569385,-0.0028004006,-0.078078255,-0.0029287692,0.018274238,0.04632793,0.104716726,-0.0023129734,-0.0023372488,-0.047887843,0.046223123,-0.1686196,0.003899531,0.04514149,-0.037003335,-0.073504515,-0.09863409,0.18676195,-0.06788928,-0.06954571,-0.10675478,-0.022100298,-0.061960634,0.1480622,0.064314894,0.04528036,0.054130457,0.07894313,0.13092272,-0.12779069,-0.11547839,0.088644505,0.0461342,-0.09749206,-0.08723557,0.038802683,-0.025508318,0.04713687,-0.014950717,0.03517593,-0.099047154,0.050150175,-0.055457193,-0.05187002,-0.12567376,-0.26299,0.13540651,-0.037210673,0.10706106,0.030519249,-0.0062544546,-0.088348985,0.08403083,0.0053837206,0.09781106,-0.0014878766,-0.028705264,0.05160072,0.141906,0.030217454,-0.012793172,-0.08350413,-0.008507491,-0.042938,-0.033139095,0.14810492,-0.05415523,-0.20381434,0.1177241,-0.036519885,0.015621071,0.051525895,-0.05615793,0.053300396,0.047580272,-0.027639387,0.100940645,-0.038585544,-0.10461631,-0.07824777,-0.123616084,-0.027943222,-0.061557434,0.05278391,-0.11431149,0.003534448,-0.18011256,0.120520204,0.16621308,-0.09247954,0.09028118,0.022974249,-0.013309179,0.068037525,0.013488728,-0.009211599,-0.051596995,0.11231802,0.028110573,-0.057818085,-0.091863036,-0.060555834,-0.022492623,0.033988986,-0.10769058,-0.071088806,-0.006310005,-0.092986114,-0.12663148,0.077690855,-0.14895746,0.08745213,-0.058306064,0.011471318,-0.051002126,-0.10823834,-0.0077296887,0.0017949792,0.053133823,-0.043690134,0.06699636,0.11392241,0.04458261,0.08409882,-0.05350486,-0.13812093,0.04479506,-0.024156827,0.13884404,0.0856367,-0.035812646,0.18709067,-0.095838845,-0.046925932,-0.09021642,0.045224518,-0.06430041,0.035583608,-0.11387268,0.007000186,-0.05555499,0.011888303,0.08923661,-0.07875306,0.058465134,-0.10701566,0.029295912,0.060563803,0.096210316,-0.15731475,0.0047729304,-0.025254246,-0.036314886,0.079172365,0.14561087,0.07515751,0.10797191,0.107355975,0.13274644,0.019927094,0.1518349,0.051836647,0.1376875,-0.023740146,0.23375179,-0.086450085,-0.11353234,0.06981719,-0.07360628,-0.15510084,-0.012003364,0.11049927,0.017258916,0.08208791,0.05513442,-0.013215433,0.15310118,0.1038829,-0.014040444,-0.16567643,-0.014738933,-0.12471874,-0.09935416,0.03914924,0.006064424,-0.0878336,-0.050858896,0.11592636,0.152273,0.23420969,-0.036360193,0.24228255
-0.068668306,-0.047641605,-0.09112754,0.09071434,-0.09423808,-0.08549931,-0.22364628,-0.112210825,-0.11279998,0.073768556,-0.071643576,0.036992695,0.28988835,-0.21017285,0.09384055,-0.09923858,0.057949997,-0.06728213,-0.0012246785,0.15702945,-0.10725683,0.07252188,0.09321217,0.089163005,-0.08488179,-0.09095579,0.2061547,-0.17673932,-0.0689325,-0.10140303,0.11611624,-0.015138871,-0.07483384,0.035655238,-0.14345635,-0.14240497,0.03945573,-0.06976858,-0.08434859,0.22463974,0.020545632,0.05492138,0.020814065,-0.06374312,0.089733474,0.07765611,-0.11246641,0.12073016,0.08096608,-0.085661426,0.036374204,-0.033083152,0.27359775,0.02189377,-0.06807983,-0.075150944,0.1018099,0.05877341,0.1136101,-0.019248588,-0.009597568,-0.05508117,0.082757376,0.00759602,0.17233944,0.041813523,-0.03135576,-0.16448832,0.07031548,-0.14948277,0.018731458,0.12896486,-0.12050905,-0.16247489,-0.10867888,0.15207686,-0.09677576,-0.08847095,-0.066837266,-0.0341865,-0.07076313,0.14861025,0.12815289,0.06319453,0.052281536,-0.073265225,0.14984988,-0.15327916,-0.07184222,0.13878226,0.01951716,-0.04870314,-0.110288784,0.08824458,0.07814505,-0.060419086,-0.084539525,0.10114669,-0.036552373,-0.03569727,-0.08635654,0.0052348934,-0.13078116,-0.28367817,0.17255613,0.046093408,0.011736125,0.0698573,0.028482433,-0.13324055,-0.022333778,0.028416757,0.11682067,-0.01486391,-0.051962283,0.04752821,0.24726804,0.08827322,0.037183728,-0.08051831,-0.075501405,-0.1181027,-0.117753096,0.16467144,0.039079305,-0.17978707,0.032083087,-0.103986986,-0.026003638,0.13236989,-0.09936674,0.097632974,-0.012149069,0.013833889,0.129411,0.013382839,-0.11369062,-0.14045103,-0.12941138,-0.049457103,0.10878148,0.116204165,-0.058392145,0.054981768,-0.16450821,0.17368488,0.23889709,-0.07401859,0.1031344,0.030706799,0.043015074,0.046163995,-0.07182849,0.038991433,0.050050523,0.09539654,0.10329295,0.034450267,-0.091534935,-0.09200586,-0.03694651,0.026703883,0.028255085,-0.09295001,0.034711365,-0.10061732,-0.14856333,0.05279378,-0.19143935,0.1950187,-0.110688396,0.043645848,-0.09095957,-0.19236335,-0.050399903,0.018714342,-0.030693086,-0.11461513,-0.0010631765,0.06883196,0.04066517,0.11273724,-0.05402589,-0.10852216,0.13082673,0.016528292,0.09804861,0.12673211,0.057164934,0.16679619,-0.06241649,-0.110170096,0.039943464,0.0768233,-0.08307443,0.050967377,0.016150318,-0.06655301,-0.086066574,-0.056066785,0.12464621,-0.09203231,-0.032824535,-0.15332235,0.122499615,0.040800467,0.15286674,-0.078685485,-0.04522703,-0.097761415,0.06940805,0.10556742,0.16500811,0.10926466,0.13722044,0.18299462,0.17571561,-0.076799415,0.13452551,0.027216958,0.1964353,-0.067918785,0.20583813,-0.10592133,-0.088170715,0.04006874,-0.03971713,-0.15620087,-0.030804122,0.161572,0.106476314,0.026208939,0.01156671,-0.0036639874,0.15613268,0.12503518,-0.09571676,-0.09983623,0.032525558,-0.18821204,-0.102180496,0.022438074,-0.07846027,-0.034656264,-0.084665194,0.07843745,0.17433158,0.19719924,-0.08972636,0.26710233
0.0049105757,0.0015403042,0.0033853187,-0.0071498123,-0.2025743,-0.26330063,0.08820764,0.071093254,0.0013268378,-0.3202101,0.3000547,0.24848232,0.015382338,0.00881217,0.20546024,0.051882464,0.24535872,0.009770996,0.01018752,-0.018653747,0.3160188,-0.3170164,-0.24174611,-0.008386064,0.29176039,0.30663782,0.0016031543,0.005422498,0.33247888,-0.2818762,-0.25759926,-0.13234109,-0.22576687,0.24323016,0.00077369023,-0.24066988,0.0049056006,0.32130474,0.020582492,-0.007481689,-0.26795146,0.1081648,-0.028149799,-0.23449399,-0.2911239,-0.038526535,-0.04870301,-0.042317636,-0.2199007,0.0039928164,-0.24244915,-0.13628787,-0.011983192,-0.24537054,-0.10896098,-0.29082927,-0.011258119,-0.28103754,-0.0065057892,0.3370838,0.32673344,-0.2658,-0.046403337,-0.27440643,-0.0863548,-0.27080446,-0.28004053,-0.062055603,0.2711459,0.0072071785,-0.0032761935,-0.004379952,-0.071065426,-0.16282493,0.0020188107,-0.0061499164,-0.19466674,0.004597708,-0.22834454,-0.289944,-0.257394,-0.00084151304,-0.0058111167,-0.314564,0.2977831,0.24185291,0.0048906896,0.2899175,0.003260128,-0.0065898406,0.2720739,0.28014353,-0.26663455,0.32286084,-0.003866601,0.2203122,0.0043450417,-0.048002478,0.31807345,0.27448118,0.22344583,-0.26132444,0.0020406307,-0.012449594,0.019466095,-0.11828026,-0.025858304,0.27860802,-0.0037713507,-0.032884058,0.23521364,-0.23089913,-0.069376424,-0.25274444,-0.26833174,0.2764914,-0.008578477,-0.31939346,-0.21684939,-0.012913352,0.3215033,-0.22426748,-0.25509346,-0.007436549,-0.23914593,0.032036327,0.2854935,0.003651672,0.31271163,0.0024846713,0.33505583,-0.33899596,0.26703578,-0.14876758,-0.0038246405,0.009261578,0.0069098803,0.047675706,0.0074106064,0.26531175,-0.13311893,-0.008510384,-0.275679,-0.17977385,0.009074461,-0.00039380632,0.01758285,-0.2647455,0.26421684,-0.0033052182,-0.0034525455,-0.30854174,0.0039385944,0.20139141,-0.24203731,0.23675393,-0.048502635,0.32421282,-0.0003323526,-0.07578281,-0.3154218,-0.005132374,-0.2511757,0.32219714,-0.29373628,0.20684835,0.07227023,-0.33285156,0.003395061,-0.20835486,0.005918473,0.2759309,-0.23045084,0.0851478,-0.24759918,0.22757779,-0.0098511875,-0.015037581,0.19441248,-0.17459027,-0.00078022305,-0.0665055,0.14350116,0.03263997,-0.33916655,0.30155188,-0.01091613,-0.005446024,-0.28364417,-0.0069517815,-0.0142005235,0.00496603,-0.27103925,-0.009089739,0.004363454,-0.27685854,-0.2856848,0.009404183,-0.25603503,0.0029254432,-0.2949737,0.0060610226,0.26405874,0.29616448,-0.0048391754,0.28729227,-0.008419175,0.09144551,-0.16648656,-0.23648244,-0.009816411,0.07336205,-0.00214872,-0.005429199,0.29076397,-0.007445944,-0.065594375,0.2624923,0.15678659,-0.34316596,-0.007201328,0.33945698,-0.0066526625,0.0027618993,0.18204416,-0.0074320487,-0.2706685,0.0040749046,0.29619688,0.041075356,-0.0024568732,-0.004834648,0.08688623,0.2526456,0.013995511,-0.0070596603,-0.22680098,0.021800842,-0.18891329,-0.0040854285,0.20492168,0.2507768,0.005574901,-0.23132268,0.00380002,0.17851569,-0.008223803,-0.00814772,-0.27103832,-0.013392073
-0.06796585,-0.13237435,-0.039885312,0.080685094,-0.09033508,-0.033696257,-0.17234863,-0.07093095,-0.085925475,0.021394502,-0.045018937,-0.06247919,0.25495014,-0.1788024,0.020458337,-0.06445932,0.09093707,-0.02482072,0.0011185475,0.13258933,0.010995798,0.016366797,-0.0012449864,0.122918084,-0.013703578,-0.0045399745,0.17037068,-0.22405118,-0.014318732,-0.114098325,-0.019609727,-0.08110636,2.528647e-05,0.09585698,-0.14591266,-0.14517868,0.08673884,-0.005595726,-0.10199846,0.132613,-0.042833436,0.0043588136,0.024574192,-0.12486636,0.023043182,0.020707998,-0.034678847,0.11517322,0.04655125,-0.0932819,-0.055324737,-0.054247335,0.22748631,-0.059266627,-0.07991549,-0.038620204,0.12140592,0.011010226,0.136817,-0.0569361,-0.05524178,-0.046147346,0.004571319,0.004826477,0.14939897,-0.041277755,-0.06419931,-0.10573272,0.08565323,-0.25262666,0.042461462,0.086147875,-0.07697223,-0.13329163,-0.08229907,0.16737944,-0.0889068,-0.045707297,-0.07199433,-0.031689234,-0.020391852,0.12554064,0.06483632,0.018179135,0.043700855,0.018391723,0.17125066,-0.037273042,-0.14873578,0.16392754,0.017920885,-0.1116658,-0.05039738,0.074776575,0.105010375,0.01667231,-0.12006349,0.095873564,-0.047693886,0.043743193,-0.118270546,-0.03480094,-0.062160403,-0.1580249,0.2330034,-0.060079828,0.04620951,0.007871556,0.09822328,-0.094565585,-0.007377051,-0.06349654,0.13704449,-0.044194736,-0.075798534,0.020330597,0.15399303,0.03210193,-0.05099004,-0.05409514,-0.038137134,-0.08965426,-0.051723734,0.14599618,-0.010847146,-0.1275608,0.13443354,-0.10708614,-0.06461008,0.19066137,-0.013600665,0.06222133,0.046248112,-0.03284777,0.13161787,-0.03918797,-0.0065005836,-0.08104216,-0.061511897,-0.03611584,0.022450924,0.101047695,-0.036286592,-0.067191385,-0.14560442,0.10814479,0.21102996,-0.112637356,0.022523195,0.09942521,0.09452669,0.028202152,-0.09368988,0.026157426,-0.06370785,0.09475925,-0.005339104,0.024563162,-0.11206699,-0.16996184,-0.05169001,0.03423285,-0.034815207,-0.09645169,-0.0048114303,0.008358087,-0.069741435,0.026583534,-0.10904291,0.12278266,-0.10319154,0.065770335,-0.08979494,-0.09054485,-0.02341947,0.04282223,0.05894861,-0.14834312,0.12128789,0.03882313,0.09540855,0.077798,-0.053857904,-0.12826054,0.03993751,-0.0075090486,0.044016592,0.19871084,-0.0250914,0.154666,-0.09470678,-0.12326546,-0.04583647,0.0786325,-0.09326692,-0.0054795113,-0.07619502,-0.037398793,-0.10004555,-0.054718237,0.044488613,-0.110167705,0.090206355,-0.020799484,0.091871925,0.055194624,0.1470961,-0.048754107,0.005174948,-0.09180384,0.016369272,0.120736435,0.12220657,0.09975548,0.14305815,0.09375863,0.12575336,0.08811082,0.2119363,0.03941674,0.24231634,-0.016894693,0.2789948,-0.16140172,-0.038867563,0.08747996,-0.06686127,-0.18209234,0.01855728,0.035989705,0.1367488,0.10583571,0.010145564,-0.044551514,0.17747791,0.1186262,-0.043560203,-0.08564019,0.057933517,-0.18690038,-0.13869953,0.09429294,-0.110362746,-0.032926265,-0.112387866,0.12930714,0.14636695,0.18488106,-0.04397444,0.17213915
-0.09835765,-0.0094246445,-0.074607596,0.13061024,-0.109825894,-0.024626153,-0.20730568,-0.16338146,-0.06570746,0.14081565,-0.010494041,-0.036187507,0.17784108,-0.18076263,0.08878273,-0.08531848,0.11234884,-0.2145132,-0.066828124,0.19614767,-0.061903477,0.030276682,0.10474826,0.09102528,-0.061944034,-0.032429338,0.16862905,-0.16103663,0.043632474,-0.07462771,0.069745325,-0.18527502,-0.0575313,0.044880476,-0.106744714,-0.09806829,0.1957468,-0.08688335,-0.11756005,0.16667828,0.059182964,0.11414696,0.12845477,-0.061214946,0.07910178,0.16160838,-0.08833132,0.11421477,0.07717879,-0.1023405,0.01510602,-0.11823929,0.22589396,0.05842535,-0.112607084,-0.07023106,0.1105542,0.09898777,0.21074454,0.0020040022,-0.06731231,-0.043780476,0.14698803,0.066478916,0.15084532,-0.015453177,-0.093558155,-0.18735228,0.028369978,-0.19997849,0.05676935,0.10111901,-0.14890444,-0.15981108,-0.18841343,0.17121214,-0.11423026,-0.12676919,-0.11685664,-0.034844108,-0.092675954,0.22860476,0.1472688,0.07117163,0.049142744,-0.0032217717,0.2625126,-0.13858108,-0.1532278,0.07803873,0.09876063,-0.026291521,-0.09274416,0.07224133,0.12739168,-0.016217623,-0.10061515,0.10730273,-0.025298635,-0.070064284,-0.05281538,0.044664416,-0.10551665,-0.14514841,0.16738541,0.057668075,0.14083424,0.069379546,0.123545185,-0.10242253,-0.06554288,0.09254239,0.09287355,0.016075037,-0.09728125,0.068175785,0.18950078,0.039979964,0.07950092,-0.10241983,-0.042526487,-0.15174052,-0.046971105,0.17649058,-0.0025926705,-0.1972963,-0.017659105,-0.08343494,0.008985202,0.14771672,-0.019857693,0.03573912,-0.008186426,0.04396367,0.20771405,-0.13133074,-0.10881171,-0.09303165,-0.22543734,-0.04970701,0.10813687,0.13717446,-0.13276663,0.05742607,-0.22056535,0.17187023,0.15450245,-0.10293908,0.06437694,0.05068222,0.10891204,-0.028223542,-0.102167405,0.07678358,0.009252341,0.15855296,0.08201364,0.029864032,-0.20796295,-0.11752439,0.011573355,0.117129624,0.021981774,-0.10907931,0.024630433,-0.12529199,-0.09246148,0.011663563,-0.081805915,0.1119488,-0.20298086,0.07006844,-0.09296104,-0.18958831,-0.07425383,0.095106,-0.03105252,-0.16129492,0.0043461937,0.031599853,0.13127361,0.14878206,0.089140035,-0.17271443,0.04241533,0.00036685384,0.18894866,0.18980834,0.086095534,0.2434933,-0.12872376,-0.15633972,-0.010581013,0.12124321,-0.12802815,0.08397815,0.06856539,-0.08659549,-0.09750772,-0.05977523,-0.008620538,-0.13147742,0.0112694865,-0.12410167,0.053247984,0.034187242,0.2632717,-0.12204985,-0.089622006,-0.04112065,0.1134992,0.15036146,0.09408258,0.16159452,0.1659834,0.1425177,0.17474349,-0.09689036,0.16842243,-0.033713866,0.13815325,0.016072657,0.24252293,-0.1675,-0.04830683,0.10712856,-0.13564129,-0.17048456,0.032444086,0.20148775,0.06357245,0.1699687,-0.09490286,0.01450454,0.17370687,0.13096175,-0.13330437,-0.22076946,-0.04774116,-0.121073745,-0.10505698,-0.046182383,-0.123632774,-0.013050681,-0.13419586,0.07191686,0.21801376,0.16049087,-0.070328355,0.20929058
-0.0052700667,-0.0122995395,-0.0065878257,0.0067612026,0.11078646,0.2815527,-0.23108596,-0.18632568,-0.0016437869,-0.07662157,-0.2816117,-0.3037811,-0.008524036,-0.009692111,-0.2958425,-0.13798615,-0.28322366,0.009102393,-0.011812378,0.016795369,-0.29154247,0.28336564,-0.2154383,0.009514222,-0.29248062,-0.06706398,-0.003604847,-0.008795069,-0.26795658,0.23238772,-0.26382673,0.042853296,0.2975585,-0.26323253,-0.014623614,0.10784327,0.0053510102,-0.11583411,-0.036301367,0.0061815176,-0.26207164,-0.27841,0.05308017,-0.17763542,0.2680631,0.06241791,-0.07770355,0.18501298,-0.18382655,-0.0072730538,-0.24594676,-0.15878971,0.02850595,-0.25710726,-0.09583904,0.3201438,0.029596811,-0.10853998,0.006246201,-0.2553454,-0.2841018,0.2975524,0.077400655,0.28818202,0.14092457,-0.19944605,0.31412253,0.036021274,-0.29679754,-0.007610854,0.009549008,0.0056446902,0.041697823,-0.068731904,-0.0019226059,0.0053915363,-0.07507933,-0.007299702,0.12428582,0.29249215,0.31187052,0.0171805,0.0060381377,0.2721084,-0.31758907,0.2603018,-0.0013422074,-0.29673207,-0.012811992,0.0065840697,-0.3064276,-0.2749158,0.30457377,-0.309987,0.013805519,0.24500391,-0.004616541,0.12846875,-0.28270212,0.15434168,-0.25431648,-0.21759136,-0.013889786,0.003460376,-0.013801643,-0.25396356,0.085867055,-0.3043519,0.008766745,-0.037389807,0.2420662,-0.2764139,0.1808067,-0.1475696,0.27414972,-0.24675465,0.007977747,0.2821603,-0.25007585,-0.078346565,-0.29565686,0.08009844,0.24340431,0.0073214914,-0.27387995,-0.01786869,0.16317695,-0.0070958217,-0.28473938,-0.0015209931,-0.28760797,0.29188967,0.20956184,-0.25002363,0.01707404,-0.030239327,-0.005813344,0.18321119,-0.0062203836,-0.2814229,-0.27114013,0.03545893,0.25406906,-0.2631146,-0.008476642,0.015812267,-0.0056608547,0.0031698076,-0.28155708,0.0068959263,0.0096740415,0.30115578,-0.008717001,-0.30784708,-0.24584939,-0.14043996,-0.27291834,-0.31451052,0.007975088,0.025758551,0.28374323,0.009703321,-0.25546357,-0.28993723,0.03841743,-0.05661399,-0.19979127,0.2861625,-0.0037197617,0.22010696,-0.0052998085,-0.28641433,0.14810471,-0.19089447,0.29719242,-0.29241857,0.2514215,0.002548275,0.22729138,0.24118233,0.013866386,0.1685815,-0.31607527,0.0006814115,0.29200694,-0.32564443,-0.010258006,0.012904879,-0.16499652,0.00690481,0.026037313,-0.005770808,-0.2060563,0.009432646,-0.00950028,-0.033625968,-0.22192413,-0.00916497,0.24263294,-0.012841989,0.27281454,-0.0060613025,0.24819091,-0.2639861,0.005232702,-0.32260558,0.012478218,-0.22179058,0.29614133,0.23264123,0.011813905,0.0073643625,0.011247714,0.021704739,0.008903204,0.0062608165,0.032339845,0.2609709,0.071387306,0.30525416,0.014090455,-0.30359843,0.01564184,-0.014642154,-0.25045756,0.008050033,0.25735217,-0.0038021049,-0.30011225,-0.060171947,0.009924272,0.010795486,0.24100584,-0.30318952,-0.003925752,0.0070294417,0.19463436,-0.04314603,0.30125102,0.0043575927,-0.22658151,0.2518631,-0.0070683216,-0.16695283,-0.010741415,0.18196855,0.006690793,0.018346187,0.2980864,0.023755569
-0.11255334,-0.059757587,-0.04167994,0.08574241,-0.049097568,-0.027415706,-0.17641611,-0.09224859,-0.16477019,-0.037775975,-0.010569181,-0.028938822,0.36918476,-0.22546259,0.032441773,-0.00447258,0.05708946,-0.09077873,-0.021989238,0.1465397,-0.036939267,0.026791753,0.0011816119,0.15921979,-0.10330179,0.054555584,0.18357974,-0.2854573,-0.0412627,-0.03216647,-0.07325176,-0.061254453,-0.007076014,0.04042966,-0.06893369,-0.11410408,0.099187076,0.018018663,-0.018500444,0.1447897,-0.11946604,-0.025183065,-0.032298896,-0.14391427,0.096120246,0.042501085,-0.10420518,0.06046937,0.026934464,-0.010448425,-0.0813814,-0.12165185,0.20204964,-0.048930954,-0.06328666,-0.029253416,0.021162093,-0.011402942,0.16143313,-0.037459318,-0.11147933,-0.016296862,0.02681585,0.011370743,0.026311753,-0.0028176703,0.019409468,-0.020518435,-0.029676273,-0.22530395,-0.029612435,0.12308286,-0.027378015,-0.17408936,-0.099311285,0.1552154,-0.10743277,-0.06276327,-0.096095674,-0.038630255,-0.06695112,0.130339,0.12467577,0.075114064,-0.015103753,0.0304676,0.22203983,-0.15488417,-0.053157363,0.1481635,0.033442464,-0.14179024,-0.0715247,-0.034869935,0.021225693,0.057380296,-0.1032104,0.06451023,-0.0506773,0.058913257,-0.07362711,-0.08865699,0.03300487,-0.32972157,0.3009066,-0.03145042,0.018896159,-0.016101778,-0.03224921,-0.06369338,0.047877043,-0.027302569,0.10202894,-0.05050096,-0.07068457,0.06276643,0.2152546,0.01896061,-0.0026357258,-0.08582312,-0.055619366,-0.08480399,-0.051906876,0.0450841,-0.091355175,-0.07881115,0.06055282,-0.026838478,-0.071853,0.25093982,-0.075090736,0.039707933,0.026173476,-0.06647605,-0.010214059,0.011350124,-0.04743263,-0.06274158,-0.17033115,-0.08986771,-0.031102743,0.01708701,-0.072584115,-0.062258556,-0.034163237,0.05846459,0.3185592,-0.073886886,0.04053274,0.093932636,0.07382893,0.008531593,-0.027850004,-0.036386427,-0.092982806,0.09042237,-0.061144035,-0.06599113,-0.04599217,-0.015456642,-0.00620723,0.036166355,-0.028585188,-0.0806003,-0.0248517,0.03975654,-0.08098908,0.07529292,-0.18173644,0.14858523,-0.16023797,0.00074052805,-0.09250715,-0.12424701,-0.039586212,0.06072493,0.051015932,-0.114605814,0.082034536,0.12667097,0.031115012,0.035680655,-0.0023630254,-0.100158334,0.0776217,-0.06949785,0.1005156,0.14457168,0.018860528,0.1843024,-0.089394584,-0.09668739,-0.099973164,0.06233869,0.02014496,0.00910844,-0.05523902,-0.10464712,-0.029258955,0.10378003,0.09774824,-0.12030388,0.099869624,-0.03400574,0.1406854,-0.022794612,0.15269977,-0.060611397,-0.0014760601,-0.05811192,-0.027033376,0.047892615,0.024780719,0.04159035,0.068806574,0.14889356,0.06544495,0.007814659,0.124473475,0.09551404,0.19738218,-0.104360074,0.2526203,-0.10362365,-0.12652981,0.104867116,-0.017133329,-0.22002815,-0.08499729,0.093941525,0.01006587,0.010874623,0.07418101,-0.01389187,0.31944454,0.062046107,0.012691223,-0.06995342,0.06097958,-0.28050163,-0.15653515,0.07412917,-0.068608895,-0.051070113,-0.047992352,0.15590337,0.16325273,0.19668154,-0.020999512,0.27206817
-0.08623723,-0.1126081,-0.12138364,0.0845686,-0.1132293,-0.06288475,-0.16024132,-0.09868521,-0.13334937,-0.014588497,-0.06350854,0.010244046,0.23000734,-0.097429276,0.029433383,-0.12320169,0.059262082,-0.05125709,-0.05887121,0.18440267,-0.10211204,0.071320795,0.035057057,0.10277966,-0.045975897,-0.07889496,0.12811553,-0.15898013,-0.028607454,-0.116284885,0.003118092,-0.037542462,-0.014077603,0.02221818,-0.17089568,-0.13459708,0.07681773,-0.123829335,-0.046140417,0.07540115,0.0132631175,0.05615446,0.066531226,-0.13116607,0.09072628,0.073924966,-0.060090262,0.13671921,0.039431572,-0.11968066,-0.06580621,-0.13937365,0.2656686,-0.014291364,-0.090840526,-0.031826727,0.062621266,0.057206746,0.121696025,-0.09805648,-0.07970759,-0.07182169,0.06525724,0.11182653,0.121218026,0.032700032,-0.00049758167,-0.09265224,0.07614831,-0.16088152,0.04327073,0.10853076,-0.033471882,-0.13574198,-0.061179407,0.025305243,-0.117686965,-0.16799748,-0.10941619,-0.022879565,-0.059166066,0.16738343,0.0652634,0.048885796,0.025784979,0.020622287,0.11666847,-0.14965229,-0.06887071,0.10090992,0.053394735,-0.117735855,-0.016892117,-0.004210261,0.07528212,-0.0007732927,-0.12113581,0.11489102,-0.03731912,-0.013547976,-0.068357825,0.021366455,-0.13589458,-0.24175845,0.14058378,0.038432337,0.13575664,0.06256151,0.06756426,-0.08925796,0.040077906,-0.026905904,0.082420215,-0.07329832,0.0031164887,0.054970287,0.12036126,0.105854444,0.02693776,-0.0688442,-0.11473334,-0.06478758,-0.056672554,0.08979063,-0.060544126,-0.0980841,0.07875321,-0.1102465,-0.03427947,0.08071413,-0.08906589,0.12371369,0.014739125,-0.035641033,0.0877328,-0.07148349,-0.0626539,-0.095364444,-0.04667281,-0.13483058,-0.031922635,0.08943615,-0.038594957,0.006385941,-0.10615348,0.09467142,0.13546647,-0.05216464,0.089155965,0.060852326,0.045780443,0.09594994,-0.09660516,0.012284078,-0.051268473,0.07925625,0.039925124,-0.02530798,-0.058468446,-0.12465853,0.030091252,0.05036961,-0.04353029,-0.06847468,-0.024827484,-0.054893147,-0.1488411,0.13159625,-0.101642795,0.17331503,-0.119207606,0.060819317,-0.03655272,-0.12891345,-0.024744015,0.03817625,-0.023963232,-0.15014522,0.13193803,0.16736662,0.05913571,0.12457556,-0.040618964,-0.06216828,0.13073099,-0.034557752,0.038516343,0.11774598,0.025740908,0.18814228,-0.06601229,-0.15372543,-0.0103256535,0.09518204,-0.05088814,0.023935352,-0.07830657,-0.022623299,-0.031638917,0.018417591,0.08726676,-0.080047466,0.0057406723,-0.12348474,0.11355901,-0.00051641755,0.14363202,-0.07171469,-0.04895307,-0.026291603,-0.004923613,0.08377249,0.13588263,0.08444001,0.11644839,0.06864549,0.08793292,0.04910579,0.10299164,0.04958937,0.17847659,-0.06359622,0.18107386,-0.16940312,-0.12660794,0.055921957,-0.06883058,-0.11012185,-0.08591356,0.04384272,0.14516774,0.06386973,-0.019997269,0.02315305,0.20583025,0.11623398,-0.042591907,-0.14862831,0.012179022,-0.13613889,-0.14157014,0.04079733,-0.15667574,-0.01210751,-0.06131205,0.12206256,0.1360813,0.22826923,-0.0056914827,0.28121093
-0.15254551,-0.15407532,-0.094296224,0.18546864,-0.08288562,0.010155313,-0.27090067,-0.14851455,-0.12933616,0.035896953,-0.06769574,-0.038270827,0.32415006,-0.2867667,-0.013083212,-0.15841784,-0.026877737,-0.055436794,0.04034098,0.23621361,-0.1076302,0.11770662,-0.008317875,0.20192926,-0.15723327,-0.09273092,0.3132412,-0.27458426,-0.06542346,-0.0055223685,0.005969373,-0.015745647,0.004175466,0.027222868,-0.1548444,-0.13134088,0.034528974,-0.1267199,-0.06143369,0.2502455,-0.02908992,0.0099767335,0.10129513,-0.09645874,0.1524474,0.08413089,-0.14512613,0.13095562,0.021067575,-0.11536593,-0.062833294,-0.15980977,0.3198648,0.009826425,-0.0758387,-0.06594851,0.06805167,0.061383054,0.11139748,-0.098461874,-0.15999484,0.008913871,0.046503827,0.05865915,0.18202132,-0.026952231,-0.00954076,-0.120198555,0.07711446,-0.30719697,0.04754951,0.110426515,-0.03732449,-0.08440041,-0.14772548,0.29136586,-0.077851795,-0.12211927,-0.12140987,0.011946481,-0.018785756,0.18388228,0.015271182,0.12853996,-0.012042256,0.010532396,0.19522835,-0.20656557,-0.0269544,0.27432686,-0.023223443,-0.14003387,-0.046661768,0.047333207,0.029130394,0.0791318,-0.16181007,0.07657454,-0.0977454,-0.008293803,-0.1083078,-0.07081518,-0.11870391,-0.24583125,0.2874117,-0.016514169,0.16511938,-0.026803486,-0.021579338,-0.11132955,0.0038326867,0.0030884342,0.1890425,-0.0553673,-0.046162173,0.024354605,0.32302117,0.16526544,-0.034991395,-0.11661201,-0.08298864,-0.03497344,-0.038201258,0.20064965,-0.046863906,-0.1322279,0.07592625,-0.12336898,-0.039894804,0.21342382,-0.14000066,0.16207151,0.06504466,-0.10446385,0.10191557,-0.106578715,-0.017930295,-0.05198505,-0.097674444,-0.11292903,-0.016523415,0.075593576,-0.070585534,-0.012440891,-0.20720471,0.13911934,0.2720179,-0.018643448,0.00661755,0.14172757,0.07322222,0.08668112,-0.0280512,-0.0389385,-0.08896377,0.087404184,-0.04924734,-0.040843755,-0.10735492,-0.07923462,-0.024890924,0.01570104,-0.116380125,-0.15970953,0.056481518,-0.0716309,-0.13358578,0.093795545,-0.17687601,0.2665072,-0.12627304,0.042958472,-0.09984561,-0.16883315,-0.026925273,0.050440066,0.049131222,-0.060951322,0.07167049,0.073410556,0.08758498,0.176815,-0.08239217,-0.099415824,0.13563392,-0.012722043,0.10813001,0.19711536,0.035386294,0.33806044,-0.06391892,-0.1621922,-0.06952562,0.025033843,-0.05013308,0.008048748,-0.029548805,-0.029110383,-0.05539637,-0.011767364,0.096797585,-0.20004003,0.0763412,-0.21634966,0.117986135,0.037169013,0.23861845,-0.058766488,0.021513768,-0.09154213,0.0038401226,0.10078909,0.21272467,0.06800389,0.10356348,0.2623479,0.101696774,0.028322594,0.15265797,0.11600657,0.27011275,-0.04555575,0.31572887,-0.06222105,-0.17057216,0.118089624,-0.03858814,-0.18700826,-0.04315795,0.05060765,0.16889344,-0.003837092,0.026500078,-0.06804253,0.17057478,0.21464825,-0.059397195,-0.091175295,0.062004186,-0.2618922,-0.17174374,0.086442396,-0.09760478,-0.054396827,-0.079272896,0.08279396,0.25206715,0.29867902,-0.00090006576,0.3353869
-0.18758978,-0.07991775,-0.120515,0.1536178,-0.10932619,-0.0402944,-0.1686524,-0.06037121,-0.15680212,-0.020214079,-0.03646498,0.006394975,0.32557347,-0.19731458,0.028638165,-0.085851975,0.07782288,-0.089396335,-0.055925522,0.088253,-0.07242374,0.05340556,0.003457024,0.11993959,-0.074907355,0.005334496,0.220926,-0.24314806,0.007085593,-0.05618543,-0.04495856,-0.12627816,0.022437913,0.063016504,-0.123411775,-0.16275206,0.09072803,-0.07395882,-0.04410456,0.20029454,-0.07216735,-0.012027937,0.06793211,-0.07592179,0.086753525,0.07739162,-0.09913034,0.087749965,-0.014164285,-0.15184858,-0.03904901,-0.05920808,0.14455813,-0.035164554,-0.124462016,-0.0011996754,0.11042543,-0.03393094,0.17159826,-0.00015742227,-0.043065388,-0.03093511,0.009468143,0.066925615,0.06579983,-0.02571013,-0.045548093,-0.15293524,0.034479268,-0.22806594,0.058519244,0.14773987,-0.0738714,-0.102122724,-0.11826706,0.18320622,-0.025715765,-0.10464714,-0.1008585,-0.01796919,0.019020345,0.19683065,0.07582779,0.095237516,-0.04845598,0.06972402,0.22734535,-0.08774182,-0.09062155,0.2385335,0.014336977,-0.09958406,-0.008951128,0.018107055,0.034361605,0.04234525,-0.08998824,0.10973572,-0.06505993,0.06461928,-0.116408266,-0.055693418,-0.11082918,-0.3232051,0.23193741,-0.06806542,0.052013513,0.03840879,0.06615586,-0.124214634,0.027091345,-0.03791403,0.13430862,-0.08537442,-0.035157833,0.056783855,0.10525645,0.020672958,-0.026690561,-0.10881803,-0.085745946,-0.10914909,-0.082183115,0.09516316,-0.02224577,-0.19780865,0.051658064,-0.16225645,-0.062288683,0.08170639,-0.042727306,0.08259397,0.008039281,-0.114147805,0.087236464,-0.06661016,-0.07681875,-0.042197153,-0.09350627,-0.10005976,0.016888436,0.06660423,-0.020127956,0.009184605,-0.10995459,0.06799348,0.17287679,-0.12029703,0.03693375,0.1156733,0.043572426,0.010398751,-0.061285302,0.0037044452,-0.06867622,0.12358968,0.0108684385,0.0052916985,-0.084503435,-0.04830528,-0.025657767,0.08983749,-0.062977284,-0.04031351,0.02503847,-0.026476094,-0.13928844,0.04372169,-0.11548215,0.18127145,-0.15515871,0.0077579715,-0.06209676,-0.101773456,-0.06955061,0.041718874,0.021752851,-0.11814743,0.10323749,0.084572144,0.014193367,0.07460215,-0.103317454,-0.11891375,0.05104763,-0.030805167,0.12747896,0.17826347,-0.033773746,0.20635244,-0.07782618,-0.15453392,-0.04565447,0.078819655,-0.045873437,0.008060184,-0.12133726,-0.047734294,-0.10498998,-0.0006490055,0.09138637,-0.27151266,0.0727298,-0.047599416,0.14485507,0.034032013,0.23671423,-0.057366114,0.02299576,-0.077694036,0.028175108,0.045269474,0.12012307,0.017167684,0.085500464,0.21371551,0.10039925,0.056753088,0.19809341,0.08320967,0.11660034,-0.033988107,0.20130236,-0.08516918,-0.043857895,0.08888295,-0.029943336,-0.23850648,-0.03943192,0.09935302,0.018870052,0.067929074,0.092836335,-0.079448506,0.28869793,0.11836368,-0.06636969,-0.121904045,0.076265916,-0.24065295,-0.094486274,0.015025171,-0.17210813,-0.11424146,-0.04116187,0.09602705,0.22939292,0.25231326,-0.052853916,0.1522141
-0.052267548,-0.056390483,0.019528113,0.13370492,-0.11885942,-0.04288738,-0.20043778,-0.11546575,-0.09934556,0.00016406467,-0.055927366,-0.008864456,0.10493434,-0.12230136,0.05711203,-0.10537474,-0.009320412,-0.10664762,0.0008976961,0.0891132,-0.057043575,0.0609957,-0.008378957,0.12453862,-0.0660904,-0.038828,0.07447817,-0.1397638,-0.053364307,-0.079120874,-0.016334856,-0.063799575,0.028296316,0.054240912,-0.1427128,-0.09462527,0.092706464,-0.09751037,-0.06723344,0.11083875,-0.118204966,-5.2202377e-06,0.10755813,-0.10318741,0.09189064,0.04432128,-0.09266307,0.1348036,0.0121752145,-0.020254163,-0.04533213,-0.15013012,0.1673994,-0.0075857416,-0.106638566,-0.002250077,0.07443701,0.042408437,0.071038276,-0.060006477,-0.017557004,0.0010983185,0.052937984,0.028087003,0.12093618,-0.030003164,-0.060094826,-0.15824991,0.04591755,-0.18450372,0.0021761616,0.02686244,-0.06517242,-0.115393706,-0.13708584,0.11593579,-0.07416895,0.02377415,-0.10850375,-0.0148587255,-0.078697175,0.17872803,0.17113638,0.1113007,0.023548815,0.06901194,0.12222091,-0.09943279,-0.10123137,0.010820918,-0.010148525,-0.08621461,0.0065993504,0.051200774,0.034009594,0.06291574,-0.04250455,0.11511594,-0.026914809,0.008847343,-0.05712906,0.01095777,-0.07375123,-0.09801743,0.03376208,-0.059376784,0.08694354,0.0063124727,0.050252937,-0.12827705,0.06736094,-0.024264479,0.13034096,-0.018741354,-0.0048858756,0.01088894,0.08882958,0.106115334,-0.043816965,-0.10974918,-0.043851074,-0.103722,-0.0110324165,0.0922611,-0.08652378,-0.21153213,0.12550193,-0.03723876,-0.015709952,0.11327845,-0.10718455,0.11713626,0.079077974,-0.080275774,0.15786351,-0.017958557,-0.109703004,-0.05153679,-0.15095313,-0.04164548,0.019321404,0.12720652,-0.051469043,0.0073454618,-0.14264263,0.19203298,0.09902594,-0.10667687,-0.0029158862,0.040103495,0.06908694,0.036123097,-0.013183335,0.011891926,-0.065055326,0.091887295,0.021444788,0.0053998674,-0.062441863,-0.09699575,-0.05998011,0.105930634,-0.1067263,-0.11569871,0.026306838,0.0039510615,-0.095396966,0.0858661,-0.12637028,0.1574325,-0.14600588,0.024758367,-0.09270408,-0.16004395,-0.08168563,0.05330115,0.008666457,-0.16297284,0.093533,0.06414046,0.011375661,0.08053755,-0.011352071,-0.21289013,0.090857446,0.03551131,0.19953813,0.0721267,-0.017318113,0.17862068,-0.11896399,-0.036766034,-0.014771627,0.065483905,-0.024674328,0.06883574,-0.11796381,-0.06877261,-0.0120725455,-0.005082017,0.0938701,-0.06888383,0.08791733,-0.13808084,0.049696103,0.027607959,0.16868475,-0.1424813,-0.00706168,-0.04385082,0.109422795,0.14227279,0.06713198,0.142614,0.17938356,0.102619104,0.1413114,0.05422952,0.16273871,0.06226039,0.08939009,-0.05083882,0.16254579,-0.12052812,-0.060851917,0.048841618,-0.022386944,-0.07695765,-0.08449362,0.07131652,0.073691025,0.09927262,0.05558156,-0.026529364,0.05254807,0.07461184,-0.0947028,-0.11870943,0.013388746,-0.089110315,-0.13959874,0.10862095,0.035752285,-0.114523165,-0.112635575,0.11952492,0.030050874,0.09718965,-0.06818739,0.15564296
-0.11030239,-0.10409608,-0.078860275,0.11916544,-0.12688288,0.055370916,-0.18223004,-0.09933294,-0.08715461,0.03608192,-0.12430049,-0.11525061,0.11186587,-0.1944437,-0.0030471713,-0.11077324,-0.021868555,-0.1440894,-0.11756247,0.18413126,-0.11106497,0.064853884,-0.044704176,0.08241237,-0.050986465,-0.067508064,0.15031381,-0.15871477,-0.06992424,-0.043774497,0.03463155,-0.084254995,-0.029847952,0.011186905,-0.18831111,-0.12687688,0.1082055,-0.091746345,-0.113705814,0.17273305,-0.08115271,0.009783124,0.12090661,-0.09519602,0.091453135,0.1279417,-0.12409866,0.10338969,0.063383855,-0.12386768,-0.080594614,-0.062211577,0.18970844,-0.06281412,-0.13897924,-0.001088558,0.10433023,-0.006990695,0.044917837,-0.0740224,-0.0914299,0.012180081,0.06526774,0.12480859,0.07817186,-0.0036113106,0.04994826,-0.16388139,0.02412411,-0.103046976,0.122766584,0.109927304,-0.123987526,-0.12903301,-0.09734231,0.066668645,-0.06402979,-0.12187416,-0.09652291,-0.024400527,0.047074545,0.15735452,0.18882094,0.0857145,-0.009816819,-0.010968152,0.15591715,-0.14723082,-0.1741396,0.11766264,-0.0058126077,-0.12878825,-0.0053872904,0.0022962482,0.124695525,0.025395045,-0.1552264,0.13423312,-0.049446844,0.039559428,-0.08331746,-0.02392529,-0.09214886,-0.15166338,0.17915592,0.005123808,0.14679997,0.03127094,0.11914788,-0.17102122,0.032205172,-0.048249125,0.07719024,-0.0657695,0.010125853,0.015585087,0.1281754,0.10305516,-0.03626013,-0.06324818,-0.12286152,-0.036128063,-0.0032383737,0.04344788,-0.04409665,-0.1211962,0.064546384,-0.10802989,-0.089339964,0.14960088,-0.06328218,0.122187205,0.06803763,-0.053704284,0.12136022,-0.07232399,-0.05921777,-0.066472866,-0.036295302,-0.091970675,0.0074259937,0.09172429,0.012115969,0.015998296,-0.14724699,0.25115305,0.20598656,-0.11896458,-0.022394102,0.108397916,0.11368024,0.0869343,-0.09273068,-0.03539994,-0.070676014,0.039998118,0.02530397,-0.042276997,-0.08476261,-0.08557047,0.01487612,0.10849477,-0.06713668,-0.1156981,0.019506829,-0.009396886,-0.116037495,0.15563253,-0.15469056,0.16708449,-0.12718852,-0.003035914,-0.047694944,-0.13486974,0.038214684,0.027349904,-0.001048156,-0.13368966,0.04289794,0.121880494,0.095682174,0.05927736,-0.10331275,-0.10352058,0.07589033,-0.081378356,0.12317321,0.14685003,-0.017195364,0.1450754,-0.0763747,-0.057465497,-0.06675448,0.15339106,-0.13924624,-0.02111429,-0.09499513,-0.09327172,0.012001934,-0.03719243,0.085869044,-0.15424912,0.010726169,-0.10463188,0.080188245,-0.0018246595,0.1062541,-0.1433156,0.062946044,-0.0081300875,0.13004051,0.14426312,0.1277564,0.1781694,0.1282195,0.023199754,0.07628602,0.028077397,0.15528998,0.094757356,0.18879353,-0.10271438,0.2245352,-0.23355584,-0.14283228,0.09350727,0.014998509,-0.14488235,-0.12223912,0.1131902,0.13194734,0.18062,0.047857393,-0.102478206,0.10473543,0.039233424,-0.0731951,-0.1786352,0.10724781,-0.13359204,-0.1568842,0.04396817,-0.03632978,-0.10219007,-0.12543774,0.12457319,0.1277911,0.1797217,0.05303011,0.31420815
-0.123339415,-0.008944361,-0.093159266,0.08606796,-0.15428469,-0.06649422,-0.15985066,-0.14726213,-0.06883351,0.045085393,-0.03676049,0.0065736584,0.12141628,-0.062128518,0.04855102,-0.04356826,0.03561998,-0.17301358,-0.008505796,0.149109,-0.0963925,0.069476455,0.009391815,0.15730083,-0.09427676,-0.036199793,0.12585773,-0.1443748,-0.066532716,-0.06843364,0.017127661,-0.09907015,-0.03204922,0.036718722,-0.031509493,-0.15095225,0.066420764,-0.05393928,-0.0665836,0.09308978,-0.055819258,0.09499995,0.055653464,-0.06340806,0.052430652,0.09624952,-0.11260153,0.11518565,0.03776834,-0.19162245,0.0059080427,-0.046779286,0.12482245,0.010777344,-0.13884848,-0.08287102,0.076283455,0.0036526124,0.21912028,-0.06834509,-0.09103848,-0.03841371,0.04981961,0.05391528,0.09222841,0.01469888,-0.06296539,-0.16661738,0.023111742,-0.15923032,0.09303602,0.13873158,-0.1303298,-0.16356856,-0.10771855,0.11288818,-0.09808376,-0.12555747,-0.12740736,-0.04293358,-0.055075515,0.20337547,0.13411392,0.047326226,0.026629858,-0.03053366,0.15546086,-0.050129257,-0.18603984,0.18297853,0.08020004,-0.11311933,-0.07927673,0.06442128,0.05873631,0.030541303,-0.13616815,0.07860809,-0.07652982,-0.060785294,-0.101234235,0.004599333,-0.12749113,-0.20657526,0.16060112,0.04909341,0.11908726,0.023834413,-0.00077056454,-0.18230443,0.020328116,0.062672436,0.13376021,0.011608465,-0.10031943,0.033670105,0.047892984,0.04341177,0.027949372,-0.1237265,-0.02262951,-0.12648529,-0.01835287,0.08111505,0.012870263,-0.15736113,0.015676202,-0.18710238,-0.09720445,0.056068633,-0.07893414,0.09176015,-0.03934046,-0.0033639965,0.05037846,-0.089823395,-0.06507124,-0.034196544,-0.16292898,-0.0416856,0.027471332,0.10026442,-0.10578533,0.026324436,-0.07844707,0.032628525,0.1079072,-0.06568194,0.061577898,0.083253905,0.11988429,0.09695293,-0.02669482,0.052159075,0.03595217,0.09313626,0.0012083205,0.039062854,-0.090264276,-0.12233825,-0.04212029,0.083124965,-0.07924717,-0.040184923,0.023059567,-0.009012949,-0.08000579,0.1249814,-0.16526121,0.1540283,-0.1835651,0.009598245,-0.13007557,-0.16347884,-0.09231776,0.04495247,-0.045520812,-0.11057423,0.07283297,0.10017399,-0.014601294,0.08106376,0.029480789,-0.14824368,0.029124338,0.056793567,0.14978412,0.14808437,0.055427194,0.13123924,-0.12182668,-0.17567536,0.014463017,0.06350942,-0.017667277,0.012339034,-0.033646878,-0.13288517,-0.09319448,-0.075240694,0.03251405,-0.1841163,0.04088999,-0.07122341,0.20599438,0.04848958,0.20009711,-0.08099508,-0.0056851357,-0.036830373,0.035640538,0.10770119,0.040963616,0.11041395,0.13063182,0.12497745,0.13948452,0.009866697,0.158522,0.08617128,0.082944505,-0.113132276,0.19321145,-0.09249185,-0.053950857,0.13689213,-0.06628359,-0.17818883,-0.039236885,0.18411657,0.025042186,0.021288743,0.0040913955,0.024060905,0.21810474,0.10355466,-0.095970295,-0.093640596,-0.044496216,-0.119383626,-0.11792457,-0.0061005284,-0.17306358,0.0039888704,-0.069100276,0.10490521,0.1530929,0.22190855,-0.06450528,0.24791229
-0.109023176,-0.14089037,-0.11459881,0.1665557,-0.14605783,-0.08972391,-0.300078,-0.18865901,-0.13686727,0.18896525,-0.085406,-0.03980839,0.1957638,-0.1910682,0.16041353,-0.21176632,0.14809212,-0.24034582,-0.10292229,0.21380623,-0.10567268,0.10969163,0.3370191,0.25363848,-0.059195507,-0.09680008,0.12926248,-0.20028381,-0.06760024,-0.13764653,0.48690736,-0.14314792,-0.11988223,0.1177239,-0.26560625,-0.12675756,0.019637303,-0.14296164,-0.2185061,0.23631291,0.34885293,0.14046118,0.16329275,0.05058925,0.16307122,0.14881371,0.029150335,0.116264194,0.33347127,-0.054676764,0.36623964,0.09644411,0.2095345,0.45540372,-0.017095018,-0.16034183,0.25203118,0.17281082,0.17402527,-0.09694528,-0.108659446,-0.15024425,0.16634083,0.10163854,0.19075695,0.3043087,-0.062305417,-0.16212043,0.06562602,-0.25017348,0.026408039,0.13583513,-0.22987464,-0.10380882,-0.14842308,0.16011603,-0.034203712,-0.09723524,-0.19004868,-0.1599346,-0.12593314,0.26329634,0.29414478,0.13327163,0.0810564,-0.41661048,0.23696937,-0.11827409,-0.2204791,0.117425896,0.13523066,-0.1234479,-0.12637953,0.06487794,0.22026533,-0.42666173,-0.17233244,0.16883957,-0.08393759,-0.23567311,-0.1525929,0.19923711,-0.15867198,-0.19069274,0.14505996,0.18557079,0.13303941,0.13252704,0.17184009,-0.05146426,-0.3909538,0.41556618,0.15586276,0.14193405,-0.09869817,0.18695512,0.23978575,0.13462225,0.37435582,-0.06665909,-0.08840965,-0.07397321,-0.08994167,0.21396318,0.42436853,-0.33701524,-0.15372819,-0.13677017,-0.04609725,0.25672072,-0.08121699,0.17829788,-0.34760812,0.18185546,0.21104626,-0.11865532,-0.17342012,-0.33775985,-0.19141842,-0.1003049,0.28170893,0.19804093,-0.124604166,0.25739884,-0.30928037,0.2302432,0.23155583,-0.041160345,0.17420235,0.064073935,0.06470266,0.0653749,-0.15749349,0.09389485,0.2674023,0.20186242,0.2039452,0.010569987,-0.21955849,-0.10013397,-0.07090269,0.11871815,0.38091707,-0.13959698,0.086150266,-0.22289276,-0.21236992,0.137259,-0.12375286,0.25750872,-0.10276904,0.09946203,-0.14186116,-0.23962243,-0.16002676,0.1383923,-0.10121546,-0.10763461,-0.17919762,0.1193216,0.16065288,0.13715726,0.09154647,-0.4233217,0.11944937,0.13571972,0.26499918,0.1520145,0.28434005,0.21724625,-0.24898756,-0.14366083,0.3086184,0.16995566,-0.16597883,0.107102975,0.26509658,-0.043447714,-0.17640653,-0.08902703,0.06442717,-0.19446789,-0.40859824,-0.13744429,0.11994804,0.12641129,0.21181762,-0.13945821,-0.17552707,-0.13566548,0.112430856,0.0856965,0.09231717,0.3244614,0.11658117,0.22001804,0.35348305,-0.4063503,0.16831999,0.07426119,0.24736008,-0.100249715,0.20759551,-0.24253011,-0.11311198,0.18207319,-0.17193037,-0.15777344,-0.013321657,0.3138521,0.15174647,0.23993246,-0.14213486,0.05939785,0.13896787,0.17849942,-0.1580984,-0.24618098,-0.033143498,-0.18902117,-0.19724661,-0.27635756,-0.1511204,0.17136157,-0.1049244,-0.14024979,0.17179024,0.16757353,-0.07713012,0.3317812
-0.17396155,-0.068638645,-0.20049107,0.13211544,-0.114510596,-0.021372812,-0.15463653,-0.16009548,-0.18328163,0.008909406,-0.03924843,-0.075988874,0.30466935,-0.25063345,0.010962412,-0.074082345,0.03919885,-0.07700371,-0.105082825,0.14949164,-0.0760151,0.064491734,0.0038262578,0.14891955,-0.12505077,0.0034395878,0.21600413,-0.18138446,-0.01423009,-0.021685008,0.0033280696,-0.102750175,0.011900254,0.054658215,-0.13264501,-0.09436652,0.1586038,-0.014238874,-0.17700765,0.17947677,-0.09401824,0.019939737,0.13985032,-0.13339226,0.07304162,0.15066531,-0.100518584,0.10658758,-0.02529638,-0.16647708,-0.07232203,-0.1548881,0.20558342,-0.03127516,-0.17802432,-0.014672633,0.16241537,0.0074595828,0.15700461,-0.08322671,-0.12875248,-0.059643604,0.13408986,0.06058346,0.16128111,-0.030373441,-0.025898552,-0.18313737,0.027571902,-0.15125726,0.109201156,0.22206084,-0.09768522,-0.16894855,-0.12768069,0.25578764,-0.11812911,-0.22189544,-0.13249117,-0.048413217,-0.060065385,0.16852999,0.15097682,0.12072727,-0.044897366,0.09369006,0.18815741,-0.16757596,-0.16610001,0.16658725,-0.0051498003,-0.071966864,0.008602541,0.019627715,0.14978853,0.074537985,-0.21290493,0.1618338,-0.15180534,0.0013283658,-0.14887843,-0.008188792,-0.10119691,-0.25332147,0.19604245,-0.024349663,0.18385121,0.03296362,0.15410197,-0.14054972,0.062038384,0.011059225,0.11237511,-0.110037446,-0.08414716,0.091406256,0.16546021,0.061183076,0.008429534,-0.10374418,-0.040469263,-0.05873878,-0.036921356,0.18407266,-0.09948373,-0.10880696,0.14012887,-0.16889782,-0.10262713,0.13860409,-0.085612714,0.10180067,0.0209223,-0.079128005,0.18873084,-0.15265357,-0.050802287,-0.058126397,-0.13354206,-0.056369077,-0.076163046,0.18682252,-0.08294998,0.008821924,-0.15072873,0.22407028,0.18173303,-0.06250593,0.043865778,0.24701312,0.1369657,0.09164551,-0.09118748,0.0018929773,-0.010320105,0.12666643,0.027705405,-0.041142307,-0.13389583,-0.13744545,0.062319286,0.18701433,-0.04049729,-0.052505486,-0.01775772,0.030512933,-0.16085081,0.14419319,-0.23752865,0.09769181,-0.14881562,-0.0039366516,-0.050090704,-0.16100568,-0.055050604,0.063433684,0.051863678,-0.14013252,0.07112322,0.11599048,0.1217151,0.1402099,-0.01836407,-0.13458024,0.03808295,-0.035688967,0.08860583,0.21638957,-0.02016655,0.22415678,-0.1608692,-0.27954257,-0.07168608,0.109195516,-0.10996472,-0.026248978,-0.06944886,-0.14896087,-0.01396686,-0.107193165,0.09599511,-0.18901129,0.043386355,-0.10538695,0.24989079,0.008765702,0.20348884,-0.10480008,-0.028347656,-0.0829809,0.12223202,0.13332084,0.17597207,0.1778859,0.15124515,0.2432165,0.1602994,-0.0022576337,0.23125042,0.029475346,0.21379039,-0.111413695,0.2577588,-0.21046491,-0.069025464,0.16492829,-0.06827948,-0.2373284,-0.05010671,0.11678394,0.082816646,0.13151953,0.041639887,-0.023422271,0.22248763,0.16316782,-0.04615374,-0.13390914,0.012775181,-0.21052146,-0.14686811,0.038793515,-0.1598413,-0.08463247,-0.15286994,0.1290236,0.22422282,0.31358716,-0.023017772,0.21973236
-0.105203375,-0.21820062,-0.09041787,0.23354751,-0.12802255,-0.033716314,-0.17834821,-0.15362392,-0.11748859,0.06647871,-0.018064944,0.02416924,0.21913353,-0.24543491,0.050658524,-0.11095531,0.030022452,-0.045469426,-0.103787266,0.2827006,-0.037794866,0.030794064,-0.012051592,0.32814854,-0.03582075,-0.076750614,0.22650631,-0.35527125,-1.1963523e-06,-0.11721262,0.078880884,-0.05804843,-0.01911817,0.0929496,-0.24094513,-0.18187317,0.06711446,-0.08877711,-0.066533364,0.24802622,0.017566588,0.039266683,0.023365436,-0.093627356,0.07449256,0.087823726,-0.052996673,0.07161665,0.09062318,-0.17547593,0.011319617,-0.08931009,0.32276285,0.0041416497,-0.10386575,-0.073178366,0.119141236,0.07419143,0.15242939,-0.014012062,-0.056643456,-0.105640315,0.11539782,0.022018567,0.11059644,0.00093929406,-0.04774028,-0.109769866,0.05632649,-0.26200134,0.23090652,0.15157045,-0.043262757,-0.05845915,-0.18658176,0.19817418,-0.007058071,-0.18821275,-0.12245657,-0.059058137,-0.031373583,0.2575379,0.07670014,0.08687434,0.078151055,0.046141118,0.15195665,-0.05753414,-0.124776274,0.17790076,0.027412457,-0.014813885,-0.04837223,0.08049536,0.10564339,0.016525226,-0.19927587,0.122326724,-0.02243422,0.01714684,-0.08095649,-0.011048721,-0.26167193,-0.2521906,0.22206539,-0.030008191,0.044071443,0.038863786,0.04068875,-0.124567226,-0.00291197,0.050940275,0.070714444,-0.0041754344,-0.089470424,0.032218464,0.3398788,0.04386676,-0.036952283,-0.05798345,-0.02880929,-0.12663731,-0.08103122,0.2653358,-0.017577982,-0.1529026,0.012731201,-0.16980554,-0.028270304,0.24495392,-0.012241882,0.10341071,0.042349696,-0.068345755,0.11453402,-0.043341596,-0.06760825,-0.087641455,-0.19320412,-0.025065744,0.008358718,0.1163269,-0.04539631,-0.016951349,-0.16806506,0.16954882,0.28736448,-0.07933339,0.08276135,0.14183828,0.095196545,-0.0070440373,-0.16036043,0.009410786,0.03556757,0.10675807,0.029365174,0.03650708,-0.08733029,-0.16254765,-0.11205118,0.10762548,0.018388063,-0.11093926,0.011968555,-0.07052472,-0.08783812,0.090793155,-0.18759464,0.06467942,-0.14373772,0.03847962,-0.09701507,-0.10991743,-0.04324647,0.031016702,-0.03377833,-0.15595642,0.08042158,0.03622538,0.095879965,0.09912164,-0.053195573,-0.11405185,0.019137181,0.009418585,0.0500396,0.21590479,0.052634127,0.295413,-0.104787886,-0.17226307,-0.0522623,0.094126984,-0.12722135,0.0209162,-0.05810977,-0.10139758,-0.11854673,-0.105038054,0.06329192,-0.20005453,0.02041489,-0.097215116,0.17033571,0.02243408,0.27961457,-0.056536797,-0.036573924,-0.09504733,0.07433827,0.049595773,0.31976712,0.10832663,0.06477559,0.24552922,0.1271097,-0.03512084,0.17281328,0.046852604,0.3722154,-0.03251358,0.34743837,-0.10898584,-0.04469597,0.11702709,-0.046576638,-0.20406686,0.02154735,0.084207095,0.24542528,0.11059546,0.0411471,-0.05366896,0.15251286,0.25661448,-0.08707825,-0.109157294,-0.008959877,-0.21674588,-0.12010161,0.03932434,-0.15266329,-0.08883751,-0.13929589,0.10614728,0.22780535,0.3785897,-0.05204354,0.41291592
-0.07102458,-0.060570493,0.00045203615,0.116887994,-0.07817005,0.011988704,-0.17910303,-0.15541841,-0.0035210743,0.053974964,-0.05057626,-0.00997157,0.113679804,-0.18560652,0.112319455,-0.08029152,0.07975247,-0.14835533,-0.008005843,0.14794563,-0.03149469,0.057540394,0.0010841467,0.1382478,-0.041138656,-0.022263855,0.17518581,-0.23547626,-0.0120726945,-0.10442462,-0.04505945,-0.12620291,-0.06877895,0.042688232,-0.08268886,-0.081843935,0.05897382,-0.00815696,-0.14246455,0.14066288,-0.049248338,0.00028172426,0.092943594,-0.109686196,0.08936562,0.05668825,-0.03034067,0.100003995,-0.012387958,0.009143805,-0.08751645,-0.11528464,0.15774806,-0.028719677,-0.06643859,-0.0850517,0.043251622,-0.00876741,0.1706955,0.00411619,0.0069659944,-0.015075532,0.038272902,0.05827203,0.0975229,0.013773306,0.010696302,-0.12961496,0.06090346,-0.22988063,0.029952142,0.011247605,-0.048845053,-0.1442168,-0.10490115,0.19880415,-0.104182556,0.0012933243,-0.11843245,-0.021910444,-0.06377563,0.12642653,0.1467199,0.10729161,0.0005891878,0.047424126,0.10224081,-0.07422399,-0.022716312,0.075387634,0.050919786,-0.09200509,-0.063632466,0.011291189,0.031509396,0.079497226,-0.07298882,0.07358793,-0.07312149,0.019180296,-0.05953318,-0.022428647,-0.071212076,-0.14070995,0.17531379,-0.02318048,0.057272673,0.068377934,-0.01432866,-0.065896824,0.05347616,-0.029296083,0.116633706,-0.007517743,-0.039799426,0.026475882,0.18844339,0.03347124,-0.072286844,-0.086379305,-0.010008627,-0.042720925,-0.08481771,0.10984331,-0.075688764,-0.20889251,0.014411763,0.027282227,-0.03758642,0.13905758,-0.07887903,0.081577554,0.042520076,-0.01837682,0.07896551,-0.07566147,-0.08366342,-0.08090983,-0.118223175,-0.0062984666,-0.031381596,0.09132064,-0.096960865,-0.035631366,-0.13588293,0.08701651,0.14737593,-0.12488672,0.053140827,-0.023210354,0.06143829,0.033785775,-0.017518386,-0.04554782,0.012105564,0.11048843,0.020561932,0.011857765,-0.1258276,-0.08506238,-0.050713822,0.014097159,0.002704222,-0.101095684,-0.023823926,-0.04779666,-0.09924097,0.04456222,-0.08211526,0.1305106,-0.16052884,0.045225784,-0.1347645,-0.08949652,-0.03365619,0.037478298,0.007078446,-0.09726706,0.064929366,0.039674267,0.00065833644,0.07444398,0.031603962,-0.15614925,0.040637035,-0.0012868734,0.13078062,0.085727245,-0.03132175,0.20596996,-0.06966231,-0.0042393636,-0.025166236,0.040933162,-0.027473692,0.040924773,-0.022692567,-0.04790641,-0.023521075,0.004931822,0.09217946,-0.12461728,0.00316167,-0.12245609,0.054876402,0.019041304,0.19369975,-0.07084144,0.046375077,-0.051166553,-0.03366535,0.082483195,0.06212081,0.05380091,0.08421245,0.1838857,0.19465582,0.06574457,0.082959935,0.04270013,0.1246749,-0.082242005,0.19303273,-0.06710209,-0.06899925,0.052371807,-0.053206235,-0.1218449,-0.03370279,0.039928388,0.043356694,0.04418018,0.02161495,-0.016265256,0.10872323,0.13452956,-0.113003395,-0.13323165,0.016188767,-0.16690053,-0.048674323,0.0731779,0.0017489924,-0.0802712,0.006730358,0.14919688,0.18786204,0.16208453,-0.038621265,0.24532865
-0.021787237,-0.17897816,-0.037309024,0.13969615,-0.052523877,-0.021764334,-0.22479367,-0.11198044,-0.05084497,-0.054493953,-0.09195015,-0.055604313,0.13935266,-0.13432103,0.097728275,-0.031976163,0.02900435,-0.13406801,-0.11399348,0.06672784,-0.0068975883,0.012707368,-0.035083294,0.081947975,-0.060240753,-0.028400663,0.14285539,-0.19264507,-0.0062552905,-0.11378228,-0.018550687,-0.04341797,-0.0505808,0.08679029,-0.26124385,-0.11038902,0.110812195,-0.03841937,-0.1169911,0.14396621,-0.0834866,0.013581463,0.072868735,-0.13057409,0.112546235,0.09981916,-0.049205642,0.055814028,-0.015463765,-0.09559188,-0.05077968,-0.079369985,0.15093477,-0.042138126,-0.12566134,-0.078857325,0.09116173,0.002773522,0.1577834,-0.045840763,-0.08285154,-0.05531496,0.038119283,0.04482734,0.15646318,-0.06467849,-0.04989213,-0.07875279,0.008879026,-0.20180702,0.03213105,-0.011217071,-0.097456,-0.1604925,-0.09343958,0.14678006,-0.04304289,-0.09401046,-0.079271145,-0.021239966,0.019813115,0.1902908,0.11928212,0.025431838,-0.035450734,0.008340951,0.15536907,-0.120330445,-0.11069824,0.081936814,0.011744924,-0.123673774,-0.0753331,0.048902772,0.10288074,0.06654172,-0.09153231,-0.0006777427,-0.08261523,0.049739465,-0.045152593,-0.06305135,-0.099786095,-0.19466428,0.15222418,-0.015723845,0.13038819,0.053278163,0.14436553,-0.1293312,0.0015861536,-0.032229453,0.096533425,-0.0904675,-0.083962336,0.01791545,0.1682107,0.03681746,-0.029007303,-0.038065296,-0.07803437,-0.15406556,-0.031021602,0.0788479,-0.027316196,-0.10621852,0.06720886,-0.029972715,-0.013444164,0.20572123,-0.09340607,0.13176781,0.027250776,-0.03819428,0.1666359,-0.0860143,-0.07216423,-0.046403367,-0.19618288,-0.07820303,-0.030603122,0.13526066,-0.055155136,-0.002175905,-0.23071736,0.19594623,0.16239524,-0.08338276,0.09601681,0.071810044,0.119500026,0.07412667,-0.113811165,-0.01800569,-0.03925848,0.09231641,-0.054313913,-0.0051678256,-0.13788848,-0.107579514,-0.06625201,0.12836105,-0.07383858,-0.070985325,-0.0006403044,-0.04218985,-0.06526939,0.10856716,-0.092495635,0.15114684,-0.14173728,0.060092736,-0.086402625,-0.08667121,-0.018286023,0.034190305,0.0077398866,-0.12012484,0.1427884,0.059687372,0.1670971,0.058990207,-0.04151152,-0.20371942,0.0452649,0.030775655,0.1348036,0.17952275,-0.015277063,0.2089557,-0.08062395,-0.06278516,-0.07123355,0.15150651,-0.14230941,-0.034430597,-0.093560345,-0.12766066,-0.07913309,-0.10221297,0.026112048,-0.08877203,0.047273237,-0.10524667,0.028427629,0.003795509,0.27529767,-0.030160159,0.041594073,-0.08696931,0.11180995,0.07820633,0.08963073,0.10130952,0.12681772,0.076687366,0.14674102,0.019333512,0.17189398,0.029878534,0.19207731,-0.027074346,0.19728842,-0.2685274,-0.091711104,0.113701075,-0.03700587,-0.15865485,-0.050536707,0.13775073,0.17421015,0.12369741,0.052755546,-0.026019137,0.17019847,0.02327016,-0.06852193,-0.14847389,0.027892472,-0.11738134,-0.10570996,0.027364096,-0.05050242,-0.09276039,-0.11452117,0.16799712,0.1572833,0.14489527,-0.02092854,0.21547388
-0.22612597,-0.0406386,-0.20096153,0.08838017,-0.13469848,-0.0923928,-0.16828083,-0.16163504,-0.16917889,0.09993923,-0.073541224,-0.0442504,0.21901776,-0.20747882,0.07498356,-0.12641351,0.077760175,-0.046141423,-0.06755469,0.13084123,-0.054619532,0.019710617,0.010910067,0.23294337,-0.09305997,-0.0721086,0.23520689,-0.3586331,-0.06981733,-0.054778345,0.041673698,-0.090090126,-0.005267372,0.12020723,-0.13342176,-0.17102483,0.06688062,-0.07609043,-0.123549454,0.20431559,-0.03681111,0.018633865,0.046459515,-0.09228522,0.09511247,0.07229565,-0.05824068,0.03382776,0.07047492,-0.20084924,-0.0011325866,-0.041248295,0.24819848,0.008240034,-0.10979825,-0.030230915,0.12161422,0.09180542,0.20145757,-0.056160126,-0.017718565,-0.081177466,0.07864098,0.033311754,0.16630448,0.042633545,-0.048002265,-0.13982895,0.03720444,-0.31545267,0.042009246,0.24439836,-0.09241438,-0.035475913,-0.11871061,0.22057964,0.004380633,-0.22503382,-0.103612766,-0.07380907,-0.008338182,0.20593822,0.07356379,0.1340253,0.07213897,-0.004060199,0.23861635,-0.14912724,-0.16405357,0.21775047,0.09905756,-0.13552009,-0.05366269,0.112456255,0.1401652,0.00082458265,-0.25057957,0.09526064,-0.08573691,-0.022878472,-0.058548227,0.023230867,-0.08945178,-0.2389133,0.17038806,-0.028564181,0.08326207,0.081947915,0.031838924,-0.1485979,0.03832903,0.050840266,0.07904973,-0.009559503,-0.1157123,0.06970711,0.14364213,0.12759802,0.008260649,-0.13114892,-0.023701563,-0.050635103,-0.10876684,0.163386,-0.03333106,-0.07075283,0.04762286,-0.15956508,-0.06720859,0.17064919,-0.14330377,0.111851364,-0.0040855897,0.047483336,0.09518143,-0.03720962,-0.07897127,-0.03576411,-0.17477958,-0.022668134,0.019861536,0.083407946,-0.090936564,0.0038798458,-0.18580468,0.18951868,0.12073554,-0.022975944,0.06603349,0.19037881,0.08860612,0.029399702,-0.042450927,-0.018522836,0.03279694,0.1455066,-0.03525571,0.002057613,-0.082241744,-0.12547192,-0.05320143,0.09463495,0.04417196,-0.09903388,0.07096956,-0.04867953,-0.11742278,0.10303941,-0.21677962,0.16834457,-0.22156803,0.035948806,-0.08126728,-0.21322766,-0.048292678,0.032108806,0.05052995,-0.1335357,0.03775061,0.09020343,0.1500201,0.15167299,-0.0042405557,-0.064130254,0.08338562,0.074630074,0.051280778,0.20702188,0.026281275,0.24052785,-0.047383048,-0.1885042,0.026388602,0.114875205,-0.121861115,0.10938484,-0.049483094,-0.10447914,-0.11573961,-0.017638419,0.049475003,-0.2968942,0.007234154,-0.0966055,0.25346914,0.06634436,0.32769907,-0.11713474,0.0170546,-0.084185496,0.092982836,0.016286984,0.1997575,0.13612415,0.035517346,0.1866572,0.046554476,0.0025472192,0.17279236,0.09279751,0.23737906,-0.026463253,0.27884278,-0.1270405,-0.16363406,0.21765772,-0.05838066,-0.25236553,-0.050618432,0.12012871,0.14689964,0.028878044,-0.007774013,3.6733505e-05,0.1674717,0.17489637,-0.1269649,-0.13435966,-0.043540288,-0.2340544,-0.10423372,0.002202407,-0.22754754,-0.009569725,-0.10012026,0.10756527,0.2764525,0.32255787,-0.063368544,0.3057034
-0.033863164,-0.00885373,-0.027979469,0.020414324,-0.18511766,-0.28390363,-0.23668893,-0.18277368,-0.032575145,0.35502693,-0.31427616,0.029138677,-0.018689832,-0.041420728,0.31459284,-0.115819775,0.28522298,-0.033605084,-0.018918524,0.055519503,-0.29604474,0.31356052,0.3528922,0.03560772,-0.2700376,-0.35449073,0.006766132,-0.024474367,-0.2362356,-0.17952432,0.3483212,-0.1751479,-0.27518865,0.2747643,-0.010354805,-0.08403417,0.020601789,-0.32774404,-0.031903338,0.027493324,0.3362791,0.30380583,0.008882964,0.21365726,0.30050403,0.017300688,0.06690924,-0.011147902,0.3267103,-0.02854011,0.3328262,0.13188131,0.068742834,0.32272384,0.10280588,-0.3093635,0.013978531,0.33676544,0.014625605,-0.30124208,-0.24816996,-0.21932204,0.027072314,0.15179412,0.17753717,0.30991703,-0.26716533,-0.068278655,0.19476229,-0.026201494,0.014136765,0.036519494,-0.13718593,0.107142694,-0.028421335,0.02740497,0.13734876,-0.032098595,-0.22025152,-0.26972127,-0.28506887,0.014492239,0.058407977,0.3202074,0.29755306,-0.35442874,0.0059880824,-0.2944694,-0.016617805,0.03428293,0.2609575,-0.28115496,-0.25630033,0.13414119,0.027150597,-0.31768954,-0.03886124,0.038884994,-0.08906763,-0.35295567,-0.26008683,0.33942488,-0.010869237,0.012528361,-0.040208712,0.3115558,-0.008301639,0.28968376,0.016281603,0.033462066,-0.32041976,0.3385313,0.15780166,0.3514603,-0.23866735,0.27280226,0.035676364,0.3249396,0.34144917,0.05124558,-0.29277453,0.024679873,-0.2662812,0.038849518,0.37425736,-0.03082349,-0.29022405,-0.027003549,-0.3182871,0.0042530773,-0.30150416,0.33258107,-0.3485019,0.3661025,0.013933864,-0.0018145267,-0.043105774,-0.28843853,-0.036136396,-0.26945987,0.3734311,0.025699751,-0.25268325,0.30657026,-0.038692772,0.026825609,-0.024834666,0.10363585,0.28105095,0.027289681,0.019237336,0.31609723,-0.019714152,0.30522484,0.34553257,0.22995573,0.30649465,-0.039529603,-0.032312427,-0.01927183,-0.010618929,0.02843338,0.33907434,-0.32338083,0.34258127,-0.3222807,-0.1435638,0.3311977,-0.038711637,0.27712086,-0.030859936,0.28833488,-0.23718572,-0.21197174,-0.25291482,0.27535728,-0.31986696,-0.022719339,-0.23650594,0.10431952,0.019624263,0.114436164,0.27953684,-0.058126964,0.3300798,0.24934195,0.034396354,0.014697771,0.3520979,0.029611554,-0.06405477,-0.03700278,0.3697096,0.025424395,-0.01817879,0.33546945,0.30332276,-0.020246744,-0.24251485,-0.009093921,0.3027581,-0.03616375,-0.31572595,-0.3074099,0.036209468,0.24181966,0.04781557,-0.071309574,-0.28162333,-0.25578144,0.019157968,-0.034178607,0.01866781,0.057847675,-0.12497255,0.02892468,0.1091134,-0.32818887,-0.10231334,0.26733175,0.047373116,-0.3099127,0.013471193,-0.015963288,-0.27578688,0.029943956,-0.2615636,-0.029653518,-0.2784073,0.20807642,0.015748326,0.019225484,-0.3229102,0.1621879,-0.023045104,0.035959546,-0.27107334,-0.01724444,-0.21223952,-0.00043474406,-0.23981802,-0.33842203,-0.028315037,0.25579375,-0.016838878,-0.18159929,0.033456266,0.05327298,-0.2874671,0.06820313
-0.23112708,-0.03351349,-0.12165862,0.061957322,-0.14830945,-0.033131413,-0.24752717,-0.12096043,-0.22584604,0.0215337,-0.03814563,-0.04855967,0.18997736,-0.14050007,0.08491069,-0.08889518,0.062704995,-0.0754889,-0.09877175,0.19145161,-0.03404489,0.09054689,-0.04142617,0.11708595,-0.06862443,0.038763687,0.11964552,-0.1484783,-0.0612577,-0.054133892,0.0043692808,-0.05979531,-0.0062452066,0.069008306,-0.14296736,-0.07709923,0.13907936,-0.08927131,-0.14468889,0.13014412,-0.05614062,0.034727674,0.16143456,-0.13018495,0.08828538,0.11297164,-0.11155292,0.17144866,-0.033430606,-0.20749494,-0.06962166,-0.13574693,0.19451945,-0.007127411,-0.13923986,-0.096480764,0.07580289,-0.035905167,0.12764032,0.018216534,-0.09572588,-0.074708626,0.11838593,0.008137085,0.14648148,-0.05266202,-0.0850136,-0.10015009,0.018444976,-0.23670694,0.13376728,0.19826981,-0.06415366,-0.14827645,-0.07424515,0.139444,-0.096902534,-0.22304441,-0.1338957,-0.06435783,-0.06458391,0.13340864,0.17038888,0.040619507,0.0039252937,0.08235826,0.13882194,-0.12324101,-0.113935694,0.2099232,0.0018523297,-0.09360275,-0.028653543,0.06844137,0.07227497,0.039577845,-0.16370909,0.11592569,-0.020851143,0.014184823,-0.0788298,-0.03739293,-0.13019685,-0.13265686,0.13603224,-0.021194788,0.11791803,0.015342774,0.10378909,-0.13564615,-0.010903379,-0.04078719,0.10734362,-0.092031166,-0.042433478,0.0531831,0.18495359,0.08835881,0.012019583,-0.09573334,-0.061365254,-0.11801481,-0.045940254,0.06420588,-0.09069856,-0.13391611,0.12539305,-0.21444415,-0.040121794,0.10770894,-0.09832577,0.062100533,0.0012409888,-0.021330476,0.076093756,-0.11795218,-0.12388104,-0.028112095,-0.16041388,-0.030564956,0.008497316,0.14524923,-0.08176343,0.0011510114,-0.073945776,0.087463506,0.0877186,-0.14645277,0.055824596,0.18137963,0.14601418,0.047971793,-0.027345626,-0.030715354,-0.043513086,0.12103081,0.0032048244,0.02648143,-0.14040919,-0.120529465,-0.029393615,0.13891725,-0.044698074,-0.08059747,-0.05147758,-0.045645304,-0.13546458,0.11337747,-0.15738368,0.10365146,-0.19365086,0.05421653,-0.060660593,-0.16170831,-0.06855093,0.08253832,0.031161461,-0.07687031,0.04404142,0.121704385,0.0777756,0.13539232,0.031107517,-0.110016145,0.11209525,0.031885404,0.13550308,0.17400354,0.0054672384,0.21391599,-0.13784194,-0.17403013,-0.10320145,0.12341193,-0.05828501,0.013991029,-0.084382154,-0.100078374,-0.05842172,-0.01984316,0.060110193,-0.17955789,0.013753725,-0.061807036,0.16509351,0.09020837,0.22774734,-0.109031,-0.028176026,-0.038362503,0.07735562,0.091746256,0.11852375,0.16465363,0.113211274,0.14098585,0.0701389,0.010278653,0.17740114,0.07003658,0.19362168,-0.031512078,0.21320793,-0.08497241,-0.11108966,0.15389685,-0.12476153,-0.25275192,-0.00059542723,0.099818304,0.10758077,0.06913648,0.052792575,-0.0197986,0.18738769,0.05831009,-0.13485207,-0.15261555,-0.02423872,-0.1261652,-0.11325615,0.09969425,-0.21286714,-0.06878745,-0.10277033,0.08436178,0.18421204,0.2188427,-0.050882008,0.26049757
-0.059074823,-0.027259182,-0.06893441,0.101441965,-0.044398908,0.022506345,-0.16716315,-0.14357083,-0.09919381,-0.034879014,-0.035244912,-0.09314446,0.2280355,-0.17759308,-0.008092713,-0.10946889,-0.0024561633,-0.15299796,-0.04602588,0.2147922,-0.09028139,0.08126395,-0.021496644,0.050200295,-0.10635815,-0.049137857,0.115774885,-0.20635839,-0.07445611,-0.06505436,-0.029096931,-0.048224647,-0.03565997,0.03959022,-0.05691846,-0.14284405,0.07969001,-0.075213514,-0.08068164,0.112915725,-0.010929554,0.019295227,0.10022818,-0.06324865,0.12919296,0.042741235,-0.09991505,0.088355236,0.026576169,-0.10804424,-0.06311329,-0.08519674,0.20085123,-0.0022683884,-0.09514503,-0.028954396,0.031450547,0.050522,0.16747914,-0.057197705,-0.027434537,-0.023828832,0.10989557,0.060052767,0.1303543,-0.032655433,-0.050057128,-0.11836474,0.050874256,-0.20293956,-0.0037764583,0.0998831,-0.14980525,-0.073088154,-0.11648655,0.20086664,-0.08666407,-0.13636431,-0.055167582,-0.032364424,0.01592235,0.16793971,0.12153494,0.08862872,-0.01709093,0.07002265,0.17598608,-0.14106573,-0.0640169,0.10655272,0.036377817,-0.14028089,-0.05607554,-0.0060569257,0.06447328,0.033242732,-0.1401735,0.10916948,-0.037639767,-0.045438003,-0.05535755,0.021541836,-0.042401627,-0.16904406,0.13056087,-0.04973005,0.03746781,0.027819797,0.00879184,-0.104010195,0.059814848,0.0054986333,0.10227959,-0.062732086,-0.050481677,0.03574837,0.13732886,0.06599811,-0.01710463,-0.074353814,-0.019395294,-0.035099015,-0.046678897,0.08282836,-0.0031512296,-0.19307582,0.06956512,-0.06901225,0.003029508,0.1311214,-0.13011466,0.09950603,0.050126605,-0.049106095,0.0782196,-0.06585914,-0.062209867,-0.051537793,-0.14097017,-0.071750045,-0.05555896,0.12974767,-0.008515612,0.03785926,-0.16638328,0.1498756,0.07141623,-0.0656014,0.061626267,0.09805163,0.046840776,0.10021141,-0.038029898,0.029219752,0.0019798297,0.13306957,0.04315512,0.019620536,-0.10936598,-0.082538605,-0.0041359216,0.08752797,-0.08738768,-0.066648856,0.06255315,-0.087781906,-0.105713636,0.108299725,-0.025380453,0.17142966,-0.10099129,0.036338296,-0.09799706,-0.14266606,-0.030943805,0.05954047,0.032019433,-0.116185084,0.06365674,0.07608064,0.087701954,0.071615234,-0.043337658,-0.17527846,0.05797463,-0.005957192,0.1524659,0.12672314,0.034008626,0.18393368,-0.11589347,-0.091318645,-0.08071333,0.033169463,-0.056716632,0.0059758932,-0.086582184,-0.043514058,-0.057541285,-0.05922452,0.031986285,-0.16085069,0.052896332,-0.10011669,0.07494571,0.011382696,0.24441478,-0.08733869,-0.017551256,-0.06639538,-0.0015829867,0.058509585,0.058381915,0.09799532,0.12990242,0.15016805,0.1332774,0.031071167,0.10072847,0.08611858,0.13009915,-0.024814403,0.15802659,-0.08273376,-0.11773033,0.1335345,-0.036860842,-0.16929999,-0.01234437,0.074204005,0.035294075,0.045632154,0.06363161,-0.020819787,0.1736205,0.10135888,-0.039427187,-0.11827217,0.079327255,-0.21187818,-0.14708051,0.025178228,-0.056732077,-0.008688623,-0.041676756,0.06379715,0.16199146,0.1847846,0.0018718181,0.26395145
-0.16328022,-0.08335781,-0.08132821,0.08977682,-0.121269435,-0.049263492,-0.11315098,-0.11939028,-0.108468026,0.00339282,-0.07493497,0.022704983,0.23548302,-0.23119046,-0.006836744,-0.13232419,-0.0048280014,-0.13602135,-0.03791231,0.100999445,-0.009261957,-0.02742546,-0.049048316,0.048924528,-0.0110282395,0.03179546,0.13535932,-0.15107723,-0.018794362,-0.053960517,-0.07241886,-0.082296394,-0.0530982,0.0396177,-0.17925583,-0.087832205,0.1050964,-0.004545519,-0.17190707,0.22150032,-0.13366547,-0.049701113,0.077736944,-0.081638925,0.0056018103,0.17340262,-0.10670822,0.13474706,-0.004348738,-0.1338748,-0.03523468,-0.1258174,0.13077402,-0.08397336,-0.030867008,-0.043898493,0.13915981,-0.054376706,0.21516716,-0.03962539,-0.03791916,0.00028772393,0.11481571,-0.033485632,0.11241518,-0.076371245,-0.006352077,-0.14290607,0.06897754,-0.24355894,0.048384566,0.057374336,-0.057469916,-0.075074926,-0.13560574,0.13295636,-0.047635272,-0.08957354,-0.12860587,-0.08677125,0.00016653165,0.20693919,0.055106528,0.033073258,0.0010889615,0.04655817,0.20361365,-0.05253043,-0.17817815,0.089843966,0.049813014,-0.05755762,-0.022829533,0.069022305,0.12724398,0.04534058,-0.070809774,0.15011495,0.013560779,0.033916835,-0.10879667,-0.09883636,-0.05510544,-0.21465407,0.21452862,-0.084286496,0.13257879,0.008153843,0.05646015,-0.05812387,0.056099314,-0.026058145,0.1496729,-0.028154751,-0.04711881,0.04695061,0.1641335,-0.013741384,-0.05213209,-0.05085206,-0.01142696,-0.1284921,-0.017524404,0.11424852,-0.09047638,-0.13636938,0.13895279,-0.07947334,0.016386926,0.14729743,-0.057990365,0.07088598,0.0538496,-0.12383146,0.16168967,-0.041238207,-0.03532862,-0.029383944,-0.23539351,-0.040148925,-0.053856917,0.12350178,-0.040045854,-0.056159187,-0.19710216,0.12373563,0.15384409,-0.057113804,0.09231379,0.061618127,0.09971914,0.044809133,-0.07391775,-0.05578766,-0.05779687,0.058869015,-0.0040157153,0.07398523,-0.13073549,-0.13022992,-0.062539436,0.10400711,-0.06616978,-0.07659011,0.025293013,0.03915585,-0.08278109,-0.003985485,-0.18323793,0.11243563,-0.14382418,0.0034742518,-0.12910888,-0.15152143,-0.067184076,0.066031165,0.047828153,-0.07723984,0.10237832,0.07459169,0.061137382,0.14449577,-0.050997168,-0.12870017,-0.03348631,0.018054232,0.094085865,0.1828051,-0.0017819868,0.21256901,-0.053375218,-0.119924575,-0.1107458,0.13176396,-0.15749162,0.01774289,-0.14820874,-0.021840869,-0.061374485,-0.044923604,0.027824286,-0.098769754,0.08112266,-0.079440795,0.11476598,0.036754664,0.28346574,-0.10329227,0.029252259,0.0002809999,0.07543517,0.021863451,0.055790465,0.112334386,0.10146885,0.1706036,0.18161623,0.1163398,0.12081071,-0.051359475,0.24385591,0.02429757,0.22421654,-0.18496007,-0.10313472,0.07953897,-0.0055090343,-0.21686186,0.025391381,0.13712607,0.060628083,0.10112619,0.12088269,-0.05220923,0.13064034,0.06539196,-0.04462603,-0.17762029,-0.0047432687,-0.18961237,-0.050979126,0.05468019,-0.10466078,-0.02848409,-0.11772426,0.082466975,0.22835976,0.2291524,-0.010735255,0.10497063
-0.09376672,-0.08771054,-0.0266904,0.17674848,-0.059483334,0.044247236,-0.21108903,-0.11352235,-0.096103445,0.0021900516,-0.01314445,-0.015186998,0.21383394,-0.18182033,0.012397968,-0.14922932,0.021330345,-0.15623087,-0.02002528,0.20299985,-0.052080054,0.01961647,-0.02430213,0.09683995,0.008908575,0.059484262,0.13622403,-0.28894535,0.026328417,-0.05277108,-0.10272553,-0.040740993,0.0034639994,0.042680044,-0.19478266,-0.18979798,0.035689853,-0.06123778,-0.10010073,0.17694938,-0.106919415,-0.056157615,0.11933705,-0.13833603,0.08369324,0.088734426,-0.12994905,0.11382268,-0.086297244,-0.08500925,-0.064168245,-0.15174623,0.24721348,-0.049064826,-0.045634024,-0.00557725,0.17862953,-0.021358365,0.20905437,0.00034617106,0.03727527,0.01993039,0.024240645,0.011333445,0.19301313,-0.08825355,0.024879025,-0.14301012,0.058561485,-0.3166509,0.05617222,0.06481598,-0.100069635,-0.13757241,-0.12538399,0.2646247,-0.077548526,-0.053882953,-0.05729653,-0.02021036,0.028823875,0.11505167,0.17407537,0.06508545,0.002883693,0.11573733,0.15847927,-0.072831884,-0.10279406,0.18373267,-0.043920882,-0.010154478,-0.024999807,0.022926409,0.1009872,0.073368154,-0.16476575,0.08171129,0.008322938,0.047670335,-0.029849928,-0.04514219,-0.1357933,-0.23097911,0.22223683,-0.13130352,0.11250187,0.026360752,0.08155072,-0.10387097,0.09403833,-0.1084273,0.1085266,-0.055098806,-0.075299464,0.064300604,0.33101568,0.031565942,-0.07707494,-0.15429454,-0.056056976,-0.14345716,-0.038947176,0.110128865,-0.13362522,-0.26749316,0.088682145,-0.06969885,0.0024546355,0.15984987,-0.015245795,0.053484995,0.10968026,-0.15658943,0.091868155,-0.10288125,-0.09591273,-0.033823527,-0.116808206,-0.042845126,-0.11980247,0.13758467,-0.04516553,-0.044323597,-0.15469694,0.108469225,0.29842743,-0.050956726,0.013809071,0.05880904,0.042208154,-0.014439855,-0.0867299,-0.07370196,-0.028888738,0.05196423,-0.06493649,0.01053097,-0.15709269,-0.14130147,-0.0130047165,0.052906953,-0.121869974,-0.04202839,0.025603762,0.02432268,-0.07317601,0.04352892,-0.11782023,0.073642895,-0.04899393,0.044159662,-0.08874411,-0.21564746,-0.045506235,-0.026320709,0.0883175,-0.108448796,0.19543907,0.063162625,0.025009144,0.06466213,-0.07002098,-0.23037897,0.0037802423,-0.07511948,0.16104016,0.16576986,-0.02725552,0.30253378,-0.09001852,-0.08754701,-0.11712183,0.07676743,-0.10797676,-0.05214022,-0.10676896,-0.018369008,-0.08921329,-0.062395085,0.06614359,-0.2072817,0.13757333,0.0050977813,0.052071135,0.034675237,0.13751048,-0.13678105,0.031439364,-0.0004464592,0.07802347,0.082124054,0.14641751,0.13758008,0.11496643,0.22787744,0.19748709,0.11851182,0.13285552,0.009712136,0.24939656,-0.007899086,0.2992413,-0.15244006,-0.08421774,0.11415283,-0.031555604,-0.13276678,0.005767494,0.11772559,0.103631355,0.03223465,0.13170865,-0.019409625,0.06364614,0.072860494,-0.017240126,-0.15551499,0.055508874,-0.21905579,-0.06606976,0.05185257,-0.055014204,-0.14033368,-0.032378975,0.17646873,0.24300992,0.16482767,-0.0053994204,0.2873692
